#ifndef CONV1_WEIGHT_H
#define CONV1_WEIGHT_H

float conv1_weight[] = {
-0.000180f, -0.000013f, -0.000021f, -0.000203f, 0.000050f, 0.000076f, 0.000100f, -0.000104f, 
-0.000181f, -0.000012f, 0.000112f, -0.000062f, 0.000007f, -0.000190f, -0.000031f, -0.000132f, 
-0.000144f, 0.000043f, -0.000001f, -0.000126f, 0.000182f, 0.000189f, 0.000108f, 0.000084f, 
-0.000055f, 0.000102f, 0.000123f, 0.000192f, -0.000180f, -0.000153f, -0.000064f, 0.000227f, 
-0.000174f, 0.000291f, 0.000084f, 0.000055f, -0.000147f, 0.000011f, 0.000004f, -0.000096f, 
-0.000140f, -0.000226f, 0.000097f, -0.000028f, 0.000110f, -0.000179f, -0.000250f, -0.000046f, 
0.000109f, -0.000073f, 0.000093f, 0.000118f, -0.000158f, -0.000100f, 0.000083f, -0.000318f, 
0.000287f, 0.000062f, 0.000231f, 0.000332f, -0.000054f, -0.000303f, 0.000420f, 0.000157f, 
0.000152f, 0.000314f, -0.000136f, 0.000075f, -0.000285f, -0.000007f, 0.000124f, -0.000288f, 
-0.000146f, 0.000055f, 0.000059f, 0.000000f, -0.000002f, -0.000111f, -0.000237f, 0.000046f, 
0.000005f, -0.000112f, -0.000048f, 0.000075f, -0.000166f, -0.000102f, 0.000041f, -0.000166f, 
-0.000109f, -0.000018f, 0.000225f, 0.000184f, -0.000070f, 0.000087f, 0.000193f, -0.000219f, 
-0.000197f, 0.000155f, -0.000053f, 0.000222f, -0.000106f, 0.000017f, 0.000153f, 0.000213f, 
-0.000154f, 0.000208f, -0.000012f, 0.000053f, 
};

#endif // CONV1_WEIGHT_H
