#ifndef CONV1_WEIGHT_H
#define CONV1_WEIGHT_H

short conv1_weight[] = {
1929, 6235, 2909, 7993, -4599, -2648, 1121, 1499, -5794, 4167, 2825, 2305, -6265, 4049, 897, 2860, 
749, 7235, 1862, 5742, 4781, -6531, 7022, 4754, -3865, 3771, 2550, 6066, -2612, -2808, -785, -4713, 
-4522, 2012, 4339, -1764, -1264, -7371, 2154, 6402, 7747, -7060, -5512, 3169, 7672, 7672, 4867, -5597, 
992, 4083, 5174, -2325, 924, 281, 6489, -4818, -3875, -6692, 5758, -5591, 4916, 4702, 5221, -1604, 
312, -402, -856, -1107, 507, 5836, 1396, -389, -3383, -2456, -7171, 6728, -5489, 3073, -6209, 4871, 
1962, -1218, -4839, -8109, -4856, 2154, -3258, 5681, 6013, 672, -7537, -1825, -1861, 542, -8295, -5589, 
-1469, 5641, -4079, -2308, -2914, -1065, -3557, 1167, -601, -4439, 1140, 4573, -1004, 4576, -1638, 6342, 
-6226, 2275, 7047, -1556, -6151, -2936, -6804, 6747, -863, -1435, 7580, 2689, 6855, 1417, -4078, 8092, 
6146, -3220, 60, 4743, -1802, -2932, -5247, -2334, -2262, 6818, 5158, 4826, -89, 573, 4526, -4166, 
-1749, 4452, 4555, 143, 6322, -5546, 5609, 526, -7287, -1851, -7907, -6419, 1761, -5056, -5845, -126, 
-4743, 5092, -7956, 3997, -1345, 1599, -2200, 1594, 4540, -6878, -4838, 1765, 3893, -5041, -4476, 5858, 
-4649, 6401, -5006, -2414, 894, 5136, 6809, -5794, 4218, -5710, -2294, 2589, 7429, 2914, -2804, 7081, 
4895, 7314, -530, -4419, -6233, -3151, 4097, -1212, -1334, -4102, 3988, -4398, 4621, 6490, -1512, -1885, 
-7197, -5150, 1704, -1392, -7274, 3179, -1783, -3457, -6799, -6164, -7881, 4396, 128, 2130, -196, -1371, 
903, 231, 6391, 5627, 3082, 41, -5875, -8154, 4382, -5032, -4625, 3523, 4426, 921, -3537, 296, 
-6348, -1057, -5184, -7458, 2456, -4135, 1677, 4278, -5063, -8322, -3649, 1087, 2412, -1236, -3095, -1422, 
-1103, -2263, -7496, -5833, -441, 1014, 4093, 6102, -3010, 4, -7617, 2993, 781, 1274, -5880, 1772, 
3436, -3962, -2731, -2971, -6466, 5895, 1685, -1098, 7022, 4051, -1766, 5795, 4637, 3986, -244, 5229, 

};

#endif // CONV1_WEIGHT_H
