#ifndef CONV2_WEIGHT_H
#define CONV2_WEIGHT_H

short conv2_weight[] = {
3578, 2670, 3446, 2691, -118, -4507, -2054, 3927, -4167, -4335, 1893, 2461, -1324, -1052, 3611, -3685, 
-4523, 204, -3866, 1253, 234, 1474, 3987, 3109, 815, -1824, 1613, -2458, 317, -1111, -4332, 1497, 
-4112, -687, -122, -2293, 2681, -3445, -488, -3467, 1567, -2300, -331, -4823, 2908, 2907, 3254, -1478, 
3492, 2435, 2887, -3066, -3494, 1604, 3522, 3020, -3638, 4736, -4398, 4274, -3403, -981, -3951, -4878, 
3375, -4168, 2829, -3247, -1575, 3157, 492, -2518, 1720, -3340, -3207, 3421, 2356, 1523, -2296, 2790, 
3118, -3322, 3544, -2049, -1989, -1326, -1502, -4297, -3108, 1904, 3407, -2068, 2791, -1206, 3025, 126, 
-100, 569, 1586, 367, 2873, 1933, 318, 2744, -1294, 641, 4060, -1369, -2163, -707, -43, 224, 
-2546, 3616, 4536, 5139, 3004, -3803, 643, 1319, 4548, -2861, -719, -2855, 2567, 4134, 4633, 552, 
-3289, -2460, 755, -2593, 926, 783, 1079, 2089, -3232, 1707, 788, 1543, 4319, 2745, 327, 3452, 
1097, 674, 2002, -2465, 682, 2554, -263, 4194, 1490, 1287, 2020, -2158, -3002, -1447, -2663, 2346, 
-3532, -2209, -3332, 374, 3175, -423, 1463, 3748, 3660, 2954, 2674, -3647, 502, 3386, 477, -613, 
1571, 709, -3070, 3995, 424, 3305, 5225, 5079, -1712, -4327, 73, 2710, -4236, 1121, 2167, 4095, 
-3291, 4730, 3429, -3949, -3106, -1979, -2565, -3040, 2900, -2867, 1599, -3337, -2987, -4412, 585, -2480, 
-2531, -1870, -206, 557, 3390, 1667, -2593, -300, 3659, 365, -2969, 3333, -4575, 4379, -1578, -1194, 
453, 1072, -945, -4138, -1148, -1989, -1638, -3976, -3831, 3034, -4854, -2474, -884, -4467, -4240, -4243, 
4468, -1790, 1102, -1298, -1729, -746, 3334, 1308, -3804, -1204, -306, 2621, -211, 4156, 3994, 2952, 
774, -1326, 1843, 960, -3656, -3116, 2271, 3241, 3192, -3930, -842, 876, 2822, 3659, 22, 3835, 
-4054, 407, 4556, 5463, -1505, -2352, -2256, 779, 4370, -725, 1385, 3333, 1610, 3484, -676, -367, 
384, 686, 1851, 248, 1587, -4286, 1012, 4579, 2266, -1096, -3538, 4529, -2847, 1686, 2896, -1552, 
-4740, -1578, -2451, 4656, -1150, 1860, 5112, 3887, -2334, 652, -4327, -2323, -3696, 2084, -3277, 3092, 
-1038, -3469, 1136, 2094, 5, -3825, -3560, -1847, 185, -2653, 1093, -2965, -3268, -4498, -462, -788, 
1847, -2238, 2385, -4993, -330, 2793, -3601, 1753, -1383, 1515, 3049, -4715, -1814, -3951, 371, 4644, 
4380, -723, -1384, -4566, -3135, -1791, 3637, -360, -4112, 4431, 1584, 1418, 81, 4208, -4438, -707, 
-4959, 1134, -2428, -3348, 3412, -4076, -1021, 229, -669, 2864, -3007, -1471, 2161, -2637, 851, -2097, 
676, -2374, -1079, 3344, 2352, -2010, -4847, 234, -2757, -3825, -5021, -2872, 2030, 1909, -2010, -4197, 
96, 4145, 2573, 791, -1682, -980, 869, -4069, 4609, -738, -2668, -2221, 3578, -3153, -4131, 2073, 
-4854, -2904, -318, 1840, -3936, -649, 2699, 4059, 788, -2034, 3410, -2789, -1795, -2894, -3052, -3546, 
-1151, 1131, -2751, 617, 2058, 3915, 492, 517, 4658, -2487, 4447, -3258, -2346, 4909, 3661, 3964, 
1199, 3679, -1521, -1762, 4824, -1255, 3701, -1797, -452, 1176, -2183, 1751, 5562, -3538, -2656, 3758, 
-3024, 4702, 2902, 4579, 2091, -1006, -1811, -1473, -1845, -866, 2335, 3881, 3074, -1011, 466, -515, 
-2673, 3322, -3216, -1142, 16, 469, -1651, -4217, 3457, -3850, -3322, -1384, -4135, 2905, 2376, -2516, 
3571, 2540, 3072, 775, -3132, -5049, -190, 3140, 1019, 1170, -687, -3532, 2538, -149, -23, 1184, 
-3653, -1604, -2120, -432, 2947, 1700, -1897, 4495, -3587, 192, 2251, 4971, 2858, -1736, -2291, -587, 
-961, -2167, 1008, 344, -4413, -2486, -2536, -1737, 1795, 2394, -4106, -3906, 3327, 2463, 3327, -2091, 
-4812, -939, -1451, -2520, 3008, 3029, 3107, 831, 3035, -1113, -5165, 3493, -3723, -3280, 2829, -3600, 
-4811, 972, -1569, 2717, -924, -1669, -4185, -4938, 3472, 1917, -3946, -110, -639, -1377, 2528, -1566, 
-1367, 2636, 3015, -1261, 544, 2898, -3280, -3730, 1798, -3528, -1976, -3501, -4579, 3412, -3463, -3796, 
3681, -1649, -401, 4173, -3229, -2701, -1779, -2653, -4637, -2517, 2249, 2524, -4016, -1691, -1549, -3487, 
-1307, -1144, -1657, 3673, -1894, -4396, -1485, -2943, -1845, 3370, -247, -5098, -148, -4032, 607, 1572, 
-514, -888, -3799, -3226, -4578, -2157, -4400, -1827, 2773, 3431, 2172, 166, -128, 3125, 1750, -2206, 
-2526, 298, -3729, -1998, -2355, -1525, -1937, -318, 4313, 495, 3164, -3814, -4298, 3097, -2474, -556, 
995, -2946, 3941, -3263, -818, -1291, 4721, 2912, 1600, 4486, -2317, 2249, 1110, 236, -1829, -4435, 
-3124, -3791, -3844, -1294, -4682, -3284, 838, -634, 2914, -108, 643, -947, 2257, 2299, 585, -1492, 
-626, 4089, -2397, -2435, -3554, -3761, 1654, -3414, 2321, -2004, 1617, 4265, 160, 771, -1124, 2269, 
512, 3154, 3597, -2254, -48, 854, 2921, -269, 2403, 4235, -2273, -2662, 1768, 114, -4903, -1494, 
-2705, -1710, -280, -270, 1215, -3786, -4128, 4304, 2339, 1877, 4296, 351, 1652, 5903, 1349, 968, 
4847, 3855, 640, -1593, 3365, 244, 4465, -225, 2600, -885, -3756, -238, 2544, 4919, 4237, -2324, 
-2880, 3868, 1844, 2450, 477, -2509, -950, 1282, -655, -28, 2144, -2071, -1924, -3484, 2310, 2166, 
-3898, -4427, -4153, -734, 666, -3653, -1097, -1034, -2833, 1248, -4280, -1552, -30, 2363, -2977, -1234, 
4269, -2429, -3165, -3124, 2010, 2329, -3592, 2199, -777, 1714, 3963, -1411, -912, 3566, -3594, -1871, 
-1759, 1046, -2394, -283, -685, 3645, -3511, 3831, 4018, 551, -488, -1405, 2537, 3743, 978, -2273, 
5166, -2341, 5064, -71, -3454, 2530, 4917, -509, 837, 4206, 4253, -1713, -2896, -2655, 3612, -3042, 
-623, -1305, 997, -570, 1778, 2228, 1284, 2994, 2753, 2208, 2509, -551, 1924, -1134, -1838, 2838, 
-1779, 118, 714, 2182, 2776, 3707, -1198, -4278, 2844, -581, 4705, 882, 340, -98, 2515, 314, 
2872, 948, -287, -3295, 3387, -181, -4090, 206, 1228, 4819, -2032, 4297, -495, -723, -2679, 2579, 
1125, -1409, -4193, -2880, 4183, -4495, -2454, 1217, 2363, -4027, -4365, -610, -1919, -1318, 2294, -903, 
-2789, -3767, -3470, 2111, -3262, 2629, 3437, -1386, 2624, -834, -4639, -230, 376, 1274, 2497, -2946, 
3957, -713, 838, -3491, -932, 2462, -470, 717, -657, -2061, -3122, -2726, 4219, 3028, -499, 5067, 
1688, -2686, 3626, 3049, 4510, -1934, 2008, -3219, 3118, -3083, 5546, 744, -2932, -1644, 4521, 2128, 
-289, 4157, -927, 3995, 1770, 3487, 409, -52, -1326, -2780, -796, 2568, 3253, -611, -720, -2542, 
-3741, -2565, 1171, 1197, -862, -1438, 3344, 25, -1685, -618, -2474, 831, 955, -4105, 1206, -5277, 
-4004, -4816, -2926, 3015, 3107, -4280, 153, 2143, -4865, -4539, 3353, -1326, 890, 3301, 1770, -3363, 
-3174, 2178, -132, -1119, -4797, -4230, 3781, -736, 1857, 2368, -861, -577, 3970, -4435, 4670, 406, 
-1466, -1835, 3165, -358, -1974, 667, -629, -2082, -1877, 2421, 3023, 2397, 1056, -4147, 2647, -2308, 
2262, 1887, -4251, -3133, 4002, 555, -4270, -454, -1545, -4436, -4275, 1483, -2461, -1639, -472, -2947, 
1137, -970, -4562, 107, 3670, -2702, -3762, 3796, 2581, 3571, -4719, -4222, 57, -1514, 3628, 2975, 
-1370, -157, -1379, -2818, 531, -3685, 1495, -2715, 1615, -470, -2741, 3581, 567, -2933, 1410, -3521, 
-369, 1622, 82, 3159, -309, 98, 4698, -1410, 979, -2349, 1548, 656, -1158, 46, -2108, 4528, 
4166, -4079, -3052, 344, -4060, 1343, -239, 3030, -4494, 1852, -993, -5301, -2382, 4233, 2945, 3375, 
-4258, -4966, 2643, -5142, 1823, -1115, 1647, 262, -415, -2654, 2943, 673, -2085, -3325, 746, -3414, 
-2969, -1942, -3006, -2542, -3241, -841, -3933, -1540, -3041, -825, 4186, -548, 2053, 1366, 3540, -1713, 
-1143, -980, -4086, -1435, 3425, -426, -1313, -3361, -3451, -2147, -1922, 1890, 150, 23, -3568, 3271, 
2129, 89, -1791, -1420, 2241, 4120, 5243, 5012, 2181, 173, -3298, 3175, -3212, -1868, -2114, -4649, 
-3781, -1345, -1942, 3115, -3890, 3812, 3490, 1175, -1891, 1840, 905, 1553, -3123, 3685, -3167, -2598, 
-2364, -4190, -1747, -3621, 232, -572, 756, -1436, 237, 954, 1711, -739, -3866, -2532, 2923, -4300, 
-4827, -3467, -2823, 814, 2201, -328, 39, -4328, 3753, -1940, -2357, -3165, -884, -856, -1946, -470, 
-891, 2475, -60, -2883, 2515, 127, 3588, -449, 4552, 1558, 1239, 4114, -4623, -3707, -2396, -640, 
3403, 1915, -360, -2468, -3072, -3808, -2059, 83, 2793, -2801, -934, 980, -2861, -670, -645, -54, 
2761, -2242, 4182, -538, 1375, -3079, -2158, -230, -2802, 1325, 2340, 652, 800, -2720, -1270, -3619, 
2312, -1827, 3019, -3281, -901, 1670, -3724, -1128, 981, 3107, -2214, -555, -2935, -3217, 2318, 4871, 
-1290, 1425, -3528, 194, -1591, -3739, 94, -873, -118, 1579, -2618, -4567, -2246, -4024, 3491, 1778, 
-518, 2926, 1375, -1674, -2622, -720, -1896, -535, -703, -1673, 2172, 1855, 2645, 4424, 4695, -1680, 
2021, -1687, 1374, 4574, 1550, 3897, -504, -855, -1079, -1716, 1696, 3482, -3716, -203, 4115, 304, 
1323, -761, -2718, -1041, -267, -1366, 3783, -2652, -1659, 3845, 2784, 1908, -1871, 5263, 2539, 3433, 
123, -1565, -1407, -3049, -3411, 2647, -2542, -3361, -5111, 2521, -973, 208, 2959, 2041, 1330, 398, 
2985, 3313, -700, -2195, -1009, -4448, -1782, -147, 3874, 3180, -3467, -3583, 4376, 2415, -4402, 2640, 
-681, -3940, -2854, 1982, 833, 1813, 4049, 3783, -3020, -2216, 1962, 463, 3265, -829, 16, -1242, 
3941, -1050, -684, 1398, 79, 1614, -373, 2701, -2415, 3671, 615, 2312, 1734, 4320, -3062, -18, 
-2551, 4226, -3474, 3533, 4605, 404, -484, 3872, -2324, 3541, 180, -1497, -345, 4619, 4661, 2772, 
1557, -3182, -3464, 1215, 601, 2689, 2658, -2204, 1619, 2823, -910, 375, 1585, 3589, 144, 2070, 
-4149, -4679, 1038, -112, 2675, -4831, -2656, -148, -4005, 3544, 2709, 1008, -4261, -911, -3404, 1091, 
-2758, 3924, 1854, 1541, -2745, 1274, 4258, -4633, -437, 327, 2782, -1193, -1639, -1391, -4464, 2858, 
-266, 1660, -5118, 3030, 1811, -4330, 1997, -2350, -3299, -2297, 2997, -4458, 754, 4464, 3973, -4387, 
-2717, -2976, 3028, -1648, -2821, 3755, -2039, 2158, 1452, 4771, 3038, 614, 3446, -2997, -4059, -4492, 
-4981, -2080, 20, 1118, 806, -1958, 925, 2858, 3372, -2714, -151, -2392, 933, -1498, -4854, -4360, 
4255, 1622, 3957, -4761, 24, 2567, 1228, 1849, 3864, -1166, -2330, 225, -2968, -4739, -347, 2839, 

};

#endif // CONV2_WEIGHT_H
