#ifndef FC1_WEIGHT_H
#define FC1_WEIGHT_H

short fc1_weight[] = {
-830, 629, 486, -1376, -182, -814, -1231, -1151, 386, -123, -858, -1013, -1278, 378, 432, 47, 
353, 54, -317, -1381, -149, 43, 531, -1516, -857, 302, -553, -978, 545, -1533, -597, -204, 
-1166, 35, -934, -1166, -517, -615, -212, 227, 248, 146, -91, 83, -719, -1230, 485, -1285, 
-993, 172, -52, -302, 65, -380, -943, -1330, -1087, 237, -1037, -1162, 89, 607, -593, -232, 
-20, 490, 273, 795, 634, 659, 451, -398, 963, 595, 818, 795, -479, 482, -278, -628, 
25, -408, -827, -399, 157, -51, -554, 133, -233, -702, -1627, 428, -54, 426, -1094, 1461, 
-770, -937, -365, -109, -140, -355, -1025, 227, 388, 124, 402, -38, -930, 99, 54, 948, 
1181, -1324, -466, -645, 298, -832, 896, -1088, 1471, -457, 187, -469, 460, -1415, -851, -464, 
303, -1314, -520, -1534, -147, -874, 54, -1343, -746, -416, -1411, -1344, -157, -328, 99, -1135, 
-889, -993, -326, -149, -803, -606, 688, 1523, -136, 1547, 1082, 19, 454, 805, 65, 1229, 
1615, 361, 1381, 61, 1478, 863, -69, 863, 1164, 1954, 1067, 1484, 37, 608, 232, 222, 
443, 809, 961, 118, 106, -534, -1193, 205, -1397, -184, -481, -846, -1366, -393, -427, 329, 
-321, -1477, -520, 158, -1193, -930, -658, -416, 339, -1379, 138, 318, 210, -486, -640, -821, 
-1296, -306, -727, 968, 289, 1404, 342, 404, -363, -31, 415, 1033, 1079, 546, -38, -273, 
-268, 807, 249, 1076, -538, 316, 516, 512, 415, -343, -697, -452, 215, 539, -276, -460, 
143, -273, -43, 984, -38, -463, 161, -430, 17, 610, 742, -399, -169, -632, 896, -802, 
390, 1240, 1155, 776, 545, 688, 291, 457, -172, 1244, -302, 271, 343, -62, 373, 585, 
898, 894, 790, 1427, 778, -280, -117, 17, 1691, -112, 923, 1579, 35, 597, 848, 1142, 
1217, 1295, 1729, 90, 1654, 1156, -166, 7, 1225, 1609, 692, -895, -451, 1075, -172, -234, 
1090, -186, 649, 238, -427, 72, 1022, 300, 859, 725, -175, 619, 1264, 215, 1216, 68, 
713, 1357, 570, 67, 366, -431, 973, 930, 1153, 62, -45, 951, -608, -680, -179, -84, 
-396, 182, 555, -497, -1557, -523, -595, -1259, 610, 581, -282, -772, 823, 426, 526, -1006, 
-1031, -502, -1185, -858, -588, -206, 817, 2251, -116, -314, 168, -1087, -224, -262, 530, -488, 
-1275, -1301, -952, -899, -913, -1214, 82, -1241, -733, 185, -1007, -579, -1291, -1541, -153, -1382, 
342, -394, -195, -606, -40, -678, 794, -57, 636, 52, 912, 17, 455, 765, 301, 1017, 
273, 479, 444, 987, -477, -323, 355, 1313, -102, 366, 533, 914, -410, -371, 564, 11, 
1035, -164, 636, 698, -250, 740, 1144, 1179, 879, -97, 1031, 705, 1179, 906, -323, 783, 
603, 1321, 63, 1387, 1138, 627, -123, 191, 1191, 692, 361, 1305, 467, 1017, 674, 6, 
376, 509, 396, 284, 1182, 1212, 1312, 469, 806, 1269, 853, 493, 350, 1093, -170, 976, 
-157, -296, 1603, 994, 1148, 664, 803, -4, 852, 528, 1604, 379, 1259, 130, -102, 123, 
-459, -313, 1147, 1096, 88, 1331, 1382, 1297, 500, 544, 340, 1271, 256, 1281, 1177, -179, 
611, -224, 321, 821, 373, -502, 1067, 570, -639, 313, 635, -512, 1133, 1017, -352, 1554, 
1067, -367, 942, -424, 272, 435, 488, 463, 404, 97, 1278, 502, -400, 43, 433, -257, 
398, -596, -452, 652, -53, 716, -643, 808, 209, 1186, -202, -798, -585, -1066, -1470, -129, 
570, -600, 146, -348, -589, -31, -848, -1355, 481, -467, -83, -994, -843, -596, 259, -721, 
-866, -421, -105, -408, -906, -752, -1091, -265, -1073, -179, -238, -300, 1050, 1361, 706, 979, 
535, 1364, 1309, 379, -275, 1080, 300, 640, 275, 1263, 192, 38, 87, 885, 1260, 550, 
1735, 125, 1661, 1000, 1613, 422, -141, -265, 605, -422, -460, 382, -928, -171, -1018, 1198, 
-941, -141, -741, -194, -596, 678, 225, 43, 158, -491, 244, -30, -390, -494, -601, 1046, 
-385, -494, -495, -394, -166, -1527, -948, -1045, -7, 291, -904, 368, 373, -1254, 188, -707, 
-295, -326, -891, -899, 351, 335, 611, -21, -875, 432, -720, 20, 500, 187, -1005, 725, 
-1030, -407, -977, -1127, 37, -486, 516, 553, 1093, -31, -319, 687, 815, 834, 412, 1005, 
-81, -280, -898, 962, 681, -524, -564, -85, -594, -18, 975, -294, 411, -905, -466, 103, 
-695, -1154, 554, -307, -129, -1354, -640, -50, -316, -304, -336, -393, 404, 242, -560, -298, 
98, -1543, -56, -40, -550, -1812, -431, -1584, -837, -1180, -1548, -214, -1109, -389, -828, -1209, 
-1363, -1500, 564, -561, 446, -260, -1216, -490, -1476, -1479, -696, -1033, 67, -681, -534, -1156, 
-1006, 219, -1254, -1649, 290, -980, -661, 562, 223, -1066, 611, -1036, -277, 478, 951, 401, 
-848, 1028, 1138, 987, 174, -783, 362, 1047, 931, 543, 376, 16, 1037, 862, -293, 1080, 
841, 276, 349, 1127, 818, -968, -39, -136, -830, 939, 748, 327, -397, -1360, -467, 536, 
433, -1220, -1359, -141, -1241, -1787, 72, -632, -1006, 491, -609, -1364, -1308, -1426, -1496, -594, 
216, 104, -1309, -1308, -1347, -1216, -1286, 253, -1060, -386, 345, -24, -510, 901, 222, 10, 
279, 663, 952, 222, 325, -523, 794, -950, 1170, -881, -353, 1161, 482, 137, 417, 106, 
569, 53, -14, -447, -477, 962, -515, -208, 696, -2, -220, 122, 1377, 1107, 507, -418, 
807, 667, 312, 1292, 28, 435, 297, 982, 212, -387, 10, -82, 1477, 1163, -196, -310, 
978, 982, 36, 1289, 285, -794, 1048, 900, 1363, 70, -154, 90, 828, 1642, 239, 326, 
557, 742, -740, 8, 846, -588, -1140, -294, 159, -327, 1318, -345, 439, 647, 710, 1120, 
358, -23, 401, -399, 400, -624, 179, -972, -516, -666, -1012, -159, -188, -714, 707, -795, 
-149, 854, 255, -66, -355, -304, -713, -882, -179, -654, -948, -682, -972, 519, -707, -196, 
783, -19, 1178, -854, -38, 60, 815, 814, -1060, 147, -360, -1157, -80, -633, 564, -1394, 
-83, -546, 850, -953, -621, -904, -1282, -767, -1228, -855, 704, 870, -1114, -441, -552, 149, 
-722, -462, -628, -1334, -1351, -1021, -1221, -1090, -279, -169, -1688, -1612, -1653, -724, -881, -632, 
-208, -1013, -586, -1901, -818, -900, -1771, -1395, -174, -1184, -758, -803, -1374, -1830, -1496, -616, 
-2046, -1306, -476, -1698, -495, -1090, -832, -947, -1374, -927, -468, -1686, -1394, -1419, -1229, -901, 
-575, -710, -1804, -899, -785, -418, -321, -1734, -531, -1843, -335, -642, -406, -776, -1549, -1268, 
-117, -310, 348, -169, 70, -357, -137, -1155, -1136, -349, -730, -52, -289, -906, -729, 821, 
-482, 182, 666, 69, 112, -1401, -1, -407, 552, -692, -2260, -136, -95, 13, -951, -1441, 
-1180, 148, -1016, 142, -1479, -1155, -1354, 418, -1165, -1065, -318, -59, -651, 156, -1373, -1764, 
-1396, -59, 6, -450, -341, -1208, -1354, -1247, 1082, -458, 761, 612, 239, -163, 607, 85, 
-440, -508, -83, 292, 1261, -771, -772, 755, 1226, -666, -589, 677, 634, 16, -363, -631, 
579, 145, 48, -441, 546, 828, 221, -690, -176, 730, 254, -643, 368, 715, 387, -28, 
1153, -630, 650, -195, 712, -84, 1217, -71, -249, 1318, 1050, 554, 955, -412, 1282, 520, 
994, 1015, 1173, -1057, -117, -857, -928, -1389, -800, -937, 119, -1436, -1905, -654, -703, -331, 
-976, -495, -1791, -938, -1988, -1104, -1072, -401, -413, -1519, -799, -169, -1790, -814, -244, -1928, 
-1262, 139, 119, -299, 1613, 1137, 1616, 251, -535, 131, 87, 1425, -544, 53, -430, 514, 
-115, 828, -280, -283, -139, 646, 1426, -90, -32, 1041, 743, 1235, 1069, 313, 1399, 444, 
-221, 716, 1042, 1173, 64, 864, 1528, 139, 446, -217, 521, 651, 705, 1339, 988, 647, 
697, 137, 437, -488, 1002, 1220, 297, 1539, 1240, 292, 1151, -562, 1233, 923, -373, 717, 
-299, 295, -124, 130, 1316, 927, -282, 174, -500, -167, -601, 1131, -303, 392, 998, 386, 
54, 84, 275, 221, 411, -11, 168, 1078, 867, 543, 333, 810, 1441, 286, 954, 1101, 
1041, 1470, 205, 296, 1103, 78, 82, -185, 1566, 552, 1411, -97, 321, 193, 992, -219, 
1653, 729, -319, 632, 801, -282, -241, 475, 370, 59, -627, 38, -304, -523, 848, 31, 
-364, 197, -273, 949, 182, -176, -417, -567, -265, -466, 338, -1318, -611, 166, -741, -724, 
709, 823, 686, 33, 966, -19, 616, 2038, 1330, 794, 567, -646, 921, 424, -43, 1349, 
-505, 1136, -166, -439, -148, 634, 846, 1108, 870, -341, 167, 536, 504, 191, -150, -401, 
941, -542, 296, -597, 641, -481, 1714, 1505, 755, 802, 918, 652, -57, 1014, 1726, 622, 
707, 1069, 378, 678, 864, -259, 786, 627, 1004, 1561, 471, -346, 1068, 94, 1084, -205, 
1524, 425, 853, -644, 1462, 137, 30, -79, 938, 500, 1567, 1432, 202, -195, 455, 1120, 
1102, 1170, 1233, 870, 1334, 451, 1389, 517, 977, 336, 1598, 249, 1062, 944, 1291, -271, 
581, -129, 577, 815, 1459, 491, 1024, -326, -366, 54, 753, 178, -399, 1270, 1109, 169, 
802, 1492, 172, 318, 268, 577, 20, -125, 1371, 200, 1144, 617, 530, 125, -606, -371, 
113, 637, 1067, 1484, 1411, -244, 1079, 1361, 136, -311, 1601, 1538, 1711, 1770, 767, 1378, 
399, 407, 1205, 1483, 1448, 1764, 1218, 1739, 1525, 198, -199, 332, 1740, 400, -238, -515, 
975, -183, 317, 822, -1156, -447, 238, -511, 364, -429, -533, -508, 180, 196, 924, -870, 
936, -717, -70, 1053, 113, -84, 60, -487, 329, 1256, 244, -1751, -494, 509, -1200, -208, 
792, -814, 189, -591, -93, -251, -174, -157, 328, -972, -1198, 228, -190, 104, -893, 104, 
-132, -836, -291, 698, 712, -304, 638, -578, -373, -1438, -323, 966, 1443, 170, -591, 442, 
981, 89, 668, 1442, -511, 901, 25, -70, 31, 773, 594, -180, -260, 409, -406, -632, 
435, -365, -471, -36, 1105, -588, 737, 41, 889, -20, 1192, -166, 559, -35, 1030, 1081, 
776, 198, 1017, 691, 1201, 1140, -243, 771, 44, 638, 560, 229, 1145, -48, 1413, -446, 
862, 521, -568, 634, -58, -546, -100, 1070, 1118, -313, 1105, 502, 1054, 642, 17, -320, 
1088, 603, 798, 314, -995, 307, 909, -170, -333, 785, 523, 11, -387, -518, 815, 52, 
-1028, 396, 1042, -237, -20, -1006, -1820, -2216, -264, -1711, -1267, -1511, -1261, -1709, -1105, -1346, 
-1695, -1489, -363, -393, -1509, -1784, -225, -1403, -721, -341, -1086, -936, -438, -454, -1151, -723, 
-81, -1200, 662, 584, 671, 789, -1032, -118, -858, -570, -174, -254, -813, -589, -1106, 45, 
-297, -1080, 64, -360, 63, -1260, -104, -363, -1343, -927, 492, -895, 672, 70, -213, 279, 
-1528, 161, -1060, -731, -1365, -1379, -46, -541, 44, -1862, -592, -1301, 210, -1347, -1168, -1661, 
-26, -1052, -1128, 257, -616, 5, -1248, -1724, -203, -10, -892, -306, 86, -1034, -765, 433, 
-158, 242, 977, -203, 471, 893, 1468, -316, 680, -66, -448, -294, -275, 169, 830, 894, 
-597, 726, 1204, 523, 1015, -111, 1205, -442, -463, 1260, -650, 1494, 63, 245, 57, -461, 
165, -1074, 165, 322, 98, 440, 590, -1089, -1462, 227, -503, 471, -860, -431, -911, -800, 
-1163, -1467, -927, -296, -954, -1541, -1344, -711, -142, 922, -958, -558, -433, -334, -673, 320, 
-524, 1163, 1189, -604, 1084, -354, 1399, 503, -65, 822, 490, 105, -722, 287, 1091, 802, 
120, 140, 146, 988, 592, -516, 488, -1663, 1677, 1243, 688, 265, 221, 1403, -83, 721, 
1218, 1231, 600, 677, 353, 100, -263, 1304, 1662, 310, 1322, 1127, 54, 365, 674, 171, 
856, 788, -63, 1188, 969, -261, -270, -826, -446, 465, 171, -247, -1051, -250, -1261, -1234, 
-339, -386, 668, -834, -134, 155, 750, -774, -558, -569, 175, -41, -244, -477, 478, -324, 
399, 416, -167, -1252, 436, 657, 596, 528, 1047, 238, 375, 1226, -701, 1123, -420, 393, 
934, 116, 1161, 1211, 1277, 1236, 1306, 86, 342, 997, 122, -562, 1109, 813, 71, 1355, 
1439, 233, -720, 711, 129, 124, 421, 760, -212, 552, 778, 896, -192, 185, -829, -1037, 
-199, -637, 383, 964, -498, -61, 637, -676, -142, -1156, 67, -737, -739, 765, -67, 890, 
-180, 2123, -2, 1883, 1575, 811, 1284, 1488, 353, 1264, 1507, 752, 532, 112, 7, 206, 
1758, 1735, 511, 1145, 1555, 1617, 213, 1145, 1523, -64, 1726, 707, 798, 403, 44, 1135, 
970, 575, 1902, 555, 2100, 905, 336, 794, 790, 1364, 1202, 2032, 1968, 310, 1673, 1410, 
1278, 385, 275, 1154, 1952, 1540, 1859, 1752, 1869, 2078, 1160, 1197, 1771, 1289, 1284, 548, 
-216, 385, 541, -389, 487, 589, 914, 1305, 731, 553, 1273, 1470, 476, 450, 1207, 1385, 
-45, 1211, -476, 1239, 127, 839, 1170, -394, 172, -112, 1577, 989, 243, -22, 983, 1456, 
416, 1427, 1252, 819, 1387, 821, 366, 197, -273, -6, 811, -376, 339, 1414, 1220, 1178, 
994, 1078, 375, -149, 1257, 1427, 1416, 1052, -1090, 9, 876, -1050, -301, -1021, 445, 978, 
436, 446, 202, -213, 1006, -1013, -152, -456, 535, 827, 222, -1012, -882, 1012, 291, 93, 
915, 515, 349, -1036, 62, -64, -132, -803, -1188, -708, -84, 843, 514, 68, 784, 993, 
-1041, -205, -346, 429, 485, 227, 81, 460, -1019, -510, 804, 533, -606, -234, -981, -399, 
-1098, -558, -24, 375, -30, 367, 842, 117, 1598, 668, -7, 31, 1878, 1843, 406, 401, 
476, -97, 597, 1359, 1029, 1397, 628, -120, 387, 464, 168, 1088, 1520, 1808, 1136, 1575, 
650, 1337, 1188, -491, 268, -934, -88, 118, -738, 790, -962, -1148, 570, -1200, -1085, -672, 
-355, 162, -855, 587, 588, -1008, -864, 42, -422, 746, -726, 294, 338, -357, 468, -1023, 
844, -827, -78, -1042, 462, -626, 436, -57, -660, 504, 302, -949, -683, -863, 579, 421, 
-670, -686, -1230, 268, 637, -880, -344, -1017, -49, 695, -1128, -873, -759, 297, 485, -379, 
-336, 379, 649, -275, 41, 687, -538, -939, -98, -927, -278, 114, -975, 281, -827, 173, 
-1232, -1298, -495, 349, -172, -145, -490, -674, -1383, 542, -486, 387, -1403, -1288, -1581, -1587, 
-1656, -437, -14, -169, -873, -358, 86, -1833, -1873, -372, -1600, -1042, 194, -1489, 116, -1641, 
-181, -1061, 290, -689, 345, 603, -1290, -951, -1170, -659, -59, 43, 991, -816, 1156, -300, 
461, 402, 438, -554, -602, -611, 1112, -639, 184, 1033, 791, 1308, 1259, 845, -761, -701, 
586, -109, 969, 274, -324, -714, 401, -386, -1353, -630, 128, -86, -74, -877, 451, 107, 
487, -236, 284, -575, -539, 118, -131, 667, -244, 942, -262, 712, -229, 188, -936, 409, 
98, 922, 495, 522, 1070, -622, -1622, -1419, -1440, -693, -912, -840, -1148, -1420, -9, -1024, 
-642, -1044, -1196, 14, 174, -57, -662, -541, -1610, 172, -421, -1713, -1836, -539, -335, -1591, 
-1219, -1578, -1641, 994, -925, -1252, -1745, -455, -2068, -467, -1627, -583, -2062, -1701, -1006, -1785, 
-1934, -1675, -752, -1574, -1358, -1524, -1206, -1190, -732, -1336, -434, -2126, -1776, -1937, -1221, -522, 
-1501, 789, -751, 264, -357, -1040, 967, 601, -395, 6, -259, 91, 753, 531, -234, -295, 
271, -1512, -821, -1119, -870, -648, -247, 532, -1129, -1203, -1162, 35, -910, -1150, -471, 657, 
-201, -1401, -1159, -530, 85, 129, -789, -803, -1040, -1140, -152, -1857, -675, -519, -258, -908, 
-753, -685, -584, 162, -723, -891, 197, -328, -1150, 156, -1379, -484, -423, -256, 265, -288, 
-230, 986, -253, 71, -122, 810, 288, 610, 801, 1117, -547, 1110, -45, -588, -178, 475, 
-330, 183, -106, 625, 25, -789, -500, -398, 373, 265, 298, 212, -226, -31, -541, 1322, 
928, -4, -519, 234, 306, 1126, 33, 879, -564, -372, 1514, 83, -246, 282, -446, -443, 
1222, 836, 1010, 894, -625, 709, -38, -99, 1121, -314, 225, -239, -786, 53, 163, 277, 
86, 475, 534, -726, -755, -115, -422, -367, 207, -49, -109, 666, -281, -998, 445, -1340, 
-817, -86, 769, -616, -1121, -202, 110, 595, 1217, 171, 290, -682, -936, 1005, 119, -217, 
697, 969, -857, 601, -506, 229, -687, 795, 607, 531, -8, -1156, -18, 776, -832, 436, 
-936, -783, 1053, -595, 398, -438, -612, 304, 117, 939, -1011, 1089, -619, 52, 1005, 785, 
-291, 167, -88, -585, 814, -869, 450, 1064, -422, -683, 1031, -247, 344, 382, -89, 802, 
-673, 984, -153, -1284, 1800, 998, 1885, 521, 491, 321, 1551, 2124, 1452, 2165, 157, 1533, 
1342, 1569, 1005, 247, 2035, 596, 2053, 743, 621, 1279, 1001, 1965, 711, 2064, 1826, 1542, 
1394, -161, 781, -212, -642, 595, -481, 1308, 1073, 647, 667, 645, 1128, 660, -138, -346, 
1378, 48, 382, 110, 134, 70, 702, 72, 35, -13, 978, -226, 1358, -100, -560, 827, 
945, 350, 1039, 1711, 915, 1082, 822, 466, 485, 1758, 738, 130, -298, 1091, 98, 691, 
1464, 109, 632, 1041, 468, 794, 877, -99, 1414, -61, 1936, 1005, 83, 1859, 16, 495, 
-951, 1129, -207, -714, 340, 85, -322, -957, 651, 827, -155, -579, 70, -17, -669, 822, 
358, 200, 603, -28, 82, 81, 612, 757, 645, -915, 592, -2048, 443, 1203, 1219, 1141, 
-368, 1646, 101, 497, -21, 1306, 1373, 115, 567, 759, -69, 1453, 1040, 265, 1566, 1749, 
-115, 617, 630, 1284, 919, 29, 72, -281, 805, 108, 1354, 771, 437, -29, 74, -52, 
-76, -431, 3, 160, -763, -796, 121, 758, 884, -502, 1275, 957, -807, -801, -754, 605, 
-496, 52, -459, 712, 384, -928, -640, 918, -1775, -1049, -112, -1258, -1043, -16, -1384, -1550, 
-839, -1743, -267, -653, -989, -1200, -1751, -907, -449, -1174, -2190, -148, -909, -1113, -779, -770, 
-1810, -1752, -279, -719, -1056, 317, 506, -670, 201, -209, 1383, 320, 359, 454, 153, 1205, 
860, 1460, 977, 955, -315, 396, -263, 1221, 1289, 359, -120, 1319, 640, 277, 967, 684, 
-436, 480, -92, 1602, 179, 186, 874, -348, -505, -682, -817, 239, 864, 619, 331, -182, 
-161, -301, 672, 430, 1049, -296, 669, 44, 157, 576, 165, 900, 870, 761, -497, 298, 
634, -193, 1537, -283, 10, -903, 675, -757, 996, 20, 319, -749, 679, 650, -25, 111, 
947, 1356, 342, -522, 310, -199, 764, 12, 972, 1294, 327, -546, 124, 506, -243, 789, 
64, -363, -1800, -1913, 74, -182, -1040, -1107, -292, -1560, -1610, -1348, -530, -119, -988, -483, 
-264, -1103, -1079, -1383, -1514, -1881, -1367, -1873, 320, -1257, 81, -240, -1764, -594, -2039, -189, 
-1716, -1775, -804, -1373, -1849, -1065, -1434, -1985, -415, -2209, -192, -2237, -1231, -1845, -1042, -231, 
-21, -115, -487, -876, -1664, -1964, -696, -1307, -483, -1835, -933, -153, -52, -844, -107, 472, 
-1189, 256, -1842, -529, -1183, -952, -158, 398, -533, -1341, -947, -881, 861, -339, 431, 345, 
102, -1498, -1095, -185, -544, 151, -74, -1162, 597, -1075, -1461, -360, -1649, -969, -1015, -368, 
-457, -1202, -562, -1520, -902, -566, -760, -140, -1283, -435, -57, -490, -7, -935, -1871, -918, 
-836, -1082, -764, -840, -219, -1680, 380, 47, 1190, 996, 968, 964, -396, 363, 252, 1268, 
-305, 384, 592, 484, 165, -378, 192, -507, -270, -225, 848, 1443, 1149, 1285, 239, 72, 
861, 991, 68, -439, 582, 1123, -100, -1269, -1035, -277, -592, -1530, -1024, -512, 236, -1270, 
-1356, -326, -124, -78, 403, -1548, -1325, 225, -744, 161, -4, 21, 193, -1061, -432, 503, 
-793, -624, -82, 143, -1183, -780, -1101, -1149, -1382, -139, -904, -133, -2064, -698, -875, -1524, 
-1710, -1173, -1121, -503, -87, -994, -835, -595, -279, -1276, -1375, -2211, 34, -406, -1862, -1652, 
-1528, 472, 228, 110, 173, 459, -298, -79, -714, 1167, -668, 1056, 691, 139, -792, 244, 
-118, -575, 466, 464, -579, -386, -176, -116, 72, -295, 556, 29, -402, 1021, -786, 1072, 
756, -775, -64, 520, 1092, 357, 548, 479, -476, -535, 1164, 350, 1190, 439, 90, -803, 
1234, -34, 1155, -30, -14, -656, -202, 882, -223, 741, -389, 1143, -631, -519, -1302, -384, 
-689, -601, -473, 524, -1047, -1375, -244, -447, 80, -772, 522, -23, -644, -1114, 699, -301, 
-1234, 20, 577, -1555, 505, -733, -784, -743, -901, 94, -570, 526, -178, -562, -789, 645, 
-740, 900, -1136, -454, -511, -69, -389, -639, 300, 321, -754, 463, 146, 103, 92, -743, 
-327, 84, -108, 706, 77, -690, 36, -914, 122, 27, -334, 378, 893, -589, -561, 595, 
100, 752, -71, -539, 1383, 279, 865, 57, 164, -418, 318, -239, 141, -886, 455, 388, 
-436, -17, 65, 502, -708, 843, 483, 860, 136, 1123, 1118, 1067, -516, -97, 1326, 267, 
505, -252, 618, 133, 1148, 147, 56, -117, 516, -443, -643, 808, 77, 408, 913, 723, 
863, 543, -307, -534, 1333, 30, 321, 752, -199, 726, -480, 806, 121, -631, 74, 1313, 
1178, 213, 741, 931, 842, 379, 262, -654, 45, -171, 799, -460, 877, 912, 921, 238, 
-319, -218, -30, -24, 537, 311, 624, 581, -343, 126, -141, 346, 378, 461, 159, -17, 
664, 809, 440, -606, 509, -699, 928, 740, 600, 810, 759, -290, 1069, 396, 697, 931, 
-627, -918, 99, -359, -555, -874, -744, -705, -905, -881, -1224, -623, -146, 46, -780, -1133, 
-227, -222, -1074, 287, -1348, -623, 435, -21, -28, 440, -693, 184, -968, -355, -685, 1072, 
-805, 378, 155, 893, 333, 1187, -45, 607, 898, 252, 1028, 1191, -414, 888, -359, 255, 
855, 1151, 612, -64, -84, 1429, -277, -33, -5, 993, 488, 763, 1073, 689, -1148, -787, 
-1025, 304, 299, -268, -767, 69, -386, -124, -1298, -479, -143, -762, 402, 789, -164, 428, 
339, -617, 690, -886, -347, -670, -1291, 554, -497, 512, 710, -1014, 549, 588, 548, -423, 
-235, -198, 736, 740, -569, -112, -214, -671, 993, 314, 218, -588, 787, -680, 32, -166, 
-312, -138, -448, -100, 665, 114, 924, 923, -696, -1057, 395, 398, -760, 149, -287, -86, 
297, -1321, -1082, -571, 226, -186, -341, 584, -820, -925, -500, -908, -162, -897, 189, -520, 
320, -659, -223, -1169, 14, -293, -1103, 581, -1125, 59, 1061, -309, -714, 618, 537, 890, 
-121, 572, 176, 821, 440, -795, 448, 960, -498, -845, 601, -284, -147, 853, -244, -441, 
-335, -575, 417, 517, 841, -232, 379, -963, -894, 474, 1172, -630, -326, 790, 229, 775, 
-561, -293, 1092, 1122, 889, -815, -60, 193, 80, 503, 623, -70, 48, -442, 427, 66, 
-524, -206, 388, 1472, -1394, -1379, -144, -650, -1727, -1829, -1148, -1615, -1615, -689, -1463, -518, 
-316, -840, -2091, -798, -2130, -242, -762, -851, -1595, -136, -1462, -1653, -1310, -1185, -184, -918, 
-1230, 690, -311, 721, 545, -95, -133, -19, 1, -16, 425, 926, 317, -884, -200, -423, 
-455, -744, -1004, -657, 806, 465, 293, 416, -608, 854, 526, -958, 226, 799, 316, 702, 
-1332, -1683, -257, -466, -167, -555, -1108, -1657, -620, -948, 206, 14, -884, -886, -418, 144, 
-51, -158, -1524, -97, -1626, -1400, -1681, -1235, -1158, -648, -289, -268, -1280, -1109, -131, 221, 
-827, -375, -916, -40, -954, -703, 421, 395, 113, -1244, 711, 213, 1210, -508, 180, 53, 
928, 761, 877, 838, 304, -136, 1086, -843, 1062, 888, -408, -581, 421, -1294, -63, 210, 
-792, -132, -553, 666, -1019, -1120, -861, -1475, 94, 131, -667, 414, -225, -1244, 606, -72, 
-810, -313, 511, -319, -147, -586, -856, -28, 574, -749, 592, 56, -591, -240, 860, -704, 
1158, -1046, 12, -401, 1390, 328, -621, 1025, -691, 937, 712, 290, -1385, -612, -616, -72, 
258, 245, 452, 101, -685, 27, 933, 202, 607, -265, 167, -276, 153, -601, 336, -752, 
77, -85, -835, -417, -254, -181, -764, -462, 319, 921, 682, 57, -622, 783, -99, -384, 
-849, 3, -648, 1040, -477, 636, -1170, -466, -736, 398, -119, -61, -966, -1371, -1160, -1259, 
-1012, 577, 857, -588, 276, -151, 124, -1123, -1108, 534, -329, -756, -1073, 409, -22, -615, 
-575, -1031, 938, -769, 736, 206, 1019, -514, -523, 559, 800, 1241, -349, -796, 989, 530, 
-590, 713, 559, 1074, 329, 341, -509, 1415, -771, 964, 719, -122, 310, 383, 425, -284, 
786, 290, -1307, -182, 680, 472, -102, -486, 281, -855, 50, 272, -440, -1084, -95, 543, 
-824, 574, 861, 200, 375, 527, 460, -38, -114, 592, -354, 152, 369, 114, -503, -498, 
-388, -1351, -268, 9, -1115, 409, -1333, -1108, -510, -440, -1095, -677, -175, -789, -123, -1113, 
133, -1416, -1169, 190, 435, -286, -1050, 12, 555, -696, -158, -276, -1443, -598, -1113, -803, 
45, -939, -766, -558, -1725, 144, -1474, -1299, -447, 228, -645, -1147, -270, -1360, -1271, 140, 
-44, -331, -57, -1047, -609, -649, -1300, 541, -140, -284, -275, -736, 241, 520, -405, -310, 
678, 404, 280, -23, -631, -374, -736, -537, -1055, 80, -774, 157, 28, -1135, -1304, 318, 
-91, -266, -711, -131, -212, 299, -514, -606, -532, 529, -1128, -1379, -180, -271, -511, 532, 
-1168, -1347, -598, -255, 268, -1402, -1236, -1300, -732, 421, -421, -946, -288, 407, 544, -94, 
541, 275, -625, 639, 273, -1437, -239, -501, 1033, -241, 1492, 620, 1131, -302, 91, 1089, 
997, 620, 685, 331, 593, -112, 1231, 1355, 1109, 1094, 1383, 209, 1468, -133, 1457, -297, 
-247, -128, 1119, 731, 1152, 1899, 678, 0, 341, -640, -1648, -935, -1862, -456, -660, -1567, 
-204, -908, -1130, 345, -223, -1790, -684, -436, -761, -116, 140, -1699, -1320, -345, -1317, -1097, 
-737, -9, -1673, -79, -702, -1588, -79, -988, -1292, -464, -709, -1513, -636, -1291, -1529, -975, 
-509, 334, -1517, -1319, 370, 19, -170, 328, -993, -833, 76, -1591, -506, -596, 166, -438, 
-481, 595, -475, 723, 1055, 861, -352, 282, 184, 953, -587, -75, 1051, 24, 402, 8, 
815, 805, 235, -177, 1192, 673, 409, -374, 901, 314, -585, -482, 498, 1128, -333, -383, 
76, 1214, 917, -410, 860, 107, 1139, 76, 294, 1389, 1033, 512, 395, -370, 565, -220, 
-338, -346, 574, -622, -119, 623, 263, -20, 1325, -340, 248, 274, 174, 819, -926, 385, 
-1161, -213, -1110, 52, -1309, -134, -729, 417, -597, -725, -1229, -846, 499, -161, -480, -1182, 
-1310, 482, 219, -697, -997, -94, 75, -217, 301, -1019, -742, 898, -692, -376, -389, 230, 
687, 713, 702, 922, -631, -953, 748, -448, 683, 92, -892, -397, -327, -287, 779, -916, 
1171, 179, -33, 1249, 67, -65, 25, -639, 353, -401, 444, -65, 80, 1143, 698, -825, 
1293, -747, 78, -367, 683, -701, 218, 301, 795, 815, 1018, 408, -1124, -644, 1317, -366, 
1339, -518, -513, 185, 416, -139, -670, -1005, -595, 876, -20, 407, 463, 1370, 205, 43, 
638, 1686, 219, 759, 714, 470, -130, -259, 1633, -294, 184, 1577, -20, 68, 1077, 1524, 
318, 899, 1360, 23, -98, 1134, -592, -65, 448, 123, 311, 68, 1004, -430, -458, 78, 
-20, 198, -38, 831, 97, 708, -696, -774, 656, 535, 369, 1142, -657, 841, 805, 4, 
-264, -186, 415, -390, 551, -697, -814, 661, -697, -660, 408, 737, -499, 146, 98, 760, 
18, -739, -479, 1022, 453, 480, 296, 831, -844, -559, 981, -991, 1022, -358, 512, -72, 
845, -659, -1013, 106, -554, -1005, 527, -877, -1190, -418, 589, 405, -487, -1188, -1093, -1208, 
509, 442, -1213, -1070, -1194, -577, 673, -968, -396, 315, -537, -855, -869, -1163, -116, -6, 
1161, 556, 448, 1296, 989, 248, 174, -605, 1123, -133, 1268, 698, -298, -350, 834, -254, 
863, 262, 68, 365, -219, -633, -123, 385, -361, -24, 1055, -460, -15, 1041, -1296, -249, 
-18, -954, -584, 766, -846, -1091, -82, -851, -1370, -699, -1152, -911, -118, -1281, -1120, 593, 
-318, -6, 60, -1446, 160, 164, -166, -1321, -1111, -956, 238, -391, 1251, 700, 462, -579, 
571, 1361, 769, 485, 576, -753, 1045, 1176, -646, -489, 142, 598, 268, 1017, 1175, -296, 
684, 6, 314, 525, 958, -449, -144, -558, -654, -1008, 55, -977, -443, 152, 618, -6, 
-309, -397, -1542, -1834, -396, -1201, -792, -1284, 547, -1377, -42, -1311, -1389, 139, -1096, -371, 
-592, -1203, 427, 354, -1151, -1494, 317, -1195, -465, 1017, 901, -756, 360, 946, 812, -200, 
1090, 65, 1604, 110, 871, -397, 1436, 600, 41, 633, 10, 694, 800, 511, 493, -293, 
136, 448, -530, 850, -410, 1401, 1049, 241, 575, 836, -589, 1072, 988, -3, 954, 1180, 
-181, -86, 1050, 913, -385, 1396, -354, 1234, 1293, 355, 285, 704, -348, 124, 323, 216, 
-334, 192, -101, -106, -486, -790, 123, -1123, -438, -779, -1782, 53, -124, -1131, -744, 60, 
-624, -890, 142, -1157, 175, -1132, -758, -650, -1578, -128, -750, -1642, -340, -569, -307, -393, 
-642, -1171, -988, 1040, 261, -93, 600, 414, -26, 1034, 1126, -560, -712, 1040, -390, -259, 
319, 786, -576, 249, 1336, 985, 705, 1170, 1051, 1101, -281, 139, 230, 857, -168, -196, 
-1500, -436, 493, -1230, -285, -1324, -333, -1020, -1427, 146, -1209, 165, 550, -1177, -373, -697, 
-1516, -975, 401, 51, -146, 714, -330, 397, -320, -993, -1488, -1136, -1012, 133, -174, -410, 
-413, 47, 576, 1058, 580, 1391, 183, 684, 1537, -1022, 1453, 72, 62, 339, -716, 418, 
264, -957, -187, -133, 1371, -426, -126, 276, 251, 876, 868, -1660, -1336, -1051, -215, 141, 
-472, -452, 366, -198, -258, -624, 84, 805, -1148, -1021, -72, -1058, -418, 261, 713, -1043, 
-871, -574, 702, 94, -1089, 97, -808, 113, -316, -613, 416, 946, 725, 188, -814, 657, 
-226, -1057, -42, 704, 654, -193, 42, 991, -1145, 1421, -549, 80, -273, -835, 1199, 1063, 
-530, 271, 801, -249, -554, -505, -49, 790, -109, -491, 324, -739, -916, 770, -840, 500, 
432, -412, -107, -755, -493, -83, 203, 60, 1036, 212, -95, 39, 479, -671, 502, 234, 
-498, -972, 678, 1076, -910, 1253, -343, -775, -549, -91, 228, 505, -1281, 48, -817, -554, 
-187, -611, -822, -60, -714, -699, 223, -1366, 82, 67, -624, -1434, -1002, -1172, -1067, -466, 
-322, -339, -857, -442, 463, 99, -139, 1171, -298, 184, 26, 1311, 294, 415, 165, -159, 
840, -568, 481, 92, 1466, 139, 386, -48, 1295, 1082, 456, 1485, 1310, -452, -56, -492, 
1010, 1158, -1190, -560, -765, 500, -787, 1167, -217, -905, 304, 683, 1042, 535, -111, -132, 
805, -538, 635, 701, 768, 539, 480, 166, -355, 467, -501, 243, -217, 1088, 633, 370, 
337, -533, 101, 624, -1053, -1030, -266, 850, -442, 286, 573, -302, 529, 331, -254, -140, 
161, -881, 280, 376, -1214, 393, -1157, -81, 138, 624, 489, -788, -1356, -87, 28, -677, 
-1342, -652, -1068, -812, -251, -540, 390, -678, -619, -1069, -709, -28, 665, -777, 67, 66, 
260, -1327, 162, -1286, -1351, -289, -734, 341, -344, -1036, 210, -307, -734, 558, 58, 491, 
299, -747, -626, 633, -1064, -918, -913, -341, -245, 281, -438, 594, 281, 283, 656, -1238, 
492, -758, 211, -721, 24, -207, -1268, -123, 349, 331, 127, 239, -872, 354, 393, -859, 
528, -446, 97, -869, -107, 481, -564, -812, -937, -489, 494, -21, 46, -409, -620, -884, 
154, 65, -370, 454, -1232, 494, -382, 371, -357, 857, -16, -884, -76, 230, -481, 840, 
376, -1182, -66, -1220, -540, 182, -93, -153, 748, 413, -595, -190, -789, 497, -936, -1130, 
-630, -389, -1085, -1014, -297, 342, -375, 333, 671, -113, -976, 139, -507, 71, -105, -868, 
-365, 584, -929, -870, 595, 258, -626, -877, 182, 499, -920, -758, -69, -278, -368, 69, 
286, -418, 7, 340, -727, -86, 841, -337, -322, 281, -379, -1288, 707, -1349, -779, -1009, 
-596, 636, -1010, -627, -638, 680, 658, -651, 643, 354, 303, 453, -767, -1341, 619, 55, 
158, -972, -630, 28, -346, -717, -1056, 545, -111, -634, -1060, -301, 289, -920, 721, 290, 
507, 491, 593, -509, 727, -1186, 270, -356, 207, -912, 128, -508, 121, -334, -521, -469, 
-560, -374, 612, -1009, -239, 114, -314, 87, 216, 679, -859, 777, 311, -256, -969, -1072, 
6, 615, -148, -361, 407, -1059, -998, -1048, -807, 211, 691, 712, 664, 206, -1122, -190, 
-232, -733, 97, 514, 243, -102, 669, -495, -1085, -1163, -600, -218, -259, -1001, 140, -808, 
128, -105, -553, 1076, -571, 829, -782, -891, -1055, -130, -7, 626, -592, -27, -628, 709, 
-460, -688, 497, -727, -420, 115, -355, -420, -955, 117, 614, -1115, -1104, -44, -625, 352, 
-767, -197, -120, -1349, 709, 889, -485, -167, 425, -598, 442, 108, 573, 236, -288, 540, 
-957, -68, -686, -329, -149, -320, -965, -940, -138, 36, -100, 153, 9, -955, -1320, -747, 
-3, 225, -87, 475, -141, -73, 385, 442, 446, 612, -368, -608, 535, 9, 705, 120, 
-305, -1098, -542, 623, 602, 860, 436, -922, -420, -813, 55, -707, 228, 360, -1110, -998, 
174, 207, 390, -1178, 393, 230, 238, -423, -778, -48, 29, -678, 103, -582, -527, 441, 
-982, -1163, 36, 90, 320, 724, -1102, -1001, -45, -630, -503, 783, 564, -757, -287, -514, 
734, -702, -491, -409, -508, -1192, -421, -218, -1107, 79, 670, 615, 763, -648, -1076, 255, 
450, -1172, -1108, 370, 274, -1221, -58, -20, -515, 19, -11, -181, -337, -298, -156, -757, 
-1157, 200, 204, 588, -1059, 812, -800, 958, 978, -182, -777, -525, -815, -357, -254, -94, 
724, -907, -611, -204, -668, -51, -414, -1284, -553, -1010, -800, -878, -458, 42, -235, -674, 
-633, -1118, 731, -352, -46, -49, -1113, -968, -201, -104, 554, 793, 575, -679, -222, -656, 
-1197, -1069, -94, -258, 603, -126, 624, 747, 531, -328, -1061, 612, -999, 72, -135, -234, 
-888, -214, 445, -830, 632, -295, -593, -457, -806, -610, 559, 12, 379, -400, -904, -732, 
631, 448, -320, 95, -565, -1294, -5, -1239, 522, -532, 100, -822, 661, -658, -1039, -211, 
-530, -1158, -1046, -329, -786, -83, -963, 114, 531, -920, 288, 754, 208, 321, -765, 524, 
-390, 716, -675, 86, -715, -703, 222, -256, 886, -482, 797, -1350, -482, -511, -1191, 399, 
378, -777, 627, -50, -1137, -308, 64, -1033, -397, -1109, -746, -404, 36, -718, 457, -715, 
-991, -513, -708, -623, 589, -1260, -860, 131, -1084, -946, 1, 679, -689, -705, -20, -278, 
-383, 305, 322, 355, -1291, -472, -265, 580, -320, -408, -1235, -844, 1058, -57, -1161, -241, 
343, 337, 692, 688, -241, -845, -595, -936, -32, 84, -21, -1351, -745, 417, 658, -224, 
-504, -116, 744, -106, 1058, 548, 677, -889, -190, -1146, -1051, 120, -786, 21, -9, -1249, 
-14, 589, 892, -49, -554, 130, -508, -530, -490, -1051, 335, -290, -1283, 106, -1314, -1184, 
-1135, -532, 100, -665, 722, -1115, 632, -1318, -407, 284, 349, 668, 173, -753, 185, -629, 
-1153, -1052, -580, -237, -713, 755, 925, -465, 740, -1019, 888, 154, 245, 372, 631, -662, 
-493, -157, -145, 894, 173, 745, -870, 143, 565, -551, 793, -457, 148, 807, -19, 527, 
-1011, 221, -379, 170, 403, -1236, -366, 676, -26, -1261, -574, -1249, 592, 312, -478, -1334, 
-1162, -212, -2, 390, -93, -453, -783, -391, 297, -632, 0, 129, 400, -719, -305, 372, 
-449, 534, -49, -1085, 405, -339, -822, -483, 38, -735, 602, -238, -932, 164, -471, -801, 
-100, 596, -978, -191, -925, 640, -702, -200, -174, -118, -674, 19, 312, -962, -617, -885, 
833, -115, -325, -1126, 648, -220, 719, -823, 637, -155, 787, 494, -172, -54, -750, -786, 
648, 721, -980, -150, -1056, -1274, -1343, 81, -958, -771, -1227, 99, -618, 378, 533, -16, 
247, -508, -801, -1273, 628, -1126, -874, 437, -649, -442, -554, 105, 140, 574, -249, -1342, 
77, 711, -280, -309, 608, -644, -109, -457, -173, 499, -1000, -122, 412, 0, -1014, -171, 
366, -601, -529, 330, -382, -378, -751, -1177, -1299, -1160, -964, -505, -596, -400, 387, 387, 
-420, -549, -694, 511, 205, -1066, 274, 97, -1332, 518, -362, -484, 721, 266, 405, 653, 
-40, 386, 143, 275, -707, 639, 295, -826, 193, -1192, 595, 229, -1282, 510, -1305, 114, 
-612, -724, 523, -529, -1171, -1194, -1054, -304, 521, -546, 1009, 452, 838, -748, 199, -616, 
262, -784, 496, -341, -949, -763, 425, 638, -587, -284, -459, 712, 346, -1035, -578, -1150, 
655, -973, -352, -898, 756, 485, 241, 436, -205, 767, 10, -549, -884, 437, -557, -815, 
602, 286, 448, 8, -293, -578, -1161, 390, -996, -661, 156, 315, -1209, -129, -466, -444, 
944, -527, 520, 1034, -359, -192, 805, -191, 427, 1011, 1322, 442, 1101, -285, -225, -79, 
1264, -350, 3, 1467, 1154, 1401, 891, 655, -703, 597, 1432, -11, -546, -313, 173, -291, 
263, 195, 1497, 1333, 1315, 458, -219, 1389, 596, 60, 576, 1393, 806, 1573, -137, 674, 
1385, 782, -202, -287, 1245, 580, -173, 797, 524, -528, 1185, 585, 292, 521, 1365, 1032, 
204, 1113, 436, 1003, 1395, 1745, 144, 968, -274, 647, 837, -266, 605, 25, 1057, 855, 
677, 744, 1593, 344, 348, 968, 1129, 392, 667, 390, -311, 633, 455, 1672, -206, 117, 
816, 763, 45, 539, 1015, 1195, 1170, -95, 162, 1699, 305, 506, 1263, 192, 279, 254, 
-128, 1067, -190, 1111, -195, 1036, 1588, 1653, 145, -428, -562, 762, -144, 1290, 1249, -655, 
-376, 801, -197, -803, 422, -779, -252, -847, -757, 681, -562, 490, -18, 892, -604, -311, 
426, -1183, -886, 227, 173, -857, -718, -594, -781, -283, 24, 784, -895, 551, -1372, -172, 
-589, -1317, 69, 332, 586, -1047, 543, -642, -680, 516, -1499, -1295, -1216, 663, -869, 433, 
-1012, 409, -699, 19, 50, 1049, -535, 1339, 1150, -264, 490, 831, -270, -315, -159, 681, 
199, 1224, 1131, -343, 202, -128, 1140, 224, -157, 140, 727, 1068, -451, -576, 55, 528, 
1127, 299, 172, -467, 1016, -1015, -817, -193, 775, 1061, 245, -324, 655, 399, 739, 1021, 
808, -1036, -659, -185, 906, 1047, 518, 542, 227, 54, 436, 653, 625, -990, 223, 494, 
968, 74, 1014, 95, 287, -476, 463, 387, 281, 40, 980, 186, 703, 60, -790, 190, 
330, 712, -98, -474, 139, 72, 364, 63, -51, 38, 1017, 164, 76, 666, 504, -1555, 
-1025, -131, -828, 198, 129, -453, -1141, -1024, 69, -164, -1363, -782, -1095, -1015, 271, -653, 
-201, -246, -1596, -1599, 366, -568, -670, -582, -1349, -120, -361, 1448, 380, 189, -1149, 584, 
-909, 82, -549, -1007, -115, 340, -533, 999, 727, 164, -572, -102, -1176, -879, -291, -691, 
-188, -685, -853, -1028, -16, 739, -1015, 443, -1103, 424, -162, -776, -111, -177, -334, -125, 
-57, -605, 478, -194, -79, -683, 957, 1120, 736, -462, 283, -491, -594, 651, -115, -2, 
-82, -296, -347, 584, -244, -370, -628, -662, -122, 1135, 796, 557, -68, 1099, 615, -764, 
181, 277, 1265, 883, 1190, 979, -81, -404, -140, 72, -1040, -743, 4, 489, 361, 512, 
-238, 200, -749, 534, -842, 1410, 757, 354, 193, -218, 5, 699, -610, 602, -445, -550, 
915, -13, -937, 770, -1006, -387, -258, -1102, 637, -606, 499, 109, 770, 398, -630, 885, 
-687, -36, -1132, -22, -1455, 69, -841, -615, -119, -422, -437, 544, 735, 772, -474, 812, 
113, -1150, -1130, -1026, -719, 201, 705, -581, 121, -726, -1165, -593, -906, -1268, -1112, -28, 
327, -515, 600, 744, 184, -1386, -248, -582, 0, 96, -892, -256, -1328, 293, -1192, 109, 
316, -694, -1093, -214, -403, 419, 648, 45, -913, -554, -803, -96, -403, -1222, -846, 419, 
-49, -136, -1054, 921, 186, 710, 533, -153, -739, 190, -881, -202, 862, -264, -143, -196, 
576, 76, 137, 933, -236, 23, -608, 579, -788, -276, 285, 562, -606, 1030, 459, 315, 
277, 289, 465, 57, -170, 941, 365, 911, 1277, 480, 480, 768, 148, 330, 418, 30, 
360, 985, 642, -265, 476, 577, 1550, 225, 1751, 1249, 1181, 1584, 219, -160, 752, 81, 
868, 155, -444, -221, -217, 903, 103, -336, -147, 929, 147, -318, -140, -519, -438, -719, 
-656, 369, 811, 948, 810, 666, 1139, 705, -389, 748, -786, -723, 525, -1141, 177, -1042, 
-1132, 635, -616, -832, 487, -825, -969, 872, -726, -808, -470, 350, -684, -673, 346, -489, 
153, -659, 550, -193, 829, -899, 640, 839, -741, -389, 244, -49, 376, 335, -313, 408, 
104, 451, 1351, -210, 153, 578, -479, -1178, -1203, -51, 71, 1084, 182, -65, -787, -767, 
-931, 232, 673, -300, -95, 1532, -95, 1024, -114, -237, -1076, -1178, -512, -322, 555, 824, 
1290, -95, 164, -56, 61, -69, 297, -482, 1137, 611, -320, 1271, -333, 616, -112, 1279, 
686, 187, -115, 749, -378, 1348, -348, 1182, -271, 340, 1112, -65, 909, 61, -277, 732, 
-257, 826, 1293, 102, -398, 1015, 1398, -106, 8, -143, 1187, 1355, 918, 1099, 261, -563, 
622, 94, -1111, -855, -284, -208, -443, -427, -21, 633, -29, 1101, -591, 136, 503, -769, 
785, 307, -237, -639, -47, 786, 277, -672, 394, -40, 931, -826, 168, 365, 1186, -159, 
-196, 1158, 1054, 328, 294, 836, -132, 1103, 857, 1138, 230, -81, 819, 1039, 753, -369, 
581, -227, 100, -509, 1007, 630, -590, 685, 1334, 208, -365, 526, -696, 808, -103, -971, 
905, -754, -922, 910, -318, 379, -357, 220, 875, -284, 872, 324, 661, -583, 508, 1286, 
-6, -489, -466, 324, -459, 4, -1043, 474, -577, 271, 104, -295, 80, 179, 464, 700, 
501, -118, -578, 129, 1104, 257, 117, 791, 639, 167, 463, 586, 4, 919, 213, 178, 
9, 1292, -379, -245, 307, 750, 57, -530, 582, -1223, -98, -73, -50, 820, -313, 197, 
-7, -428, -477, 617, -323, 10, 455, 367, 394, -239, 735, -61, 981, 468, 1587, -203, 
1018, 1256, 1334, -163, 276, 661, 1379, 1745, -716, 324, -172, -1124, -222, -475, 88, -427, 
-746, -1144, -1027, 69, 208, 49, -638, 416, -578, -1127, 23, -693, -1279, 238, -63, -1183, 
5, -1233, -931, 673, 648, 806, 1041, 1268, 1052, 889, 543, 1197, 1588, 733, 1382, 571, 
1598, 283, 1117, 650, 228, 1580, 1870, 832, 40, 1384, -164, 332, 1151, 1685, -21, 29, 
999, 1212, 1334, 1580, 571, -742, -17, -101, 24, 134, 706, 68, -792, 253, -735, 779, 
1084, 623, 741, -174, -620, 552, 925, 556, -1024, -381, -2, 1024, 599, 208, 337, -749, 
509, 1087, 1417, 104, -641, 819, -179, -42, 715, 165, 506, 1254, -81, -147, -91, 544, 
367, 826, 996, 638, 904, -62, -200, 781, 719, 986, -754, 462, 1504, 688, -600, -643, 
643, -819, -356, -171, 222, -776, -1173, 52, -110, 87, 578, 848, -959, -315, 390, -1215, 
-332, 283, 254, 413, -1062, 200, -8, 220, -692, 399, 476, -841, -786, -1001, -895, 295, 
-1117, 293, -481, -830, 480, -75, 134, -891, 679, -855, -944, -1104, -134, 220, -264, 829, 
-720, 116, 199, 876, -580, 915, -254, -46, -740, -283, -761, 746, 194, -223, 45, 360, 
569, -739, 441, 317, -780, -584, 933, -959, 444, -433, 756, -428, -598, 932, -1132, -183, 
-951, -230, -941, 716, -797, 562, -1147, -643, 123, 703, 69, -996, 980, -411, 557, 726, 
644, -222, 832, 642, 1087, 1020, 276, 150, 535, 203, 730, 261, 79, 283, 42, -236, 
138, 356, 1, -715, -416, -639, -793, -478, -1017, 250, -561, 420, 765, -1179, 363, 200, 
-1115, 735, -275, -686, 614, -1064, -545, -948, -908, -1016, 135, 302, -446, 109, -611, 628, 
398, 764, -23, -1041, 750, -1018, -911, -1228, 671, -432, -172, -802, -373, 187, 601, -477, 
610, -555, -792, 211, 87, -56, 21, 804, -901, 616, 313, -496, -6, -60, -1193, -154, 
376, 76, -1076, 804, 268, 430, -792, 628, -527, 134, 483, -924, 440, -66, 755, -412, 
-558, -270, -324, -85, -230, -872, 411, -1005, -1151, 111, 128, -15, 717, -920, 403, -950, 
219, 572, 574, 430, -1174, -853, 206, -60, -277, 800, -223, -232, -1010, -653, 899, -754, 
728, -383, -954, -1145, 696, 143, -377, -733, 642, -1083, -839, -719, -515, 88, 649, 531, 
-1152, 799, 74, 252, -785, 225, -333, 249, -134, -473, 692, 774, -307, -738, 619, 362, 
759, 655, -175, 307, 200, 213, 716, 80, 627, 548, 347, -1246, -1168, -1217, -490, 695, 
-248, -1296, -782, -363, -936, -72, -757, -793, 769, 16, -312, -549, 556, -357, -345, 768, 
-545, 34, -327, -1097, 744, 195, -986, 583, 646, -1187, -1118, -381, 835, -1013, 233, 489, 
-176, 111, -1052, 201, 246, -594, 568, 228, -664, -442, -281, -123, -413, -165, -467, -619, 
281, -887, 625, 305, -489, -361, 7, -327, 811, -333, -814, 277, -115, -725, -8, -580, 
-825, -787, 263, -612, 599, 245, -305, -1061, -774, -753, -692, 538, 314, -658, -355, -1101, 
-935, -596, 756, -391, -763, 756, -372, -78, 786, -398, 135, -544, 179, -785, -407, -174, 
-908, -1072, -1056, -1184, -1100, 38, -1042, -1179, 50, 724, 775, 137, -888, -591, 473, -50, 
478, -1260, -157, -934, -1109, -236, 194, -1215, 752, -305, -339, 168, -983, -714, -909, -922, 
736, -550, -1047, -728, -601, -359, -1143, -309, -859, -574, 167, 453, 142, 331, 453, -693, 
2, 671, 269, 24, 754, -348, -329, -141, -351, -899, 57, -641, 134, -1134, -970, 23, 
-972, -767, -661, -726, -629, 720, -1182, 157, 309, -247, 180, 217, -260, -602, -43, -1016, 
-538, -771, 364, -1236, -436, -1233, -133, -890, -1058, -660, 826, -1159, 662, 854, 818, -535, 
338, -846, 163, 848, -300, -1059, -970, 395, -297, -316, -134, -1202, 281, -666, 53, 447, 
-440, 47, -969, -732, -656, 366, 407, -1083, 711, -751, -354, -352, -941, -1217, 454, -183, 
22, -330, -317, 20, 479, -391, -1071, 27, 363, -1150, -1134, -885, -107, -818, -53, -1271, 
80, 465, 543, 436, -498, -249, 431, -17, 556, 423, 303, 551, 398, -495, -1110, -779, 
-364, 234, -485, 20, -90, -523, -698, 360, -46, -432, -833, -257, 480, 246, -44, 720, 
-1089, -6, 25, -83, -1043, 330, -618, 288, -651, -272, -648, -47, -774, -685, 811, 484, 
274, 307, -880, 268, -787, -1019, -100, -181, 7, 611, -789, -834, -480, 853, 597, -921, 
597, -288, -439, -1111, 287, -405, 830, 183, 544, 573, 237, -1112, 96, 599, 25, -334, 
-817, 8, -656, 101, 86, -1006, -208, -191, -171, -12, -626, 488, 333, -796, -632, 831, 
-895, -1257, 829, -572, -137, -291, -577, -32, -407, -9, -23, 474, 655, -864, -325, -632, 
-116, -431, -421, 417, -695, -23, 813, 513, 540, -436, 587, -1080, -999, -634, -207, -191, 
94, -1224, -703, 568, -1237, 261, 573, -42, -599, 59, 104, 169, -442, 49, -559, -227, 
-624, 129, -516, -35, 882, 55, 471, 875, -1076, -870, 0, -492, 244, -495, -757, 878, 
-1040, 835, -1083, -554, -987, 182, 121, -575, -1030, -908, -913, 118, -222, 264, -142, -765, 
-753, -732, 487, -477, -831, -36, -421, -638, -59, 193, -430, 300, -653, -1107, -899, 123, 
-138, -441, -603, 96, 45, -238, -866, -817, -570, -1206, -1059, 313, 531, 608, 347, 486, 
-517, -448, 419, -890, -880, 272, -641, -111, 826, 762, -385, -561, 545, -412, -171, 468, 
-944, 543, -73, 490, -815, 562, -582, -439, -266, 670, -273, -420, 721, 32, -1113, -1030, 
145, 279, -594, 255, 777, -1117, -880, 281, -1071, -1110, -681, -725, -1070, 802, -897, -654, 
153, 206, -450, 204, -806, -220, 459, -672, 275, 870, 402, 545, 110, -729, 698, -764, 
743, -1077, 596, -680, 665, -809, -10, -980, 20, 87, -569, -301, 843, 646, 100, -706, 
-317, 444, -204, -829, 585, 465, 693, -1214, -77, 538, -587, -21, -467, -208, 128, 585, 
28, -1135, -537, 175, -1177, -671, -868, 569, -167, 414, -405, -1104, 293, 550, -373, -832, 
-251, -579, 32, 180, -281, 294, -506, -238, -575, -909, 236, -1067, 42, -268, 57, -413, 
-448, 345, -212, 268, -927, 552, 456, 444, 510, -337, 41, 367, -295, 153, 174, -499, 
-1145, -1145, -1179, -389, 282, -726, -882, -878, 49, 881, 421, 794, -1052, 687, -855, 1063, 
649, 89, 453, -149, -614, 511, 287, 1204, 154, 472, -509, 334, -470, 91, 173, -754, 
-919, 268, -232, -149, 366, -635, -1032, -987, -556, 848, -5, 5, 279, -258, -940, 284, 
349, -737, -106, -962, -886, 136, -963, 528, -1247, 602, -639, -112, 326, -944, -1180, 810, 
150, -753, 254, -514, 361, -481, 61, 440, 355, 229, 25, -1067, -72, 103, -1160, -1237, 
-218, 164, -1174, 2, -521, -547, -667, 560, -407, -92, -354, -518, -24, -1098, -1228, 669, 
-168, -1221, -1390, -371, 289, -1317, 718, -1309, 241, -970, -817, 260, 706, -656, -692, -165, 
14, 591, -748, 624, -1219, -357, -656, 309, -1415, 421, -1376, 714, -441, 434, -363, 509, 
462, 627, 571, -134, -445, -1377, -929, 688, 22, -1097, -522, -946, -714, -373, -813, -1332, 
-1194, 220, -813, -591, -1254, 662, -1180, -1330, -991, 228, 550, -1236, -1092, -450, 738, 935, 
757, -206, 1467, -262, 203, 336, 1002, 359, -373, 262, 35, -697, -996, 593, 444, 251, 
302, 576, -645, -302, -953, 665, -80, -783, -526, -814, -1631, 1004, -199, 51, 408, 1141, 
-1068, 805, -45, -557, 1122, -736, -576, 594, 1098, 207, 164, 233, 422, -889, 451, -658, 
-741, -506, 395, 385, -781, -45, 16, -430, 301, 324, -1254, -313, -1375, 296, -1466, -196, 
-513, 31, -407, 387, -1427, -504, 153, -570, -397, 137, -1443, -1407, 323, -938, -1063, -1223, 
-349, 196, -1291, -70, -1426, -10, 291, -98, -195, 186, 1231, -84, 1404, 748, 1628, 1150, 
1589, 1841, 915, 1061, 1524, -81, 1386, 1292, 261, 331, 593, -1, -49, 785, 1016, 1731, 
1503, 577, 302, -354, -891, -1291, -349, 62, -1212, 34, -1315, -688, -744, 261, -1438, 241, 
656, -739, -752, 483, -180, -1167, 279, -1089, -424, 611, -711, -590, 457, 155, 572, 319, 
82, -167, -961, 487, 1032, 331, -437, -343, -557, -122, -659, -5, 725, 1194, -639, 779, 
368, 1006, 1268, 627, 167, -319, -401, 572, 213, -192, 854, -97, 861, 699, -719, 1003, 
-29, 717, 887, 574, 814, -475, 84, 333, 476, 766, -1007, 636, 728, -602, -331, 803, 
400, 47, -150, 653, -102, 977, 626, -418, -296, -756, 523, -922, 723, 22, 817, 294, 
174, 864, 1703, 849, 1467, 1215, 104, 793, 852, 243, 923, 241, 1462, 1077, 24, 941, 
1399, 1447, 429, -164, 1375, 877, 1366, 1130, 1393, 1251, 1359, 642, 357, 103, 1199, -439, 
1045, -388, 1360, 446, 1558, 950, 1418, 292, -491, 47, -355, -509, -222, -408, 1179, 646, 
641, -199, 719, 18, 1460, -235, 715, -396, -398, 436, -140, 183, -705, -1024, -503, 829, 
-138, 877, -1262, -330, -886, -745, -1234, 714, 302, -537, -755, -1329, -750, -238, -945, 518, 
228, -1009, -435, 317, 264, -69, -97, 1878, 229, -1191, -180, -600, 470, -812, 140, 244, 
-1084, -402, -1510, -662, 36, -269, -1218, -234, -261, -881, -561, -1389, 434, 208, -1332, -512, 
-418, -1097, -259, -448, 90, -916, -300, 993, 794, -509, -661, 659, 1329, 910, 1299, -189, 
-585, 768, 1116, 711, -290, 1153, 468, 627, 494, -243, 1131, 277, -395, 382, 888, 902, 
641, 1290, 1147, -322, -163, 1214, 590, -508, 703, -441, 1246, 279, 349, 1057, -439, 108, 
706, -475, -130, 721, -180, 426, 923, 485, -138, 595, 78, 661, -462, 194, 1428, -94, 
-185, 774, 439, 1617, 566, 1597, 746, 485, 1362, 606, 99, 779, 156, -139, 44, 470, 
1369, 1212, 658, 834, 1109, 1267, 691, 853, 1524, 630, 98, 1111, 764, 1548, 743, -326, 
552, -657, 379, -653, 1334, -705, 838, -292, -766, 722, -242, 468, -424, 1037, 852, -149, 
939, 889, 676, 244, 249, -414, -392, -747, 1234, 229, 1347, -7, -46, -662, 414, 592, 
885, -884, 679, -678, 118, 396, 1238, 959, -99, -303, -562, 1357, 216, 464, -116, -156, 
1118, -223, -611, 1, -278, 480, 89, 238, 1129, -382, -420, -422, -1724, -1488, -1159, -1245, 
-394, -300, -288, -973, -597, -699, -269, -954, -462, -331, 556, 78, -1599, -132, -1347, -1000, 
-904, -62, -963, -652, -307, -1292, -669, -1253, -879, -1225, 1568, 695, 140, 1541, 1636, -244, 
384, 114, 1335, 630, 19, 819, 472, -192, 1637, -310, 667, 117, -247, 1750, 387, 256, 
-184, -244, -130, 574, 1308, 71, 365, -300, 300, -454, 744, -519, 96, -824, -664, -220, 
-1199, 614, -873, 318, 967, 454, -779, -129, -947, 975, 166, -1198, -857, 505, -923, 775, 
775, 935, 602, 205, -140, -365, 286, 33, -536, -253, 797, -143, 1034, 144, -426, -537, 
-16, -903, 48, -717, -876, 35, -49, -831, 960, 68, 16, -573, -14, -903, 180, 751, 
-110, 39, -1383, -234, 344, -813, 71, -870, 1187, 574, -531, 712, 501, -1030, -884, -528, 
-1067, 516, 1019, 557, -215, 397, 462, -113, 609, -12, -423, 17, -1277, -371, -294, 295, 
-300, -901, 708, -252, -184, -718, 345, -825, -762, 70, -1514, 19, -296, -1110, 33, -424, 
330, -267, -139, -151, -980, 193, -1422, -1315, -538, -865, -1048, 245, -837, -1596, -1731, -1357, 
-259, -374, -911, -759, -599, 456, -39, -575, -182, -977, -1088, 389, -457, 134, -789, -581, 
186, -54, -1301, 334, 22, -76, 230, -909, -196, -785, -221, 275, -454, 262, 1047, -628, 
-681, 60, -417, -245, -331, -197, 480, -140, 358, -31, -43, -380, 650, 800, 489, 1036, 
46, -405, 1169, 1027, 113, -362, -285, 175, 994, -479, 554, 1191, -128, -1233, -333, -280, 
703, -184, 277, -142, -1197, -818, 498, 410, -1291, -322, -410, -1173, -49, -626, -426, 221, 
-836, -928, -1468, -905, 438, 41, -257, -981, -1350, -7, -936, 1122, 203, -105, 334, 806, 
-700, 1289, -350, 161, 752, 566, 835, -917, 1486, -541, -919, -15, 116, 740, 158, 277, 
1191, 567, 9, -6, 746, 621, -14, -1545, -366, 1101, 1267, 319, 221, 992, -334, 433, 
1512, 961, 1363, -527, 425, -300, 757, 524, 1368, 1028, 1298, -92, 870, -249, 728, 1416, 
694, 1353, -269, 1121, -483, 310, 504, 332, -372, -72, 583, -330, 285, 1289, 795, 176, 
-242, -544, 918, -396, -413, 281, -558, 120, 197, -660, -137, -134, 210, -32, 111, -435, 
255, 998, 525, -965, -696, -1384, 619, 69, 600, -36, 16, 494, -519, -878, 829, 866, 
-468, 734, 966, -592, -661, 861, 720, 43, -225, 62, -1019, 62, -85, -25, 915, 315, 
456, -286, -681, -259, -1128, 344, -176, -565, -496, 367, 203, 681, 481, 279, -692, -1010, 
178, -1431, -1011, -52, -968, 657, -626, 177, -413, -128, -87, -104, -582, -1391, -781, 624, 
781, 615, 259, 1223, 980, 1029, -79, 329, 1435, 464, 1562, 973, 1516, 141, -45, -191, 
526, 1163, 1422, 1353, 1706, 229, 143, 200, 1131, 868, 1710, 1357, 1619, 1828, 1006, 829, 
1551, 1551, 691, 594, 566, 310, 1518, 1865, 1055, 1571, 1394, 688, 1107, 319, 1778, 216, 
1212, 1248, 1583, 1188, 530, 1124, 1246, 983, 309, 653, 537, 1178, 560, 569, 1466, 761, 
311, 1245, 927, 634, 283, 1637, 1553, 1611, 819, 656, 793, 650, 1678, 662, 1587, 219, 
676, -262, 1428, 1359, 132, 678, 1105, 691, 1720, 1228, 1791, 1662, 820, -383, 966, -374, 
506, 656, -142, 323, 166, -378, 532, -312, 1556, 714, 1072, 1415, -62, 1490, -149, 793, 
1383, 780, 360, 750, 367, 163, 1328, 2114, -1332, 85, -892, 642, -132, -1225, -620, -1134, 
241, 725, 9, 523, -214, -1210, -588, 574, 277, 742, 518, 745, 581, -88, -562, 489, 
563, 774, 59, -101, -329, 209, -34, 286, -1467, 221, -1067, -603, -508, -27, -864, 227, 
-1395, 174, -147, -218, -485, -9, -613, 73, -744, -897, 11, -492, -734, 366, 56, -799, 
-131, -1056, 436, 655, 898, 1116, 1245, 1606, -58, 642, 992, 1202, 859, -202, 468, 537, 
792, 1142, 1206, 725, 673, 946, 1184, 579, 960, 1762, 299, 770, 989, 1631, 1459, 1117, 
1446, 552, 344, 48, -205, 285, -528, 401, -471, -751, -786, -37, -257, -1088, -1279, -759, 
-1331, 229, -953, -492, -59, -481, -271, 631, -1060, -55, 533, 617, -111, 285, 767, -1324, 
204, -77, -1280, -381, -1308, -816, -495, -54, -923, 582, 632, 62, -810, -1224, 231, -237, 
-1159, -989, -25, -843, 134, 386, 134, -833, 568, -930, 262, 134, -944, -790, -1132, -824, 
-636, 8, 496, -1325, 470, -525, -1032, -226, -236, -25, 264, -398, 475, 130, 205, -300, 
275, 343, 648, 244, 574, -870, 217, 593, -1028, 641, -719, 1417, -1402, -379, 18, -753, 
-1543, 38, -1603, -130, -439, -405, 313, -1352, -584, -1201, -902, -1121, -1158, -957, -1310, -614, 
-1225, -1490, 141, -894, 86, -1507, 187, 207, -394, -1085, -197, -708, 1174, 1292, 760, -103, 
1079, -558, -120, -696, 895, 1369, 874, 680, 906, -244, 235, 416, 1410, -324, -314, -433, 
710, 666, 1247, 40, -550, 1232, 213, -457, -1006, -619, -223, -708, -850, 104, 84, 280, 
167, -333, 744, 374, 751, -815, -223, -316, 96, -699, 20, -691, -1030, -987, 195, -386, 
715, -1072, -305, -787, -456, -588, -514, -987, 430, -605, -157, 395, -1186, -249, 297, -21, 
-797, 74, -720, 30, -114, -643, 65, -59, -568, -38, 334, -1189, -1154, -53, -611, -1229, 
-1499, -297, 301, 688, -1009, -866, -860, 223, -1351, 236, -1265, -579, -183, 16, -706, 91, 
-1342, -127, -354, 281, -1189, 298, -352, -677, -56, -1168, -1028, -1682, -1591, 281, -356, 369, 
-1256, 671, 13, -544, -1376, 508, -19, -461, -469, 72, -1029, -1047, -1005, -980, -905, -1445, 
-1471, 204, 22, -694, -1189, -784, -503, -407, -511, -93, -109, 474, -1435, 546, 116, 378, 
245, -160, -123, 312, -57, -232, -1165, 396, -101, 88, -1393, -1051, -476, -73, 297, -1458, 
94, -1169, -725, -1541, -342, -374, -1587, 37, -1653, -1044, 337, 378, -1206, -490, -108, 1458, 
1479, 1203, 200, -378, 716, 509, 397, 1210, 1090, 143, -238, 1619, 1317, 796, 224, -266, 
234, -18, 189, 715, 1398, 1593, 1206, -320, 1232, 1364, 1709, 1117, -433, 49, -221, -96, 
499, -602, 248, 1446, -302, 344, 1275, 1241, 249, 613, 933, 35, -116, 19, 218, 515, 
-1, 872, 607, 207, -268, 957, 826, 1410, 469, -156, -35, -935, -911, 452, -881, 470, 
64, 778, -1141, -791, -144, 335, -246, -212, -1136, 826, -763, -452, 122, -1075, -14, -902, 
508, -817, -998, 469, -983, 506, 158, -202, -201, -595, -813, 195, -382, -465, -331, -371, 
169, -357, -465, 378, 724, -1240, 78, 121, 655, -126, 639, -1176, -5, 444, -1125, -33, 
557, 341, 3, 61, -1099, 904, 861, -7, 159, 306, -416, 165, 256, 914, 724, 23, 
495, -636, -501, 555, -132, 854, -659, 782, 776, 806, -965, 608, -224, -113, 949, 395, 
842, -685, 840, -411, 299, 1484, 1637, 839, 170, 1688, -206, 1528, 72, 249, 1451, 355, 
1403, -79, 1603, 1396, 497, 1297, 1085, -131, 754, 231, 1147, 760, 28, 1040, 405, 844, 
22, 1042, -654, 1014, 1123, 1335, 833, 1258, 118, 985, -518, -588, 441, 1143, 129, -239, 
-353, -384, 428, -678, -369, -228, -234, 641, 433, 1147, 190, -632, 69, 1214, 1211, 69, 
1374, 1180, 172, 1039, 544, 1108, 169, 137, 1456, 1643, 1155, 1469, 188, -37, -257, 121, 
1809, 1164, 1614, 1662, 794, 648, 1614, 726, 232, 1643, -177, 500, 1012, 1012, 386, 1032, 
760, 177, 72, -64, 608, 727, 129, 331, 607, -489, -63, -703, 71, 6, 325, -884, 
-1005, 601, -872, 438, 650, 722, 717, 766, -862, 533, -97, -1449, 152, 277, -374, 1427, 
1633, -181, 466, 1032, 623, -64, 1072, 309, 1398, 1088, 1578, 788, -309, 1642, 1096, 1692, 
640, 395, 1660, 1431, 1372, 422, 1561, 188, -27, 847, 458, 214, -710, -359, 738, 840, 
-40, 1352, 1203, 1141, 1180, 510, -351, 170, 141, 973, 263, 215, -610, 1136, 449, -92, 
553, -353, -146, 482, -529, 586, 260, 1184, 345, -624, 371, -149, -1390, -276, -770, -327, 
-330, -768, -748, 93, -231, 355, -44, 296, -1568, -1021, -1167, 195, -1265, -1283, 128, -515, 
-1336, -511, -152, 219, -693, -494, 127, 548, 1649, 574, 499, 507, 258, 1289, 1436, 1304, 
1584, 1168, 643, 797, 1, 747, 861, 1156, 1141, -362, -381, 1456, 146, 548, -106, 1337, 
-293, 402, 1097, 1244, 370, 345, -154, -833, -827, -840, 88, 252, -856, -1003, 1, -857, 
840, -626, -119, -243, -699, -860, 19, 98, 547, -140, -194, -1156, -132, -1198, 205, 186, 
-671, 409, 448, -560, -152, -684, 107, 839, 709, 1404, 1565, -570, 516, 223, -629, -353, 
-7, 1277, 714, 1141, -404, 1140, 990, 273, -433, 338, 349, 190, 1231, 1048, -657, 578, 
-41, 398, 785, -558, 292, -732, 1094, -901, 1, -429, 909, -379, 587, 422, 138, 107, 
-465, -668, 418, -529, -708, 75, 1096, 712, 978, 249, 1050, 503, 868, -564, -82, 136, 
-420, 628, 9, -923, -148, 158, -195, 619, -879, -101, 683, -904, -717, -836, 507, -1160, 
402, 745, -153, -1053, -346, -347, -327, 602, 264, 674, -1189, -575, -606, -719, 122, 127, 
-1495, -959, -197, -495, -724, -928, -1119, -634, -233, 44, 394, -993, -1598, -1597, -443, -1598, 
-910, -102, -672, 346, 307, 311, -1484, -1028, -960, 645, -733, -1539, 267, -563, 593, 458, 
6, -729, -837, -285, -1203, 24, -1187, -666, 244, 37, -1193, -270, -378, -1505, 15, -1210, 
-78, -1138, -1124, -226, -1030, 164, 267, -1161, 593, 1097, 222, 1058, 293, 38, 1030, 1617, 
1093, 1470, 1539, 671, 1763, 1276, 48, 1618, 1710, 795, 833, -46, 1394, 950, 1096, 194, 
1241, 214, 1184, 465, 83, -14, -1437, -825, -1626, 262, 245, 225, -254, -475, 57, 121, 
-1286, -1288, -653, 61, 467, -362, -600, -1112, -782, -1426, 167, 248, 169, -777, -185, -1044, 
-1475, -1094, -291, 651, 215, 275, 495, -348, -364, 749, 173, 226, -709, -597, 471, 994, 
1129, 337, 616, 856, -248, 811, -553, -864, 311, -637, 665, -644, -484, -187, 1083, 104, 
-81, 49, -1015, 255, 532, -87, -619, -208, 909, -325, 300, 444, -960, -424, -967, 114, 
-51, 732, 347, -294, -263, 138, 45, 942, 1278, -256, -345, 124, -258, -720, 556, -267, 
-344, -526, -105, -508, 1227, 370, -527, 269, 503, 208, 851, 897, -202, 706, 530, -363, 
748, 156, 390, -253, 1074, -457, 288, -375, 670, 658, -286, -792, -253, -836, 164, -22, 
177, -81, -1429, 201, 393, -1116, -733, -710, -1108, -1351, -887, -609, -613, -621, -679, -1622, 
-602, -475, 450, -1633, -747, -1012, 2, 306, -181, 1, 238, -169, -1170, -1375, 543, -54, 
241, 685, -44, -1065, 520, -1028, -62, -280, 356, -20, 418, 175, 275, -645, -1259, -744, 
44, 10, -194, 161, -589, -450, 115, -303, 472, -381, 739, 568, 1084, -535, 547, 725, 
388, 1242, -217, 635, 837, -444, 420, -184, -80, 1029, 23, -314, 90, -273, -310, 220, 
670, 1061, 1545, 720, 1070, 211, 793, -880, -280, 874, 140, 135, 1326, 880, 1626, 392, 
1394, 1725, 1521, 424, 789, 1105, 1688, 784, -170, 534, 117, 136, 862, 686, 1522, 166, 
-196, 417, 1103, 629, 450, 1567, 657, -474, -100, 72, 223, -864, -618, -1228, 493, -45, 
695, -464, -895, -343, 583, 532, 636, -94, -431, -561, 90, -1245, 457, -417, 709, -116, 
-1166, -659, 563, 748, -1538, 634, -972, -965, -656, -1062, -41, -1407, -889, -1041, 73, -1077, 
-1063, 154, 590, -1184, -1293, 540, -671, -19, 619, 673, 521, 60, 62, 300, 167, -472, 
-940, -349, -1059, 69, -1423, 318, -235, -259, -63, 371, -1396, -646, 72, -641, -931, -1008, 
-554, 51, -535, -92, -725, -1295, 144, -660, -785, -708, -1054, -1290, -986, 304, -316, 28, 
1132, -292, 104, 221, -937, -131, -1260, -120, 18, 358, 459, 831, 79, 870, -819, -718, 
310, -95, 244, 205, 313, -597, 856, 58, -600, -485, -118, -278, 76, -10, 3, -1509, 
-1297, -889, -1602, -526, -436, -1479, 193, 221, -769, -1370, -683, -425, -332, -247, -689, -675, 
-942, -1293, -1439, -899, -178, -1206, -675, -222, -536, 8, -1128, 233, 765, -95, 1400, 46, 
633, 773, 283, 770, -116, 1024, 401, 1446, 530, 1413, -232, 1133, 176, 1069, 942, 918, 
819, 812, -304, 1459, 1262, 243, 204, 1220, 973, 411, -298, 571, -687, -1254, -893, 16, 
-349, -286, -982, -762, -376, 287, -440, -103, 391, 316, 113, -716, -1377, -1528, -662, -1632, 
-1223, -902, 23, -1564, 65, -1351, -527, 88, -230, 454, 830, -113, 1221, 1098, 1723, 274, 
831, 1474, 180, -198, 672, 1387, 24, 283, 448, 725, -208, 109, 1396, 637, 490, 629, 
1208, -620, -483, 294, 759, -194, 1379, 1122, 1504, 578, 1833, 927, 731, 1420, 435, -255, 
-223, 145, 1055, 1320, 1479, 1107, 1266, 861, -567, -367, 130, 1806, 1536, -618, 1074, -202, 
745, 722, 1465, 892, -925, -498, -449, 872, -317, 388, -591, -21, -507, -176, -637, 710, 
-450, -309, -691, 479, -643, -1186, -599, -518, 98, -275, -979, 297, -992, 460, 240, -716, 
389, 254, 270, 522, 236, -391, 1167, 1203, 1401, 932, 756, 1182, 677, 1488, 152, 1463, 
-249, -170, 361, 23, 1275, 5, -170, -287, -35, 1237, 1376, 110, -54, 890, 592, 1443, 
389, -612, -759, 695, -364, 1088, 281, 275, 842, 937, 1100, -492, 988, 214, 905, -9, 
355, 332, -184, 85, 544, -99, 326, 1149, 72, -517, -88, -441, -473, 781, 18, -141, 
1041, 783, 77, -742, 775, -541, 1393, 631, 1294, 279, 1228, 1110, -370, 576, 963, -450, 
556, 254, -574, 1058, 748, 1016, 929, -11, 377, -79, 1101, -1494, 991, -332, 1358, 366, 
1407, -253, 1437, 1694, 533, 1419, 542, 1268, 512, -108, 158, 920, 1011, 579, 669, 900, 
-189, 1145, -453, -907, 443, -292, -559, 1090, 1096, 573, -504, 227, -362, -119, -156, -544, 
-116, -63, -1123, -741, 31, -655, -308, 862, -763, 895, -1262, 483, -1143, 394, 304, -523, 
-770, -83, -725, 640, -919, 99, -64, -666, -719, -700, -519, -1021, -1197, -1388, -1266, -363, 
305, -87, -67, 286, 71, 494, -938, -1197, 238, -977, 273, 15, 383, -467, -667, -457, 
-573, 290, -1468, 18, -603, 655, -522, 264, -27, -1483, -540, -1228, -1316, -27, 524, 97, 
-976, -104, -789, -1051, -1621, -1432, -1105, -422, -749, -671, -1208, 414, -818, -1519, -922, -292, 
-185, -289, 464, 762, 690, 1692, 547, -350, -133, -34, 1569, -244, 586, 495, 24, 436, 
-784, 802, 491, 1248, 180, 1084, 385, 402, 1020, 1687, 958, 207, 663, -66, -412, 1198, 
-521, -640, -950, 762, -232, -461, 122, 52, 505, 1184, -351, -684, 5, 610, -288, 371, 
-382, 794, 402, 218, 149, -19, 957, 1389, 1472, 480, 322, 263, 781, -443, -240, 986, 
986, 835, 1553, 658, 161, 1732, 549, 85, 1166, -387, 1838, 117, 496, 649, 719, 97, 
1614, -31, 990, 954, 799, -19, 711, 1718, 733, 102, 881, 29, 173, 1547, 577, -19, 
-420, 1103, 26, -383, 1612, 1045, 1315, -505, -82, 129, -488, 1734, 1286, 523, 125, 847, 
971, 28, 332, 357, -337, 972, -3, 612, 247, 88, -102, 1206, 674, -1730, -557, -1505, 
250, -1271, -608, 240, 320, -145, -436, -916, 176, 714, 436, 306, 198, -1138, -1022, -927, 
-666, -256, -915, -1398, -910, -1684, -259, -381, -1467, 431, 1372, 669, -616, -765, -657, -260, 
18, 820, -1137, 685, 836, 698, -1300, -430, 1005, -510, 568, -1210, 525, -638, 75, -1209, 
-817, -980, -1349, -13, -265, 357, -875, 824, -1476, -41, 964, -412, -383, -688, -241, 951, 
815, 815, -642, 1068, 1310, 477, -3, 1154, 796, 739, 176, 221, -427, 200, 132, 1242, 
1418, 743, -519, -369, -11, 465, 21, -756, -653, -1100, 540, -982, 75, -1288, 172, 434, 
32, -46, 300, 493, 527, 97, -1366, -5, 389, -552, 447, 254, -1212, -624, -676, -231, 
116, -777, -720, 1265, -80, 1146, 640, 784, 1382, 45, 903, 392, 826, 1551, 1528, 829, 
1065, 1426, 97, 294, -165, 1770, -51, 392, 752, 797, 1166, 1826, 818, 1051, 991, 1889, 
1667, -248, 364, -948, -397, -308, -416, -766, 1410, 1094, -423, -524, 463, 80, -584, 267, 
491, -616, 709, 545, -952, 750, -228, 314, -329, 843, 101, 218, 759, -328, 588, -40, 
633, 1011, 357, 433, 789, 825, -630, 892, 495, 967, 744, 423, -413, -519, -620, 811, 
464, 1155, 578, 587, -376, 995, -858, 994, 6, -772, -379, -742, -285, 1098, -1714, 746, 
409, -533, -909, -888, -286, -852, -649, 480, -176, -730, 227, 699, -84, -850, 71, -1294, 
-344, 329, -367, 213, -1150, 297, -187, -784, 572, 517, -938, 828, -384, 179, -563, -628, 
-378, -1048, -753, -1777, -1073, -598, -333, 39, -1515, -1054, -1413, -538, -813, -1254, -358, -807, 
-1329, -288, 326, -115, 117, -1344, -981, -1322, -516, -1271, 1114, 563, 1131, -6, 1219, 1161, 
287, 1480, 292, 1390, -300, 1179, 802, -443, 1391, 1073, 927, 327, -272, -353, 965, 447, 
985, 1456, 737, 452, -311, 492, 463, -1328, -306, 620, 1459, 222, -18, 1175, -25, 270, 
1292, 785, 438, 1447, -415, -318, 1069, -72, -300, 881, 323, -601, 541, 1380, -301, -246, 
784, -463, 1428, -468, 241, -791, -1599, -167, -1047, 135, 6, -1122, -1067, -1168, 35, -1315, 
-257, -1114, -1507, -1314, -1690, -458, -1185, 19, -1226, -1641, -1914, -1753, -1301, -532, -701, -751, 
-707, -743, -1300, 1059, -536, -1451, -1424, -986, -580, -1907, -807, -2191, -2095, -2261, -729, -135, 
-770, -1613, -1427, -2133, -972, -1725, -1688, -1685, -1494, -1794, -1677, -243, -1334, -1802, -1239, -1083, 
-1689, 773, -19, -642, -363, -445, 11, -145, -1047, -1030, -232, -897, -280, -198, -1098, 1020, 
462, -958, -1642, -1272, 289, 431, -736, -97, -677, -223, 144, -536, -982, -627, 531, -191, 
887, 319, -843, -690, -357, -617, -1762, -1414, -1378, -726, -14, -351, -1276, -388, -1216, -195, 
-203, -1165, -872, -627, -1697, -1304, 44, -602, 131, 29, -1222, -1626, -836, -1108, -218, -358, 
189, -1810, -1568, -399, -1328, -1073, 49, -127, -1246, -1159, -1817, -777, 77, -2, 107, -1289, 
-317, -1288, -1601, -1553, -1146, -130, -1009, -1493, -1512, -1758, -735, 1020, 1509, 1102, 661, 167, 
958, 1019, 947, -535, 666, 120, 719, -102, -172, 166, 1078, -161, 186, 437, 1170, 62, 
1064, 770, 319, 112, 558, -22, 208, 905, 709, 1250, 1002, 464, -410, 416, -140, -779, 
-703, 872, -679, 423, -14, -686, 414, -786, -582, -180, -360, 215, 117, -186, -854, 437, 
-1301, -1009, -538, 15, 136, -787, 296, 798, -284, 1383, -592, -109, 1094, 1011, -664, 1071, 
1068, 375, 360, 52, -345, 1259, 172, 714, -458, -499, 910, -166, 345, -797, 532, 438, 
593, -793, 1014, 828, -463, 1202, 1285, 392, 1642, 1072, 78, 95, 429, -287, 1223, 957, 
-626, 494, 1013, 915, 522, 997, -838, 1200, 169, 738, 712, -228, 67, 1015, 230, -622, 
1409, -186, 484, -869, 370, 818, 1154, 668, 246, 1280, 685, 1410, 1031, 696, 767, 1518, 
962, -198, 1117, -11, 1384, 1306, -189, 179, -187, 228, 1072, 701, 977, 129, 340, 363, 
1014, -144, 980, 678, -168, 295, 828, 885, 1151, 1058, 451, 678, 1701, 405, 902, -350, 
-212, -403, -288, 1205, 1519, 347, 1567, -387, 1126, 611, 1555, -46, 538, 1484, -76, 1012, 
1560, 1190, 1247, 569, 1621, 888, 168, 821, 951, 321, 538, 206, 939, 1147, -72, 467, 
336, 928, -306, 1268, -203, -146, 448, -15, 273, 362, -213, 1641, 1266, 718, 740, 649, 
619, 76, 1237, 8, 580, 943, 284, -627, 810, -427, 272, -89, 196, 78, -530, 625, 
-159, 251, 957, -40, -4, 857, -396, 620, -109, 1283, -287, -2371, 378, 1155, 1508, 246, 
1840, 509, 1217, 1701, 1047, 165, 821, 1673, 156, 1523, 1420, 688, 39, 574, 215, 1467, 
939, 1098, 718, -85, 1565, 105, 934, 76, 1346, 464, 130, 313, -405, 521, -358, -438, 
98, 342, -100, 844, -1277, -230, 568, -531, -34, -430, 659, 467, -63, -371, -721, -430, 
-50, 684, -261, -738, -78, 748, 376, -277, -1147, -393, -260, -1490, -1981, -1420, -1765, -1136, 
-1960, -1328, -562, -96, -742, -1200, -1777, -1803, -195, -1616, -1256, -1173, -1059, -1833, -1787, -1457, 
-1259, -1432, -1412, -780, -1146, 553, -111, -595, -1063, -549, -807, -137, -1698, -12, -101, -1083, 
173, -733, -1414, -82, 74, 277, -1673, -844, -1493, -989, -481, -1650, -1316, -624, -259, -586, 
222, -1546, -973, 802, -441, 1515, 889, 1183, -111, 1220, 484, -242, -132, 137, 633, -434, 
-78, 774, 848, 1141, 949, 601, 647, 1191, 967, -90, 994, 1110, -138, 532, 466, 707, 
276, -11, -471, 1080, 1018, 1352, -29, -369, 1570, 352, -114, 237, -781, -303, 150, 32, 
-357, 820, -16, -234, 34, 787, -238, -385, 1077, -386, -23, 267, 1169, 497, 1045, 347, 
485, 229, -241, -802, 798, -838, -65, 279, 595, 834, -537, 814, -852, -521, -755, -928, 
-1139, 381, 563, 412, 980, -124, -700, 478, 810, 373, 651, 838, 961, 683, 228, -46, 
712, -924, -1011, -965, 603, -857, -669, 77, -465, 749, -475, 502, 19, 828, -931, -381, 
883, -765, -49, 291, -124, 542, 703, 189, 61, 444, 319, -659, 870, -330, -950, -801, 
683, -584, -655, -130, 2, -659, 18, -955, -708, 150, -1173, -961, -741, -880, -670, 104, 
648, -249, -900, -844, -558, -352, -383, -1023, -836, 1050, 325, 427, -946, -786, 355, 1048, 
-1011, -712, -373, 599, -1039, 386, -599, 866, -1102, 427, -501, 437, 27, -36, -1101, 336, 
-187, 952, 449, 156, -1176, -605, -576, -801, -221, 162, 471, -723, 96, 456, -937, -429, 
1013, 197, -714, 765, 478, 281, 886, 85, -421, -921, -1250, 680, 17, -458, -44, -779, 
279, -491, -1199, 374, 741, 791, -1252, -1209, 196, -332, 843, 138, 503, -899, 859, -1033, 
214, 26, 133, -89, 369, -143, 370, -708, -228, -1254, -1119, -659, -364, 696, -955, -1140, 
-300, -70, -338, -3, 486, 932, -635, -1013, -649, 905, 379, 795, 432, 147, 271, -344, 
717, -682, 600, -433, -522, 223, -784, 933, 1007, -216, -307, 589, 438, -278, -819, -1023, 
440, 993, -677, -1029, 352, 722, -913, -1147, -280, -1073, -71, -549, -94, 104, 452, -361, 
-500, -846, -521, -976, 167, -356, -143, -336, 14, 500, -901, -577, -128, -1169, -608, -141, 
-317, -88, 9, -120, -526, -497, -432, -1024, -233, -326, -799, -754, 794, 794, -352, -802, 
-157, -1251, -574, -312, -1038, 98, -642, 282, -508, -1038, 515, 72, -658, 543, -387, -1151, 
-321, -956, 706, -74, 89, -187, 677, -609, 159, -1, 60, -778, -161, -113, -177, -853, 
662, -373, -1175, 78, -837, -728, -107, -586, -1123, 407, -239, -223, -1174, -728, -339, 503, 
260, -739, 539, -1152, -22, 330, 38, 749, 388, 822, 700, 33, -1207, 640, 78, -703, 
-91, -876, -1025, 380, -633, -18, -586, 381, -541, -933, 573, -699, 227, 121, 663, 48, 
-926, -1228, -897, -133, -759, 310, -862, -486, -209, 598, -430, -1048, -816, -905, -77, -870, 
-516, 791, -349, -874, -819, -747, -1195, 434, 732, -327, 531, 275, -299, -865, 614, 24, 
-1003, -172, -1145, 711, -1132, 12, -857, -314, -1197, -311, 1043, 675, -57, -820, 540, -439, 
-1060, -645, -801, -1017, -301, -278, -553, 519, -546, -1140, -881, 599, -731, 565, 98, 739, 
406, -1044, 146, -272, -928, -263, 545, -361, 268, 763, -709, 620, 136, -761, -1117, -1069, 
-905, 204, 249, 781, -237, -566, -193, 533, -184, -519, -1238, -922, -923, -438, 182, 426, 
-684, 462, 713, 306, -1178, 118, -977, -402, -1028, 210, -410, 298, -55, -1157, 421, -541, 
-462, 474, -1217, -370, 83, -384, -165, 298, -986, -1206, -342, 768, -128, -1062, 854, -11, 
-250, 546, -209, -769, -956, -358, -1226, -966, -808, 32, -348, 790, -82, 190, 406, -926, 
673, 698, -1002, -350, -589, 848, 72, -858, 101, 109, 83, -510, 619, -630, -832, 444, 
-741, -1044, 12, -852, 451, -127, 378, -581, -1123, 206, 600, -735, -1245, 620, -513, -1196, 
-116, -345, -572, -234, 453, -277, 431, 558, -391, -467, 279, 345, 115, -861, 179, 322, 
659, -222, -956, 287, 75, -101, 943, 601, -1199, -287, -849, 95, -526, 24, -135, -628, 
-1090, -452, 88, -76, -366, -753, -123, -791, -25, -945, 719, -107, 916, -607, -181, -188, 
-628, 542, -355, -757, -10, -645, 519, -553, -634, 918, 851, 2, 753, -670, 639, -922, 
-448, 317, -53, -264, -744, -729, -1121, -165, -1011, -698, -220, -580, -73, -270, 107, 813, 
-67, 399, 633, -1218, -271, -297, -33, -1203, -176, 515, 611, -525, 106, 95, -631, -156, 
-804, 392, 612, -1088, -153, -1238, -696, -1229, 745, -79, -582, 601, 239, 253, -1136, -732, 
-750, -686, -1170, 575, 417, -627, -563, 226, -516, -633, -861, -1233, 384, -340, -1131, -962, 
-483, -346, 142, 292, 275, 203, -52, 297, 403, -347, 720, -69, 860, -808, -1162, 725, 
-283, 1013, 681, -664, 787, -784, -257, -561, 1017, 805, 564, -182, 286, -432, -763, -811, 
-446, -873, 318, 125, -180, -721, -328, -752, 110, -371, 860, -238, 531, 670, -705, 816, 
-1174, 577, -599, -719, 348, 501, -341, 169, 991, 575, -134, -173, 769, -397, 720, -452, 
-210, -345, -1003, -122, 468, -1029, -999, 153, 932, -298, -870, 983, 512, -44, -989, -50, 
-1084, -554, -271, 273, -753, 757, 1024, -1055, 573, -399, -754, -374, 106, -622, -34, 612, 
106, 979, -1026, -911, 989, -356, 158, 515, -22, 179, 1008, -512, 787, -509, 563, -705, 
806, -635, -527, -282, 623, 66, -168, 270, -430, -889, 172, 15, 638, 302, -1076, -427, 
189, -1151, 178, -489, 847, 357, -785, -979, 411, 247, 803, -945, 412, 763, 473, -1065, 
822, 949, -683, 542, -921, -424, 179, -1245, 822, -981, 1000, 608, 858, 129, 89, -334, 
-378, 35, 473, -788, -490, -1205, 147, -453, 619, 29, -1145, 490, -99, -830, -728, -770, 
-66, -59, 51, -578, -674, 1, 242, 437, 249, -332, -239, -1092, 126, 46, -60, -1246, 
384, 405, 54, 761, -1052, -177, -651, -280, 216, 248, -1242, -595, -1145, -1217, 631, -733, 
74, -1087, 682, -592, -154, 754, -208, -1107, 413, 716, 805, 102, -580, 312, -1187, -1201, 
-484, -525, -118, -215, -1187, -506, -86, 533, -698, -836, -1223, 47, -398, 747, -242, -264, 
646, -354, -390, 309, 96, -1036, -815, -155, 822, -155, 469, 573, 565, -277, -879, -87, 
595, -586, -290, 945, 224, 853, -514, -1168, 809, -1137, -1039, -734, 706, 442, 24, 296, 
703, 445, 340, -764, -814, -478, 849, -1038, -16, -986, 350, -741, 226, -1046, -124, 406, 
-749, 774, -104, 869, -133, -331, -393, -563, -458, 510, -964, -743, -131, -877, -577, -743, 
-538, -861, 3, 441, 550, 250, -1215, 941, -628, 638, 402, 135, -70, 592, 701, -745, 
123, 925, 398, 414, 1212, 293, 624, 1166, 687, -382, -385, 295, 1068, 904, 845, -684, 
899, 581, 826, -759, 664, -623, 435, 498, 136, 691, -158, -424, -503, -332, 530, 345, 
-647, 992, -67, 795, -213, -520, -387, 223, -558, -26, 568, 537, -116, -416, 993, 1134, 
943, 933, 126, 1402, 799, 712, 627, 545, -297, -716, 326, -83, 75, 1789, 41, 492, 
727, -239, 791, 770, -190, 1090, -91, 1336, -379, 451, 805, 901, 805, -22, -306, 857, 
16, -124, 275, 1568, 1676, 1027, 490, 1313, 57, 1667, 1067, 1305, 930, 694, 325, -362, 
-46, 1178, 971, 1609, -315, -355, 2, -226, 968, -318, 540, -380, 750, -125, 1559, 987, 
1196, 570, 1164, 1324, 844, 139, 1150, 1660, 612, 607, 608, 1129, -209, 258, 752, 555, 
-106, -501, 254, -783, -215, 634, -259, -810, 1017, -292, -500, 582, 570, 1042, 62, 1294, 
414, 896, 435, -190, 470, -65, 584, -839, 143, -1376, -374, 503, 287, -827, -1473, -1016, 
-394, -663, 454, 206, -301, -1513, -93, -543, -571, 322, -490, 219, 422, -1294, -49, -1577, 
-1441, -403, -1138, -18, 428, 1053, -771, 358, 163, -373, 177, 908, 160, -636, -791, 734, 
-450, -380, -98, -69, 404, 436, 9, -212, -530, 1141, 1095, -100, 681, -792, 688, 727, 
-929, -371, 5, -154, 860, -751, 240, 635, -519, -3, 910, -564, 205, -429, -418, 162, 
99, -419, -152, 40, 503, 712, 879, 1026, -577, -264, -197, 607, 712, -807, 537, -44, 
-900, -144, 1115, -109, 650, 1116, 284, -201, 146, -606, -684, -394, 591, 1148, -147, -725, 
-518, -717, -526, -866, 600, -603, -713, -811, 679, -711, 879, -348, -30, -756, -959, -844, 
-338, -643, -308, -1097, -1406, -1171, -993, -126, -669, -1224, -1754, 273, -809, -1402, -100, -294, 
-1260, -1472, -491, -863, -516, 179, -1107, -181, -1143, 149, -1021, 502, -163, -118, 169, -1117, 
1011, -1067, -1264, -1239, -562, 477, 310, 251, -1227, -325, -585, 400, 8, 67, -202, -601, 
577, 634, -851, 759, -910, -977, 441, 324, -227, 776, 644, -881, -899, 78, -368, -14, 
-137, -753, 641, 1243, 355, -796, 781, -449, -929, -536, 594, 576, -778, 679, 640, -65, 
-546, 885, 171, -861, 737, -479, -335, -791, -30, -507, 508, -109, -46, 584, 1043, -44, 
766, 495, 904, 248, 703, -105, 1203, 613, 210, 1077, -647, 1164, 1104, 1304, 616, 1105, 
162, 903, 643, -839, -401, 1352, -442, 657, -613, -188, 660, -320, 182, -111, -642, -838, 
103, 45, 285, -196, 778, -869, -180, 51, 683, -52, 200, -1000, 1013, -677, 372, -548, 
592, 419, 465, -775, -857, -709, -233, 2, -100, -75, 435, -1285, -1133, -772, -1084, 506, 
-786, 713, -320, -1157, -496, -44, -160, 240, 864, -189, -95, -380, 588, -521, -243, 14, 
576, -55, 319, 385, 206, -451, -887, 172, 93, 255, -827, 218, -1057, 111, 159, -523, 
-485, -637, -744, 78, -751, -616, 370, 137, -452, -246, 544, -1183, -130, 574, -263, 50, 
-374, 1011, 886, -485, -114, -720, 197, -173, 1047, -94, -753, -430, 139, -603, 325, 430, 
1078, 670, -842, -665, 365, 22, -237, -256, -690, -151, -49, -831, -537, -264, 620, 1016, 
619, 1078, 236, 978, 1630, 724, 1262, 1748, 701, 1353, -324, 1069, -286, 591, 1117, -171, 
617, 606, 1246, 37, 522, 1254, 238, 274, 216, 1266, 870, -562, 1600, 272, 1145, 796, 
1052, 445, -259, 1056, 659, 471, 197, 815, -358, 1174, 348, -281, 1346, -218, 590, -259, 
-152, 326, 402, 879, 359, -98, -556, 616, -628, 1167, -669, 600, 456, -242, -1095, -547, 
337, 51, 136, -361, 177, 527, 678, 225, 553, -1238, -120, 346, -1097, -528, -578, -278, 
299, -1271, -224, -1326, -941, -592, 423, 152, -1252, -158, -7, 1036, -358, -6, 400, 1052, 
-863, 883, 577, 205, -14, -1112, 1025, -96, -305, -695, -325, 1348, -163, -875, -297, 618, 
-874, 810, 104, 552, -847, 1300, 1115, -80, 583, -264, 39, -587, 465, -399, 1333, -708, 
497, 674, 868, 52, -254, 493, -277, 652, 1022, -703, -385, 1223, -70, -136, 213, -136, 
129, 865, -459, 147, -522, 825, -190, 371, -384, 324, -501, -177, -703, -327, -557, -298, 
598, 1147, 882, 1450, -211, 760, 123, 239, -114, 796, 950, 198, 1072, 1118, 1108, 1274, 
-655, -90, -1053, 658, 419, -320, 173, 1141, 459, 408, -166, 241, -151, 1096, -409, -921, 
268, 325, -15, 1009, 38, 980, 803, -61, 508, -93, 584, -918, -117, -231, -264, -109, 
-753, 1193, -736, 647, 440, 776, 1059, 518, -435, 293, -787, 1214, 656, 1064, -777, 387, 
321, 1282, 75, 425, -744, 823, 40, 747, -502, 1091, 576, 724, 522, -253, 16, 923, 
-969, 1070, -804, -506, 224, -319, 1092, 421, -718, -511, -393, 116, -398, -927, 679, 1126, 
52, 440, -246, -694, -331, 530, 1011, 433, -187, -500, 990, -1750, -28, -294, 1019, 373, 
-675, 557, 328, -678, 215, -482, 755, 456, 1136, -228, -391, 849, -131, -705, 777, 703, 
536, -170, 754, 1127, 660, 35, 1007, -207, 889, 648, -230, 1213, 792, 1175, -484, 1249, 
489, 320, 799, 788, 592, 997, 35, 700, 1263, 945, -591, 447, -652, 1310, 4, 1520, 
-682, -138, -302, 244, 175, 860, 434, -415, -465, -832, -671, -244, -853, -849, -910, -11, 
61, -133, -610, -664, 361, 756, 638, 302, 792, -668, 586, -98, -1031, -147, -1167, 178, 
487, -1361, -989, -264, -821, -627, 1692, 361, 1022, 16, 519, 657, 1393, 77, 1645, 1270, 
610, 1506, 355, 971, -294, 286, 111, 1291, 1074, 1, 600, 1056, 874, 1357, -19, 1578, 
-73, 61, 766, 29, 932, 945, 389, -875, -618, -839, 1050, -251, 846, -231, 962, 545, 
508, 162, -248, 1527, 105, -27, 389, -709, -713, 716, 1094, 1218, 989, 276, 445, -368, 
971, 399, 744, 455, 611, 156, -669, 942, 527, -547, 935, -135, 991, 919, 13, 264, 
827, -664, 750, -795, 780, -64, -838, 830, 149, 787, -515, 797, 234, 143, 1064, 154, 
-442, -955, 274, 94, -46, -470, -1293, -1336, -641, -1346, 1, 389, -1053, -1118, -64, 98, 
-712, -1218, 198, -571, -888, -1142, -1320, -775, 241, -1123, -722, -231, -1344, -353, -827, -1761, 
284, -567, -1004, -473, -386, -1656, -949, -1232, -368, 197, -1332, -444, -721, -784, -812, -1476, 
-437, -481, -1490, -200, -1040, -812, -799, -836, -1411, -814, -931, -1460, -111, -305, -76, -799, 
370, -1021, -506, -74, 109, 327, -937, 549, 484, 360, -1255, -1185, 108, -124, -295, -849, 
187, -728, -138, 389, -12, -701, -1068, -1083, -189, 572, -1517, -540, 454, -1063, -907, -320, 
543, 329, 462, -255, 608, 436, -951, -288, -1185, -1010, -128, -978, 458, 121, -566, 436, 
-1242, 470, 526, 231, -1217, 567, 101, -997, 1144, -74, -361, 1505, 1138, 1524, -137, 1196, 
1009, 1320, 666, 1173, -196, -178, 86, 1382, 1229, 641, 1039, 788, 851, 1274, 380, 354, 
1295, 1409, -269, 802, 544, 1352, -340, -242, -832, -777, -1377, -1369, -1686, 371, 508, -803, 
459, -1393, -1049, -1409, -985, -158, 388, -236, -1440, -993, -1251, 75, 251, 82, -264, -755, 
-648, -710, -1020, -807, 642, -1014, -49, -340, -367, 231, -217, -246, -427, -133, -971, -193, 
-125, 268, -77, -1314, -83, -1236, -249, -1525, 476, 156, -864, -740, -533, -476, 522, -341, 
-903, -1199, -183, 566, -279, 643, -381, 998, 787, -197, 438, -305, 275, 233, 635, -295, 
536, -212, 335, 491, -208, 144, 320, 98, 1069, 159, 143, 827, 663, 981, -146, 686, 
1197, 103, 981, -613, 1188, 82, 421, -398, 1222, 326, -353, -387, 778, 751, 390, 446, 
-300, 1255, 572, 1518, 1162, 816, -486, 861, 645, -424, -541, -711, -266, 743, 352, -395, 
757, -754, -1275, -791, 129, -422, -193, 677, -814, -968, -969, 723, -972, -509, -20, 571, 
-1028, 119, -78, -444, -250, -916, -388, -1266, -657, -950, -72, -486, 980, -13, 1277, 590, 
1584, 262, 1077, 220, -210, 544, 668, 201, 338, 824, 295, -455, -399, 1158, -768, -219, 
-125, 951, 211, 872, 725, 1203, 1012, 93, 16, 925, 462, -162, 970, -728, -231, 494, 
-14, -533, -555, 1267, 1458, -524, 901, -514, 1053, 309, -262, 306, 835, 210, -342, -740, 
442, 874, -728, 1102, -773, 19, -95, -471, -86, 627, 325, -603, 155, 1572, 789, 706, 
-145, 945, -382, 880, 1171, 385, 239, 243, -416, 1648, 1470, -155, 1192, 967, -66, -211, 
282, 909, 656, 1016, 1337, 1591, 584, -242, 1173, 1425, 106, -494, 294, 704, 1613, 1367, 
1268, 1408, 823, 1464, 449, 1058, 611, -388, 1093, 905, 1262, 566, -275, 965, 668, 47, 
754, 1291, 297, 273, 214, 1070, 91, 567, 1057, 819, 305, 160, 359, -172, 80, -402, 
350, 1466, 999, 637, 639, -36, -212, 1165, 1419, 805, -139, -487, 711, 193, -428, 1477, 
621, 73, -481, 933, -592, -1027, -217, -21, -994, 503, -682, -1002, -744, -722, -793, -605, 
60, -469, -875, -187, -1534, -1496, -628, 26, -547, -1399, 790, -607, -457, -790, -1089, 915, 
170, 1036, 461, -226, 118, -123, 31, 885, 1428, 866, 836, 1277, 388, 625, 489, 1281, 
488, 525, 1458, 1152, 678, -37, 327, 1224, -104, 632, 524, -51, 564, 1197, -1318, -562, 
857, 934, -1024, 611, -849, 660, -566, -124, -594, -587, -442, -994, -454, 789, 492, -410, 
-1285, -297, 251, 855, -409, -554, -596, -318, -1190, 647, -409, -1064, 934, -75, 173, 478, 
-369, 820, 665, 875, -20, 393, -93, 1213, -549, 224, 715, 1295, -384, 411, 667, 219, 
817, -263, -481, 1117, 566, 540, 1156, -425, 661, 862, 994, -718, -380, -620, -931, -805, 
-39, -367, -1029, 294, -957, 334, 660, 642, -339, 437, 84, 697, -1137, -627, -739, -601, 
-208, 242, -623, 120, 374, -442, -1082, 869, 702, 1355, 801, 954, 379, 1190, -86, 1091, 
750, -375, 1014, -188, -254, -735, 1223, -3, 1137, 102, -215, 1298, -287, 1171, -566, 612, 
-168, 969, -486, 593, 832, 450, 32, -581, 985, 553, 218, 1319, 905, 884, 1302, 649, 
-627, 1174, -149, 797, -436, 932, 1301, -463, 347, 778, 282, 228, -698, -173, 284, 1150, 
333, 724, 1353, 431, -1205, 202, -1402, 39, 513, -474, -1385, 12, -1022, -1206, -723, -338, 
-1346, 664, 351, -736, -490, -659, -1025, 208, -742, -263, -770, 168, 300, -577, -495, -1280, 
-607, -434, 378, 397, -330, -382, 584, 1082, -78, 1152, -353, 215, -384, 1182, 227, 176, 
717, 903, 813, 261, -100, -444, -318, 563, 766, -253, 433, 1073, 687, -454, -620, 362, 
-475, -419, -939, -45, -523, 230, -1061, -1113, -558, -23, -489, -434, -389, 561, -750, 226, 
-989, -539, -114, -847, -90, -750, -1355, 287, -1058, 594, 485, -1541, -687, 367, 217, -398, 
-107, 148, -405, 150, 50, -345, 273, 924, 624, -1013, 98, 315, 1174, 153, 198, -204, 
839, -339, -564, 969, 1399, 400, -564, 1021, -543, 701, -825, -1053, 560, 756, -949, -81, 
817, 882, 541, -902, 711, -589, -720, -449, -1089, -425, 308, 89, 780, -367, -503, -892, 
-184, -714, 423, 397, -171, 211, -675, 209, 722, -168, 238, -283, -715, -232, 230, 875, 
-679, 556, 411, 88, 1509, -741, 733, -460, 294, -417, -250, -297, -519, 69, -30, 309, 
-916, 226, -1, 566, 909, 1169, 392, -118, 1059, 461, -115, 1351, 1222, -440, -775, 489, 
1121, 597, 1338, -652, 1242, 150, 75, 774, 674, 390, -9, 703, -671, -566, 1299, -397, 
608, 703, 937, 1054, 1268, -715, -525, -986, -1014, 406, 522, 462, -796, -1169, -1305, 308, 
130, -892, -1057, 33, 604, 729, 369, 376, 152, -1004, 872, -995, -259, 610, 115, -388, 
-593, 741, -1139, -448, 621, 1060, 1376, -362, -674, -477, 1199, 996, -48, 1365, 290, 697, 
883, 705, -227, -93, 1032, 45, 1002, 615, 849, 279, 461, 977, 1365, -6, 718, 339, 
-450, 687, 203, 996, -167, -205, 752, 934, -814, 33, -446, 988, 587, 677, -299, 1076, 
-517, 415, -487, 880, -141, -710, 271, -875, -112, 454, 695, 1023, -605, 1136, 1141, -435, 
-617, -596, -984, 815, 380, -264, -1010, -452, -321, 306, 485, 18, 599, 523, -1115, -1021, 
-978, -519, -1152, 556, -1343, 834, -648, -822, 848, -944, -421, -625, 278, -753, -614, -901, 
387, 303, -733, -743, -239, -635, 674, 185, 380, 426, -1167, -1025, 435, 510, -29, -210, 
-765, -663, 388, 193, -329, -843, 708, -1102, -553, 753, -1085, -187, -1175, -473, 24, 557, 
318, -674, 582, 683, -30, -1414, 257, -786, 264, 298, -373, -426, 570, -875, -833, -892, 
-639, -658, -300, -106, 87, -638, -240, -992, -554, -454, -560, 199, 642, -18, -240, 743, 
-1193, -630, -768, 618, -747, -911, -476, -979, -335, 534, 616, 232, 409, -442, 120, -475, 
503, 212, 322, -1305, -981, -37, -105, 242, -209, 804, 603, 23, 349, 323, 55, -955, 
-239, 815, -1074, 61, 402, 488, -1111, 446, 5, 644, -142, -40, 550, 7, 417, -975, 
115, -1106, 780, -747, -1079, 850, 702, -128, -973, 281, 226, -397, -1376, -1111, -16, 431, 
879, 239, -258, 442, 476, -1130, -840, -545, 934, -592, -1161, -258, -766, -567, -753, -1358, 
7, -355, 530, 231, -889, 524, 499, 1035, 474, -732, -255, -1059, 935, -144, -220, -1011, 
-912, -141, -676, 694, -93, 261, 742, 904, 299, -315, 1014, -129, -1227, 76, -527, 488, 
189, -822, 614, 57, -732, -1161, 659, 294, 838, -322, 766, -630, -555, -1023, -413, -176, 
-1305, -470, 723, -488, 480, -1268, 182, 331, -292, 503, -112, 682, 897, 872, -814, 1005, 
-659, -1029, -473, 257, 730, -380, -1263, 750, 124, -18, 379, -773, 153, -1001, -1186, 213, 
480, 177, 176, -812, -849, 231, -577, 718, 361, 363, 549, -1000, -510, -1097, -338, 398, 
354, -457, -964, -1213, 347, -204, -897, -152, -269, 69, 481, -992, -32, 153, -1060, -357, 
-315, -903, -268, 370, -1204, 101, -316, 478, -1227, -766, 598, -88, -54, -882, -1264, -526, 
18, -203, -316, -306, 607, 279, 196, -609, 269, -1065, 309, 113, 131, -542, -449, 833, 
-118, 128, -1103, 133, 118, 935, -127, -311, 400, 868, 600, 152, 528, 175, 325, -551, 
679, -998, -762, 682, -328, 307, 605, -861, 244, 340, 111, -67, -140, -517, 717, 186, 
348, 937, -993, -828, 337, -877, -45, -1154, 586, 225, 595, 445, -1102, 212, -1028, 712, 
-232, -243, -144, 852, 287, -479, 322, -761, -273, 1115, -242, -1130, 417, 286, -191, 155, 
-1067, -381, -649, -515, -1006, 378, -1228, -495, 643, -483, 738, -611, -927, -396, 769, 206, 
-1118, 711, -929, -889, 648, 269, -214, 260, -919, -1094, -1258, -463, -467, -1184, 344, 563, 
-1102, 267, 613, 758, -201, -253, -729, -1263, -656, -1160, 380, -5, 642, 330, -706, -171, 
293, 275, -1218, -996, -158, -340, -1299, -116, -1002, 446, -61, -644, -1125, -140, -397, 664, 
645, 108, 777, -372, 579, -1092, 790, -701, 993, -683, 454, -1288, -123, -593, -300, 836, 
720, -318, -1010, -352, 582, -610, -1127, -832, -559, 660, 671, -1029, -651, -83, 625, -837, 
473, -617, -1034, -138, -1260, -697, -830, -1059, -517, -550, -273, -1263, 467, -1248, -752, -22, 
287, -1244, 171, 324, -434, -178, -257, 281, -973, -1079, -140, -1213, 171, -1227, 799, 372, 
378, -845, -151, -833, 406, 383, 628, 142, 501, 690, 174, -422, 586, -1124, 133, -1344, 
597, -709, -671, -1211, 791, -685, 262, -707, -1323, 433, 584, 538, 558, 139, 779, -864, 
422, -50, 401, 171, -1001, 560, 854, 499, 1135, -1008, -949, -580, 174, -296, 421, -640, 
278, 147, -879, 193, 583, 46, 219, -531, 570, 532, -574, 312, 279, -940, -791, -244, 
-790, 24, -1265, -680, 122, 202, -623, 304, 477, -1225, -282, -653, -33, 628, 536, 738, 
-1287, 136, 313, -150, -137, 126, 72, 219, -620, 1044, -167, 659, -163, -1047, -620, 466, 
604, 108, 92, 684, 792, -373, -867, 703, 695, -505, -184, 645, -917, 181, 559, 686, 
-773, 295, -722, -324, -1137, -494, -360, 603, 513, 727, -318, 257, 785, 107, -185, 216, 
-550, -235, 316, -1031, 993, 647, 1008, -542, -901, -844, -1200, -546, -544, -392, -579, 90, 
-648, 730, -717, -1097, -987, -86, 914, 437, 934, 1048, 336, 709, -396, -117, -895, -1261, 
-525, -132, 14, -40, -974, 129, 721, 790, 541, 418, -899, -1031, -1022, -745, 270, -17, 
-1126, -746, 109, 815, 365, -610, -678, 1090, 33, 633, 61, -766, -296, -450, 1215, -715, 
-511, -584, 454, -714, 116, -129, 463, 1183, -590, 650, -248, 370, -808, 518, 611, 120, 
848, -717, 1075, -156, 45, 655, -1088, 227, -238, -174, -721, 410, 654, -138, 231, -598, 
-128, -683, 253, -858, -270, -1174, 284, 824, -416, 929, -243, -291, 610, 679, -596, 966, 
-1238, -500, -187, 169, 319, -118, 863, -661, -550, -1140, -1157, -557, -837, -1230, -939, -557, 
639, 207, 639, -642, 288, -1052, -1152, 537, -508, -146, -525, 47, -509, -889, 1017, -169, 
-533, -869, -1072, -448, 868, 63, 237, 675, -446, -710, 632, -44, -1093, -772, 65, 154, 
661, -696, 81, 1055, -621, -495, -84, 394, 324, 431, 453, -380, 554, 772, -446, -893, 
290, -485, 87, -1049, 524, 650, 322, -472, -174, 733, -364, -980, -158, 245, 136, 82, 
-184, -499, -614, -499, -584, -882, -271, -539, -36, 445, -735, 745, 709, -964, -580, -1167, 
141, -299, 408, -276, 622, -855, -1217, -441, -562, 294, 103, -220, 740, -1217, 685, -909, 
-823, 494, -907, -903, 516, -237, -313, 99, 235, -284, -480, 209, -262, 69, -638, 178, 
91, 493, 319, -1113, -306, -1007, -1326, -317, -91, -513, 292, -111, -935, 686, -857, -684, 
214, -1129, 291, -871, 725, 135, 87, -159, -629, 826, -744, -789, 540, -564, 252, 265, 
141, -219, 206, -864, -679, -866, 678, -1052, 3, -299, -1167, 45, -552, -609, -663, 123, 
495, 95, -1380, 40, 247, 983, -597, 210, 889, 939, -693, -81, -1053, -929, -466, -805, 
497, 657, -709, 715, -25, 900, 344, 494, -1026, -371, 1165, -242, -23, 341, 151, 435, 
-1180, -1724, -1131, -596, -574, 47, -541, -1047, -926, -1525, -262, -318, -1051, -1015, 211, -192, 
-514, -439, -747, -551, -1171, -1531, -735, -904, -1355, -100, -931, -1200, -781, -1524, -1281, -395, 
-536, -437, -2054, -367, -1349, -950, -255, -48, -827, -1150, -541, -2061, -1279, -1068, -464, -286, 
-1385, -1828, -2274, -706, -550, -645, -1988, -992, -252, -1493, -1171, -1016, -613, -86, -1081, 262, 
-731, -68, -187, -961, -1501, -612, 183, 342, -1621, 108, -84, -611, -1418, 452, -1291, -1365, 
-1017, -1568, 469, 387, -1409, 21, -1061, -499, -188, 189, -1052, -357, -1710, -827, -863, -351, 
-7, 179, 240, 95, -1665, -458, -622, 72, -954, 32, -634, -567, -964, 173, 231, -420, 
-769, -1337, -316, 236, -1004, -981, -44, -577, 198, 1448, 230, 930, -48, 761, 1224, 1008, 
861, 1327, -442, 940, -52, 864, -358, -302, 478, -70, -604, 1253, 837, -529, 797, 1224, 
1353, 464, -128, 1216, 1041, 954, 633, -77, 189, 667, -428, 189, -294, -781, -1094, -989, 
-132, -885, -382, -1085, 197, -639, -39, -669, -787, 332, -789, -522, -1300, -1119, -1041, -562, 
694, -480, 138, -404, -1310, -1073, -1401, -2115, -117, -103, -1699, -1538, -903, -756, -1295, -721, 
-1010, -1536, -414, -1558, -1834, -662, -744, -1400, -908, -671, -2029, -1203, -1351, -1696, -1241, -1198, 
-1247, 40, -588, 899, -293, 1135, 560, -784, 121, 1421, -407, 1159, 568, -68, -17, 957, 
1075, 690, -381, -452, -462, -1, -630, -88, 411, 758, -343, -370, -538, 598, 638, -266, 
-427, 1072, 1275, -479, 521, 1089, 971, -310, 809, 566, 276, -767, 1243, 1058, -187, 773, 
488, 1323, -197, 843, 541, 1131, 229, 217, 1390, 1016, 1105, 164, 1106, 79, -1261, -693, 
-372, -1212, 182, -274, 862, 656, 405, 149, 26, -880, 721, -513, -639, 261, -8, 576, 
150, -861, -420, -714, 740, -1053, 714, -1070, 366, -500, 378, 803, -275, 651, 984, -500, 
1094, 1050, -272, 1327, 14, 157, -196, 1333, 1130, 651, -70, 1397, 666, -257, -63, 534, 
1391, 810, -59, -138, 1052, -459, 989, 1127, 317, -470, -794, -52, -638, 136, -1121, 610, 
680, -445, -656, 156, 1400, -751, -156, -336, 1105, -484, 1207, -246, 580, -1045, -203, -761, 
511, 571, -981, 924, 702, -4, -820, -145, 195, 91, -562, -203, 883, 306, 120, -254, 
216, 793, 492, 493, -235, 597, -115, 1124, 700, 948, 246, -179, 930, 795, 147, 1189, 
-428, 997, 349, -666, -619, 160, 1711, -317, -315, -322, 790, 223, 1623, 1205, 762, 1064, 
1024, 649, 177, 1339, 1217, 257, -169, 1462, 666, 1404, -141, 1323, 653, 878, 1258, 236, 
128, -263, 565, -276, 141, -114, 1196, 1135, 1019, -640, 613, 267, 1105, 4, 12, 313, 
-174, -294, -295, -22, -75, -301, 114, 997, -395, -25, -433, 524, 1140, 175, 438, 1218, 
501, -556, -1054, 827, 645, 660, 681, 712, -1110, 603, -975, 140, -148, -891, -191, -321, 
-282, -476, -931, -650, -657, -1375, 169, -764, 318, -986, 946, 324, 659, -240, -289, 584, 
19, 1261, 351, 634, 834, 504, 747, 1586, -270, 1593, 1019, 714, 1679, 871, 949, 1043, 
553, 980, 1355, 1119, 194, 704, 985, 1610, 1250, 1122, 447, -195, -471, 1298, -1417, 917, 
327, -65, -199, -327, -569, 121, -987, 227, 385, -442, -206, -1463, -1541, 655, -709, -951, 
-1221, 370, 782, -786, -605, 831, 38, -840, -1017, 114, -809, -1094, 383, -807, 370, -609, 
653, 984, 295, -803, 129, -971, -561, 410, -930, -1062, 517, 297, 364, 768, 760, 276, 
832, 129, 921, 443, -313, -473, 237, 757, 638, -883, -88, -276, -796, -1037, 385, -973, 
-552, 231, 326, -619, -319, 468, 226, -665, 608, -874, 773, 252, -1346, 136, -703, 322, 
349, -971, -199, -641, -472, -358, 290, 928, -1024, 247, 423, 700, 1073, -184, -460, 277, 
-306, 1012, 1064, 796, 129, -398, 887, 935, 1249, 934, -110, 450, 424, 826, -306, -228, 
110, 262, 1353, 1031, 121, 336, 270, -286, 473, 562, -391, -642, -729, 1029, 331, -321, 
-499, 1244, 496, 45, 1287, 168, 1166, -757, 626, -386, 181, 1126, 468, 903, -8, -365, 
663, -375, 1111, 1473, -1220, -789, -2167, -2204, -552, -1547, -413, -1660, -282, -1873, -1397, -640, 
-1952, -1094, -1613, -1450, -1443, -1259, -1490, -285, -1856, -2081, -1664, -465, -703, -1143, -1231, -1990, 
-1843, 334, -324, -111, -38, -565, -141, -238, 443, 61, -845, -39, -378, 891, 167, 582, 
634, -586, -376, 801, 1061, -516, -31, -290, 968, 789, -2, 619, 700, 549, -88, 94, 
-1641, -1073, -202, -15, -991, -1113, 356, -552, -1481, -599, -39, -1367, -316, -830, -1229, -1044, 
-607, -82, -697, -387, -680, -1068, -2, -757, -1714, -532, -512, -58, 123, -1954, -1653, 894, 
-771, 20, -55, -360, 96, 980, 328, 394, -392, 603, 377, 1357, -412, 555, 770, 536, 
271, 725, 286, 467, 1441, -590, 328, 95, 463, 1058, 1049, 507, 239, -1390, -1416, -471, 
302, -1104, -820, -205, -1127, -1023, -768, 301, -877, -344, -1101, -33, -782, -903, -1340, -300, 
-197, -1449, 163, -1646, -657, -950, -937, -844, -226, -13, -499, 817, -813, 944, 718, 30, 
881, 313, 519, -486, -146, 409, 1162, 104, -422, 676, -561, -618, -44, 875, 1264, -160, 
-430, 575, 669, -148, 198, 581, -972, -973, 74, 626, 722, 1190, -22, 705, 799, -223, 
1103, 107, 633, -131, 1230, -156, 1100, 716, -119, 1372, -193, 907, -444, -729, 242, 803, 
-70, 32, 1186, 886, 811, 787, -1609, 196, -590, 392, -457, -564, -1187, -1252, -169, -720, 
-559, 480, -60, -1008, -865, -486, 235, 483, -941, -1307, -622, -1018, -309, -1658, -1148, -532, 
-205, 513, -756, -1503, 115, -761, 256, -17, 812, 225, 1326, 883, 460, 982, 201, 443, 
-96, -439, -86, 1433, 1097, -126, 249, 1152, -177, 36, -239, 878, 1203, 1070, -166, 993, 
797, 72, -538, 1019, -843, 1103, -52, 637, 1001, -258, -535, 530, -28, -833, 110, -654, 
553, -844, 496, 504, -773, -1022, 387, 412, -483, 606, -786, -822, -485, 462, 991, -403, 
-188, -445, 388, 712, -826, 745, -122, 192, 89, 175, -617, 1, -608, -170, 442, 626, 
721, 263, 233, -402, -287, 75, -574, -773, -189, -541, -673, 398, -137, 450, 427, -87, 
71, 827, 347, -350, -307, -514, -159, 118, -976, -241, 428, 550, 787, 325, 317, 670, 
-106, -806, -744, 76, 946, -226, -1100, -564, -822, 697, -831, -450, -1054, 88, 745, -856, 
-910, 758, -260, 497, -910, -279, -682, 156, 979, 502, -441, 871, 779, 601, -1041, 238, 
291, 904, -595, -1237, 975, -815, -989, -287, -391, -103, -362, -815, 791, -85, -736, -583, 
-684, -271, -533, -568, 817, 28, -958, -875, 957, 194, 855, 605, -987, -975, -666, 432, 
409, 36, -622, -547, -103, 612, 437, -691, -333, -542, -544, -345, -214, -790, -1123, -1133, 
697, -739, -7, -265, -982, -207, 496, -222, -866, -20, -1214, 474, -445, -610, 668, 743, 
193, 595, 519, 860, 838, 109, -815, -824, 616, -3, -589, 644, -427, 885, -667, -592, 
380, 634, -38, -652, -808, 722, -970, -1216, -1036, -96, -1004, 926, -854, 722, 630, 84, 
-288, -907, -953, -55, -581, -1006, -756, -567, -697, -359, -761, -45, -1099, -346, -204, 904, 
-717, 526, -95, -286, 75, -289, -751, -939, 659, 254, -150, -846, 483, 827, -740, 491, 
-15, -728, 274, 295, -938, 639, 858, 44, -51, -963, -1224, -136, -965, -950, -828, 874, 
-512, -620, -1034, -799, -865, 23, 438, 84, 230, -643, -848, -25, 812, 106, -546, 901, 
-577, -201, -830, -704, 391, 81, -1023, -832, -252, -271, -388, -284, -464, 696, -137, 259, 
774, -1031, 433, -1016, -1208, 663, -151, -1232, 234, 159, -749, 166, -504, -1235, -490, -760, 
758, -867, 123, 294, 613, 503, 50, -872, 513, -521, 476, 121, -751, -805, 279, 35, 
81, 743, -349, -429, -982, -1031, 842, 187, 1050, 351, -24, -390, 552, -839, -487, -800, 
-437, -251, 841, -284, -1044, -680, -280, -426, -942, -500, -1149, -740, -697, -788, 980, 198, 
182, 53, 650, -310, -253, -828, -1038, -20, 93, -280, -301, -447, -430, -524, 586, -800, 
69, -958, 35, 48, -777, -72, -1014, 263, 482, -774, -868, 711, 785, 613, -1128, -628, 
632, 286, 706, -1134, -238, -681, 451, -381, -324, -996, 311, 33, -449, 814, -484, -283, 
307, -1188, 59, -903, -367, 326, -510, -976, -743, 275, -631, 578, 663, 390, 153, -620, 
746, 111, 279, 391, -427, 134, -167, -1232, -1095, -817, -9, -32, -981, 330, -1036, 161, 
-376, 174, 79, -163, -929, 214, -990, -431, 640, -670, 231, 735, -437, -951, -177, 399, 
-1161, -195, 347, -131, 682, 511, -128, 539, -1091, -935, 308, 48, 310, -1076, -584, -594, 
-197, 83, -274, 701, -33, -146, -1237, -848, -174, 519, -680, -336, 385, -117, -502, 852, 
147, -324, 891, -580, -659, -446, 633, 629, 273, -298, -507, -787, 231, -407, 127, 215, 
-1135, -954, -568, 693, -11, 314, 301, 32, -49, 278, -619, -1173, -356, 822, 11, -298, 
702, 488, -138, 148, -429, -745, 385, 342, 203, 669, -991, -1141, -23, -895, -619, 603, 
421, -653, -767, 142, -1147, -284, -248, -763, 824, -572, 488, -466, 276, -972, -583, 823, 
635, 480, -61, 200, -704, -450, 43, 282, -898, 879, 176, -139, 988, -1081, 483, -410, 
-513, -488, 251, -1026, -1015, 581, -582, 329, 154, -189, -768, 566, -67, 448, -527, -564, 
-100, -1192, -1227, -445, -509, -125, -1214, 290, -626, 728, 702, 849, 187, 292, 1, -1061, 
885, -500, -796, 309, -763, 279, -169, 14, 960, 314, -981, -739, -480, -1034, -209, -879, 
51, -194, 186, -139, -784, 814, -98, -111, 45, -594, 766, -428, -1175, 528, -665, 256, 
-165, -982, -447, 383, -1113, 941, 84, -1032, 512, -592, 182, 360, -642, 785, -865, -683, 
857, 465, -1125, -1140, -884, -964, 873, 874, 634, -308, 480, -323, -358, -837, 704, -570, 
-4, 727, 840, -588, -198, -101, -488, 739, 56, -245, -487, -49, -350, 517, 738, -870, 
369, 173, -918, -895, -773, -258, -810, 483, -17, 700, -596, 438, 277, 817, 276, -733, 
760, -392, 339, -953, -601, 877, 73, 670, -678, 62, 299, 359, 1029, 14, 103, -944, 
202, 767, 595, 180, 829, 261, 570, -498, -572, -316, -1188, 924, -1109, -628, -80, -338, 
341, -746, 752, 662, -111, 741, -916, 819, 171, 144, 698, -139, -238, -628, 158, -107, 
108, 350, 652, 375, 1017, -542, -407, -1060, -845, -599, -1086, -747, -1093, 441, -800, -1020, 
483, -564, -534, 670, 374, 445, 42, 697, -482, 392, -987, -600, -907, 498, -1006, 61, 
833, 898, -72, 511, -437, 845, -123, -1035, -724, 93, 166, -78, 802, -790, -703, -559, 
261, -1237, -929, -1226, -500, 245, -741, -685, 206, -20, -900, -606, 591, 189, 412, 52, 
-613, 257, 488, -1214, 432, 332, -279, 535, -539, -901, 450, -351, -968, 212, -507, -1158, 
-764, -827, -1164, -158, -844, -790, -870, -462, -75, -412, -814, -626, -490, -350, -446, 824, 
-1061, -193, 188, -229, -1203, -1176, -10, 227, -1094, -315, -913, -1135, 469, -324, 6, -60, 
-328, -652, -389, 834, 841, 710, -694, -347, -723, -1160, 668, -482, -66, 262, 748, -225, 
311, -852, 339, 791, -869, -197, -401, -51, 817, -721, -166, -706, -711, 241, -216, -775, 
-956, -717, 622, -1080, -955, -1192, 225, -390, -1101, 186, 825, -252, -136, -522, 776, -984, 
-453, -604, -835, -993, 247, 694, -947, 643, 1030, 731, 490, 15, -298, 504, 461, 797, 
-677, -112, -423, 940, -686, -391, 825, -704, -661, -20, -834, -415, 757, 782, -459, -11, 
-872, -561, -62, 103, -660, 167, -407, -414, -346, -782, 686, 13, -967, 188, 726, 669, 
112, 35, -990, 552, -757, -64, -736, -953, -529, 382, -1050, 540, 457, -727, -160, -1111, 
231, -350, 663, -1181, 458, -193, 34, -1004, -467, -448, 46, 759, -594, -384, 801, -781, 
-11, -825, 120, -55, 110, 744, -949, -1017, -1196, -196, -223, 662, -1191, -254, -547, 71, 
425, -440, 394, 368, 417, -303, -121, -337, -818, 335, -320, -353, -544, 232, -83, -1189, 
725, -959, -230, -143, 767, -604, -304, 790, -822, -262, 451, -1081, 382, -936, -716, -1026, 
-844, -693, 387, 295, -244, 336, -66, -950, 475, 118, 641, -800, -69, 719, -535, 183, 
-705, 186, -495, -673, 622, -95, 782, 505, -904, 121, 172, -1101, -499, 626, -649, -667, 
-85, -940, -365, -653, -1131, -595, -1167, -761, 48, 816, 580, 108, -51, 213, -456, 485, 
843, -170, 344, -1036, -266, -401, -796, 303, 594, -1190, 79, -623, 515, -112, -601, -251, 
435, -859, 129, -1085, 504, -183, -80, 628, -149, 615, 496, -426, -1281, -672, -292, -690, 
381, 31, -586, 572, -396, -615, 640, 297, 382, 762, -533, -1013, -1188, 68, 343, -415, 
-1157, -351, 626, -201, -407, -1020, 449, 526, -1146, -911, -797, 108, -432, 157, 142, -1057, 
866, -1132, -367, -877, -5, -1070, -466, -162, 1176, -221, 1025, 151, -879, -1202, -305, -668, 
474, -788, -732, -482, 1047, 264, -1182, -515, 213, -226, -127, -318, -388, -538, -365, 105, 
771, -250, -810, 685, -114, 58, 536, -386, -644, -1192, 816, -642, 370, -1249, 520, -1082, 
291, 805, 425, -1159, 108, -292, -1006, -717, -1198, -837, 70, 271, 823, 338, -219, 182, 
74, -37, 278, -1080, 451, -1055, -1169, 334, -300, -916, 351, -389, -38, -1253, -636, 673, 
-521, 827, -1249, -451, 424, -708, 840, 167, -609, -438, 200, 50, -1148, 133, 583, -581, 
-1061, -212, 617, -7, -286, 874, 28, -389, 372, -551, -1310, 411, -145, -600, -312, -355, 
242, -921, -634, -224, -933, 461, 200, -255, 740, -1186, -167, 599, -1034, 299, 649, -527, 
-199, -518, -725, -674, 222, -81, -881, 323, -1064, -518, 662, 804, 427, 729, 265, 1035, 
-528, 504, 524, -1055, -187, -578, 711, -267, 513, -212, 459, 574, 704, -389, -474, -258, 
-750, 598, 184, 63, -180, 375, -433, 122, -412, -116, 596, -559, -101, 437, -755, -209, 
-470, -1246, -421, -1086, -82, -478, 41, 683, -308, -312, -682, 65, -322, 106, -470, 353, 
