#ifndef FC2_WEIGHT_H
#define FC2_WEIGHT_H

short fc2_weight[] = {
4095, 3541, 2850, -1034, -3529, 2864, -2724, 3530, 3451, -1390, -1536, -4106, -2101, -1803, -1774, 91, 
-925, 3635, 825, -1125, -678, -3115, 2665, -4814, 129, -4324, 4086, 1194, 1950, 1852, 4237, 3894, 
-2547, 3522, -355, 3023, -3628, 1520, -99, -1370, -604, 2641, 4015, -445, 556, -1654, 2390, -1345, 
2384, 584, 1878, 1685, -4434, 3256, -3895, -3123, 19, -696, 1110, -2844, -964, 3879, -1793, -2317, 
-3717, 3265, -867, 3050, 1022, -1665, -478, -3528, -288, -2561, 1631, -2044, 2522, 2892, -427, -2638, 
1764, -1624, 2757, -63, -463, 3521, -305, -578, 1919, -2618, -3356, -1498, -3221, -2945, 4409, 131, 
-2566, -3299, 1175, -3546, 3756, -3949, 301, 490, 3491, -4386, 1513, 2757, 569, 2814, -2138, -1213, 
-3835, -2347, -2655, 386, -4462, -2333, -1254, -2647, 1816, -3890, 1175, -3091, 2665, 270, -374, 1645, 
379, -755, 4122, -981, -1945, 4212, -317, -2936, 913, 1833, 2833, 3486, -3585, 818, -2345, 2776, 
-3122, -3509, -3267, -25, 2321, 999, -483, 3785, 1059, 1113, 10, -2437, 1985, 2918, -3902, -4926, 
1592, -1208, -3311, -1719, 3892, -1194, 2675, -187, 3385, 1945, 109, 1945, -858, 3667, -105, 3866, 
1054, -2765, -1551, -4441, -1816, -3260, 3002, 1419, 694, 3986, -503, -1338, 3193, -5252, 3067, -3763, 
1476, 890, 4064, -12, -4007, -2440, 1813, 2756, 683, 3012, -2591, -413, 2887, 3679, -4047, 286, 
-2734, -2021, -184, -2153, -1475, -1873, -97, 4185, 3490, 3872, -3771, -1786, -59, -4302, -2794, -3425, 
1780, 4496, -3536, 4444, -4076, 30, -1945, 3829, -3530, 843, -4292, -4172, -4272, -3405, -1327, -2586, 
-3371, 793, -3216, -472, -208, -3676, 1206, -2678, -2280, -1468, -1763, 473, -2110, 1947, -3431, -4225, 

};

#endif // FC2_WEIGHT_H
