#ifndef FC1_WEIGHT_H
#define FC1_WEIGHT_H

static const float fc1_weight[] = {
0.171570f, 0.085437f, -0.054183f, 0.029274f, 0.002552f, 0.055919f, 0.009664f, -0.048316f, 
-0.061153f, -0.021490f, -0.090613f, 0.036830f, -0.092869f, 0.109101f, -0.027919f, -0.080616f, 
0.089789f, -0.086713f, -0.054076f, -0.068390f, -0.021775f, 0.109825f, -0.080877f, -0.036270f, 
-0.038406f, -0.037406f, -0.047165f, -0.052374f, -0.073067f, -0.074324f, 0.035817f, 0.037983f, 
-0.011869f, -0.090880f, -0.036165f, 0.072911f, -0.037946f, -0.013076f, 0.037785f, -0.108685f, 
-0.062135f, -0.024284f, -0.072481f, -0.061904f, 0.101083f, 0.070323f, 0.054490f, 0.013556f, 
0.012256f, -0.024268f, -0.050156f, -0.116677f, 0.085364f, -0.062487f, -0.053780f, 0.058002f, 
0.016346f, -0.042168f, -0.031445f, 0.002964f, 0.110994f, -0.032168f, -0.050728f, 0.051857f, 
0.052474f, 0.039018f, -0.049999f, 0.032206f, -0.019184f, 0.102973f, -0.040187f, -0.017429f, 
-0.011059f, -0.053590f, 0.000199f, -0.037101f, -0.071598f, -0.026679f, 0.020928f, 0.071207f, 
-0.013347f, -0.015738f, 0.055595f, -0.018149f, 0.062538f, 0.054284f, -0.078670f, 0.071100f, 
0.077186f, 0.053277f, -0.126202f, 0.064293f, -0.055133f, -0.082542f, 0.007712f, 0.095372f, 
-0.042579f, 0.014193f, 0.050768f, -0.010372f, 0.047040f, 0.040468f, 0.071858f, -0.057174f, 
-0.046052f, -0.012366f, -0.051726f, 0.047686f, -0.097861f, -0.044967f, -0.095547f, 0.063761f, 
-0.098146f, 0.075027f, -0.004576f, 0.071262f, -0.019294f, 0.079221f, 0.027231f, 0.122736f, 
0.085741f, 0.001714f, 0.071494f, 0.084755f, 0.102241f, 0.025430f, 0.043780f, 0.021117f, 
0.113128f, 0.131055f, 0.005866f, 0.017523f, -0.073306f, 0.017039f, -0.049616f, -0.009839f, 
-0.006620f, 0.077653f, 0.012100f, 0.065744f, 0.022934f, 0.003455f, 0.108375f, -0.059886f, 
-0.001249f, 0.115565f, -0.053771f, -0.009459f, -0.056632f, 0.025373f, 0.101773f, 0.138188f, 
0.084713f, -0.008234f, 0.139070f, 0.010731f, 0.132736f, 0.020671f, 0.070809f, -0.015645f, 
0.116934f, 0.013542f, -0.055411f, 0.045266f, 0.133285f, 0.075647f, 0.086881f, 0.069058f, 
0.136844f, 0.022224f, -0.043736f, 0.090574f, 0.082907f, 0.006025f, 0.009954f, 0.032094f, 
-0.056005f, -0.037362f, -0.055525f, 0.010346f, 0.196245f, -0.040322f, -0.014823f, 0.035379f, 
0.084645f, -0.009148f, 0.072384f, -0.078854f, -0.065706f, -0.008415f, 0.020087f, 0.081042f, 
0.046660f, 0.083143f, 0.008235f, 0.023273f, 0.014694f, -0.086110f, -0.087921f, -0.062087f, 
-0.062653f, -0.027881f, 0.078632f, -0.050228f, 0.072017f, -0.056605f, -0.037510f, 0.084492f, 
0.054544f, 0.072114f, -0.051781f, 0.126462f, 0.018421f, 0.029582f, 0.092279f, 0.009257f, 
-0.068698f, -0.012397f, 0.126575f, -0.039923f, 0.074609f, -0.050637f, 0.093374f, 0.051726f, 
-0.034739f, 0.027385f, -0.054433f, 0.059468f, -0.036274f, 0.126719f, 0.132637f, -0.043027f, 
-0.033407f, 0.029131f, -0.045650f, 0.031742f, 0.131264f, -0.005802f, 0.106716f, 0.074692f, 
-0.004068f, -0.070109f, -0.022007f, -0.023262f, 0.025965f, 0.034204f, 0.013636f, -0.063523f, 
0.046466f, 0.030965f, -0.045284f, -0.024429f, -0.115445f, -0.000058f, -0.098798f, -0.001729f, 
-0.074922f, -0.116450f, -0.123834f, -0.118331f, -0.083326f, -0.023524f, -0.118926f, -0.012745f, 
0.023508f, -0.096536f, -0.006239f, -0.091693f, -0.050400f, 0.027563f, -0.044238f, -0.025475f, 
0.104204f, 0.039773f, 0.029788f, 0.065749f, 0.109279f, 0.110401f, 0.122660f, -0.030972f, 
0.061998f, 0.117646f, 0.126148f, 0.100603f, 0.047805f, -0.013619f, 0.007288f, -0.022655f, 
-0.004203f, 0.107545f, 0.097028f, 0.013702f, 0.014678f, -0.069141f, 0.067225f, 0.054306f, 
0.122577f, 0.109957f, 0.017917f, 0.006445f, -0.070888f, 0.048218f, 0.035300f, 0.034402f, 
0.038285f, 0.028436f, -0.151538f, -0.027808f, -0.145242f, -0.018469f, -0.128034f, 0.039916f, 
-0.022632f, -0.038069f, -0.105392f, -0.086903f, -0.039820f, -0.097861f, -0.078057f, -0.124487f, 
-0.010864f, -0.032317f, -0.016701f, -0.140186f, -0.072152f, -0.149579f, -0.106337f, -0.063104f, 
-0.131708f, -0.014121f, 0.014298f, -0.001942f, 0.019427f, -0.067441f, 0.063100f, -0.092136f, 
-0.024668f, 0.042807f, 0.007718f, -0.091328f, 0.073005f, 0.086515f, 0.083974f, 0.082087f, 
0.052957f, 0.028524f, -0.027625f, -0.065864f, 0.023005f, -0.021042f, -0.061403f, -0.010894f, 
-0.014276f, 0.031911f, -0.093956f, 0.101324f, 0.008849f, -0.093109f, 0.052262f, -0.120775f, 
-0.082817f, -0.038577f, 0.086559f, 0.114594f, 0.163291f, 0.067886f, 0.007514f, 0.125324f, 
-0.032806f, -0.002264f, 0.039668f, 0.096137f, -0.020795f, 0.072656f, -0.012041f, 0.150969f, 
0.043468f, 0.021134f, 0.168322f, 0.047111f, 0.092554f, 0.056754f, 0.105504f, -0.029139f, 
0.055472f, 0.079488f, 0.062200f, 0.065371f, 0.101717f, -0.051086f, -0.055325f, -0.100273f, 
-0.011997f, -0.096195f, 0.033076f, -0.151376f, -0.148679f, -0.030376f, -0.144596f, -0.068722f, 
-0.078664f, -0.042435f, -0.103604f, -0.041972f, -0.066469f, -0.116505f, -0.114352f, -0.153976f, 
-0.088955f, -0.074357f, -0.087502f, -0.074515f, -0.084824f, 0.005942f, -0.140215f, -0.084816f, 
-0.080407f, -0.172402f, -0.177387f, -0.045751f, 0.005033f, -0.112030f, 0.046309f, -0.046113f, 
-0.043284f, 0.062780f, 0.014152f, -0.032590f, 0.008690f, -0.010555f, -0.002450f, 0.002987f, 
-0.131760f, 0.031855f, -0.012128f, 0.048478f, -0.022452f, -0.086513f, 0.002668f, 0.080685f, 
-0.027805f, 0.012180f, -0.102263f, 0.000866f, -0.009386f, 0.003244f, -0.039735f, -0.073886f, 
-0.086853f, -0.094664f, 0.169394f, -0.001970f, -0.011655f, 0.008406f, -0.060566f, 0.075407f, 
-0.111113f, -0.090930f, -0.124037f, 0.057417f, -0.131501f, -0.061062f, 0.048720f, 0.001617f, 
-0.131702f, 0.078991f, 0.004868f, 0.021713f, 0.011288f, 0.071806f, -0.041362f, -0.102318f, 
-0.106933f, -0.032640f, 0.003568f, -0.088777f, -0.058613f, 0.082650f, -0.113792f, 0.015025f, 
0.053495f, 0.006610f, -0.025026f, -0.018958f, -0.069862f, 0.013061f, 0.054568f, 0.023317f, 
-0.049787f, -0.041847f, 0.029792f, 0.007273f, -0.039567f, -0.096004f, 0.005832f, -0.095015f, 
-0.008288f, -0.007054f, 0.019533f, -0.096228f, -0.034144f, -0.020565f, -0.035649f, -0.083726f, 
0.024447f, 0.022454f, 0.052720f, 0.084561f, -0.109835f, 0.130081f, -0.032913f, 0.070203f, 
-0.056124f, -0.074981f, 0.006274f, 0.012587f, -0.068096f, -0.031922f, -0.003103f, 0.041781f, 
-0.054105f, -0.063272f, 0.074792f, 0.042553f, -0.049276f, -0.053342f, -0.009912f, -0.058991f, 
0.077501f, -0.064750f, 0.022163f, 0.040522f, -0.050519f, -0.011692f, 0.001718f, 0.015806f, 
0.096067f, 0.087858f, -0.059094f, 0.092917f, -0.050389f, -0.039121f, 0.122991f, -0.004901f, 
0.106969f, 0.067735f, 0.009949f, -0.035534f, 0.023488f, 0.130726f, 0.055999f, 0.035860f, 
0.137964f, 0.062782f, 0.151758f, -0.021998f, -0.002472f, 0.058397f, -0.045276f, 0.135408f, 
0.151899f, 0.063975f, 0.140478f, 0.023028f, -0.054553f, 0.040792f, 0.033674f, 0.120973f, 
0.129127f, -0.000879f, -0.051587f, 0.121503f, 0.003235f, -0.056653f, 0.100923f, 0.025346f, 
0.128044f, -0.021250f, -0.022248f, -0.073833f, 0.094150f, 0.041829f, -0.054260f, -0.005474f, 
0.025070f, 0.088401f, 0.133811f, 0.115727f, 0.064635f, 0.003402f, 0.020585f, 0.022811f, 
0.107113f, 0.042436f, -0.069330f, 0.069129f, -0.042559f, 0.053595f, -0.035115f, 0.002456f, 
-0.082899f, 0.047130f, -0.011804f, -0.117224f, -0.019860f, -0.057465f, -0.034827f, -0.019857f, 
-0.102856f, -0.023523f, -0.002004f, -0.026282f, -0.069665f, -0.032606f, -0.048621f, 0.000136f, 
0.006637f, -0.056116f, -0.060608f, 0.021517f, 0.010534f, -0.049808f, 0.025492f, -0.057420f, 
0.069794f, 0.007870f, -0.087911f, 0.039444f, -0.070630f, -0.035006f, 0.214546f, -0.010665f, 
0.023786f, -0.104416f, -0.059824f, 0.062921f, -0.064164f, -0.050308f, -0.133639f, 0.022792f, 
0.015920f, -0.097239f, -0.037407f, 0.002394f, -0.112181f, 0.019100f, -0.020823f, -0.042720f, 
-0.039227f, -0.102133f, 0.033296f, -0.030305f, 0.011699f, 0.043247f, 0.006310f, -0.070758f, 
-0.062376f, -0.105619f, 0.028054f, -0.024890f, 0.020864f, -0.076573f, 0.000583f, -0.090820f, 
-0.024399f, -0.089424f, -0.052804f, -0.065317f, -0.054720f, -0.094699f, -0.007454f, 0.066452f, 
0.014800f, -0.007097f, 0.022614f, 0.027872f, -0.004645f, 0.034000f, 0.025239f, 0.029114f, 
-0.043110f, 0.009496f, -0.114916f, 0.071691f, -0.018346f, 0.068238f, -0.042968f, 0.029970f, 
0.076901f, 0.044448f, 0.000997f, 0.082833f, 0.010064f, 0.019694f, -0.012510f, 0.085177f, 
-0.093760f, -0.029662f, -0.051470f, 0.082991f, 0.060669f, 0.106528f, -0.086490f, -0.074276f, 
0.010275f, 0.095229f, -0.096149f, 0.075273f, -0.076285f, 0.095179f, 0.029841f, -0.084814f, 
0.049398f, -0.081878f, -0.095882f, -0.004425f, 0.015711f, 0.026675f, 0.095893f, -0.089034f, 
-0.052870f, -0.076068f, 0.055496f, 0.083067f, -0.015331f, -0.117459f, -0.014898f, 0.095506f, 
-0.117040f, 0.059353f, -0.015337f, -0.100663f, 0.071578f, -0.077769f, -0.028546f, 0.083775f, 
-0.002077f, -0.038308f, -0.016000f, -0.044167f, -0.052514f, 0.026737f, 0.018785f, -0.115890f, 
-0.023488f, -0.102240f, -0.118901f, -0.022869f, -0.023527f, -0.059587f, -0.045678f, -0.016256f, 
-0.057434f, 0.061898f, 0.039002f, -0.058746f, 0.002162f, 0.030334f, 0.033032f, -0.016062f, 
-0.016149f, -0.039430f, 0.046917f, 0.026473f, -0.012501f, 0.010453f, -0.093505f, 0.097342f, 
-0.084099f, -0.048862f, 0.075482f, 0.039416f, 0.026949f, -0.061460f, 0.091160f, 0.059731f, 
-0.092875f, -0.011545f, -0.098430f, -0.033714f, -0.031726f, 0.049070f, 0.027991f, 0.043833f, 
-0.047008f, -0.058944f, -0.095922f, 0.070437f, -0.044450f, -0.010255f, -0.018159f, 0.036928f, 
0.033569f, 0.070763f, -0.092973f, 0.029469f, -0.030493f, -0.033883f, -0.035277f, -0.091561f, 
0.038480f, 0.046825f, 0.054676f, 0.001421f, -0.091382f, -0.004461f, 0.035430f, 0.012859f, 
0.013503f, 0.059411f, -0.089973f, -0.026871f, 0.114196f, 0.008663f, -0.039640f, -0.059638f, 
0.066950f, 0.026605f, 0.060230f, -0.010935f, -0.003298f, 0.017012f, 0.007281f, -0.031786f, 
-0.053206f, -0.052726f, 0.084519f, -0.064519f, 0.115643f, 0.050523f, -0.040300f, -0.061856f, 
0.091257f, 0.082217f, 0.084929f, 0.126419f, 0.103556f, -0.070241f, 0.004595f, 0.098681f, 
-0.041339f, 0.131080f, 0.056865f, 0.014443f, 0.036572f, -0.022110f, 0.004220f, 0.083415f, 
0.120856f, -0.045356f, 0.045272f, 0.113522f, 0.146884f, 0.123382f, 0.134685f, 0.075204f, 
-0.030895f, -0.012201f, 0.076428f, 0.102563f, -0.042925f, -0.020577f, 0.039937f, 0.116023f, 
0.130492f, 0.159049f, 0.032416f, 0.106242f, 0.058738f, 0.100778f, 0.035741f, 0.046498f, 
0.073313f, -0.037668f, 0.011222f, -0.103229f, 0.040311f, 0.083215f, 0.077699f, -0.030766f, 
-0.068379f, 0.050980f, 0.067251f, -0.085026f, -0.005361f, 0.005909f, -0.064508f, -0.079590f, 
-0.026692f, -0.062939f, 0.016948f, 0.029875f, 0.012879f, 0.051467f, 0.007359f, -0.075372f, 
-0.063791f, 0.014557f, 0.005746f, 0.033546f, -0.024730f, 0.045337f, -0.085256f, -0.041218f, 
-0.073560f, -0.023842f, 0.056334f, -0.041540f, 0.102032f, 0.070206f, 0.056119f, 0.029658f, 
-0.075957f, -0.100788f, 0.028481f, 0.052270f, -0.035236f, 0.058674f, 0.029574f, 0.009196f, 
0.004622f, 0.031110f, 0.057867f, 0.015248f, 0.035217f, 0.056339f, -0.002949f, 0.053445f, 
0.018048f, 0.124100f, 0.113962f, 0.044927f, 0.009938f, 0.022022f, 0.086125f, 0.018363f, 
0.066861f, 0.033055f, 0.027730f, -0.015131f, 0.106750f, 0.052236f, -0.035342f, 0.092941f, 
-0.050271f, 0.129245f, 0.137378f, -0.027217f, 0.137959f, 0.053806f, -0.017077f, 0.125051f, 
0.076125f, 0.121089f, 0.056329f, 0.025125f, 0.140124f, 0.128434f, 0.045949f, 0.113287f, 
0.040215f, -0.060785f, 0.123184f, 0.066765f, 0.127353f, 0.048388f, 0.028015f, -0.059469f, 
0.070595f, -0.025390f, 0.018094f, -0.037753f, -0.027509f, 0.029104f, 0.135157f, -0.010042f, 
0.073271f, 0.004487f, 0.126329f, -0.024184f, 0.109231f, 0.070537f, 0.116262f, -0.037265f, 
-0.067842f, -0.048382f, 0.004234f, 0.105458f, -0.020958f, 0.124679f, -0.043999f, 0.084866f, 
0.063246f, 0.105586f, -0.014386f, -0.049309f, -0.005080f, -0.019985f, 0.025884f, 0.012977f, 
-0.068244f, 0.084215f, 0.016556f, 0.072314f, -0.039631f, 0.014231f, 0.017507f, 0.113793f, 
0.040472f, -0.074211f, 0.045313f, 0.035776f, 0.053740f, 0.124978f, 0.099285f, -0.029091f, 
0.067136f, -0.026953f, 0.044954f, 0.128054f, 0.104189f, 0.099695f, 0.021593f, -0.073665f, 
0.067710f, 0.107925f, -0.001723f, 0.109582f, -0.053975f, -0.074057f, -0.066426f, -0.073193f, 
0.052402f, 0.016608f, 0.082705f, 0.109235f, 0.097020f, 0.032859f, 0.072356f, 0.106016f, 
-0.063082f, -0.062182f, -0.045765f, -0.034569f, 0.101616f, 0.023450f, -0.079893f, 0.073160f, 
0.118311f, -0.003994f, -0.016517f, -0.052515f, 0.013572f, -0.049485f, -0.017184f, 0.031992f, 
-0.120527f, -0.129470f, -0.097871f, -0.029585f, -0.106579f, -0.041283f, 0.035554f, 0.032829f, 
0.015768f, 0.005069f, 0.061126f, -0.049472f, -0.070209f, -0.131452f, -0.083052f, -0.096956f, 
0.081828f, 0.010947f, -0.057458f, -0.048052f, 0.011680f, 0.070695f, -0.077866f, 0.069922f, 
0.202151f, -0.025520f, 0.025897f, 0.035595f, 0.103299f, -0.022536f, 0.054169f, 0.046526f, 
0.052040f, 0.145015f, -0.047747f, 0.149636f, 0.021221f, 0.001696f, -0.030751f, -0.030177f, 
0.019504f, 0.015783f, 0.042913f, 0.146326f, 0.031365f, -0.042559f, 0.102282f, 0.010597f, 
0.142500f, -0.041244f, 0.059882f, 0.078852f, -0.007789f, -0.017473f, -0.159649f, -0.025073f, 
-0.118667f, 0.033539f, -0.058811f, -0.118541f, -0.152846f, -0.123293f, -0.070693f, -0.146954f, 
-0.148440f, 0.040701f, -0.049505f, -0.118059f, -0.024451f, -0.160638f, -0.008951f, 0.023135f, 
0.036038f, -0.138529f, -0.005039f, 0.013776f, -0.152996f, -0.168076f, -0.132707f, -0.143428f, 
-0.087414f, -0.097449f, -0.025033f, 0.142993f, 0.054124f, -0.033980f, -0.109909f, 0.090614f, 
0.006659f, 0.037806f, -0.073580f, 0.081320f, 0.009295f, 0.072552f, -0.023356f, 0.060396f, 
-0.085405f, -0.080663f, -0.062688f, -0.074287f, 0.010085f, -0.102977f, -0.096083f, 0.002448f, 
0.030690f, -0.034764f, -0.020408f, -0.093076f, -0.029897f, 0.011543f, 0.034747f, 0.050211f, 
-0.109180f, -0.031403f, 0.202321f, 0.000529f, 0.036244f, 0.023988f, 0.074280f, 0.056194f, 
-0.047478f, -0.063064f, -0.061765f, 0.022101f, -0.024221f, 0.055452f, -0.001610f, -0.000380f, 
0.067128f, 0.011875f, 0.080273f, 0.074383f, -0.054814f, 0.042138f, 0.053440f, -0.065300f, 
-0.034063f, 0.046117f, 0.043434f, -0.001619f, -0.037671f, 0.072434f, 0.033893f, 0.065599f, 
0.109547f, 0.099582f, 0.115009f, -0.055114f, 0.115449f, 0.091259f, 0.023156f, -0.083096f, 
0.013162f, -0.062313f, 0.003685f, -0.058188f, -0.035073f, 0.104739f, 0.098898f, -0.036819f, 
0.052349f, -0.038427f, 0.005202f, -0.071039f, 0.017862f, 0.098424f, -0.026897f, 0.010231f, 
0.011780f, -0.078118f, -0.036641f, 0.085253f, -0.017709f, 0.112545f, -0.045145f, 0.022079f, 
-0.117355f, -0.074943f, -0.123799f, -0.027631f, -0.031772f, 0.055513f, 0.067174f, -0.060886f, 
0.075206f, -0.073665f, -0.004428f, 0.018440f, -0.006051f, 0.068735f, -0.131009f, -0.129183f, 
0.022355f, -0.013857f, -0.041993f, 0.044321f, 0.055626f, 0.047436f, -0.024734f, -0.120523f, 
-0.069353f, -0.064963f, -0.097667f, -0.068902f, 0.012488f, 0.076072f, -0.090402f, -0.070204f, 
-0.028869f, -0.060024f, -0.029712f, 0.022036f, 0.000400f, -0.016421f, 0.016420f, 0.033841f, 
-0.014734f, -0.115627f, 0.042716f, -0.031553f, 0.045647f, -0.039887f, -0.041929f, -0.107080f, 
-0.005610f, -0.066518f, -0.066502f, -0.098920f, -0.078672f, 0.090941f, 0.027024f, -0.065587f, 
0.000756f, -0.006555f, -0.010269f, 0.086689f, -0.087903f, -0.062046f, 0.030145f, 0.065017f, 
0.048903f, -0.079885f, 0.039313f, -0.116763f, -0.050785f, 0.056694f, -0.068274f, 0.013938f, 
0.084155f, 0.058448f, 0.022795f, -0.103911f, 0.006572f, -0.025395f, -0.022267f, 0.088228f, 
0.073306f, -0.057121f, 0.056024f, -0.060874f, -0.018273f, -0.019931f, 0.083726f, 0.036301f, 
-0.100587f, 0.058845f, 0.023032f, -0.014587f, 0.054433f, -0.058015f, 0.037354f, -0.038912f, 
0.091314f, 0.080755f, -0.057142f, 0.091148f, 0.002535f, -0.035443f, -0.097531f, 0.054375f, 
-0.046832f, 0.087464f, -0.052791f, -0.068542f, -0.051297f, -0.105044f, -0.033392f, 0.004918f, 
0.004842f, -0.011275f, -0.040313f, 0.000355f, 0.043669f, 0.013070f, 0.008176f, 0.001870f, 
0.145516f, 0.045248f, 0.133464f, 0.127805f, 0.074785f, 0.141463f, -0.013471f, 0.106750f, 
0.120695f, 0.104413f, 0.079695f, 0.132429f, -0.016779f, 0.049003f, 0.088416f, 0.068987f, 
0.117967f, 0.023800f, 0.008191f, 0.066631f, -0.033446f, 0.041343f, 0.123145f, 0.035009f, 
0.063428f, 0.129000f, 0.057528f, 0.032410f, -0.005338f, 0.107823f, 0.100627f, 0.044765f, 
-0.053526f, 0.067048f, 0.030339f, 0.079196f, 0.057699f, -0.010289f, 0.016187f, 0.050055f, 
-0.048276f, 0.114188f, 0.057715f, -0.016096f, 0.063818f, -0.022084f, -0.077703f, -0.035905f, 
0.109366f, -0.066003f, -0.062979f, -0.053775f, -0.022531f, 0.023144f, 0.052368f, 0.088722f, 
0.041381f, -0.010004f, 0.026103f, -0.064235f, -0.089667f, 0.027149f, -0.042574f, -0.061439f, 
-0.020731f, -0.057822f, -0.097689f, -0.109829f, -0.034691f, -0.027130f, -0.039909f, 0.053087f, 
-0.061819f, -0.019277f, -0.093535f, -0.007735f, -0.029406f, -0.097315f, -0.055324f, 0.003235f, 
0.053533f, 0.018215f, -0.098927f, 0.035462f, -0.069104f, -0.094839f, 0.048115f, -0.088843f, 
0.001860f, 0.024106f, -0.075636f, -0.080013f, -0.032158f, -0.013585f, 0.064906f, 0.000323f, 
-0.086199f, -0.006416f, -0.006243f, 0.057232f, -0.057164f, -0.074256f, 0.054059f, 0.086875f, 
-0.079809f, 0.071691f, 0.015659f, 0.079131f, -0.008591f, 0.035273f, -0.004019f, 0.038469f, 
0.038793f, -0.081411f, -0.075926f, -0.055557f, -0.022055f, 0.139204f, -0.062599f, 0.131556f, 
0.063429f, 0.042559f, 0.101083f, 0.083967f, -0.055277f, 0.120536f, 0.113690f, 0.044666f, 
-0.037752f, -0.048645f, 0.136316f, 0.099571f, 0.049405f, -0.032237f, 0.066321f, 0.119628f, 
0.053911f, 0.103385f, 0.108748f, 0.126473f, 0.051654f, 0.056100f, 0.121621f, 0.011868f, 
0.136211f, 0.032293f, 0.037231f, -0.024948f, 0.115590f, 0.007803f, -0.062901f, 0.067380f, 
0.024220f, 0.134800f, 0.005956f, -0.022058f, 0.070496f, -0.043498f, 0.043130f, 0.024035f, 
0.098445f, 0.027741f, -0.000077f, 0.024708f, -0.032734f, -0.029263f, 0.129507f, 0.016313f, 
0.068765f, -0.000533f, 0.128431f, 0.134389f, 0.071528f, -0.053886f, 0.047760f, 0.107845f, 
0.042880f, 0.142345f, -0.062478f, 0.147463f, 0.131371f, -0.000225f, -0.030505f, -0.043923f, 
0.010264f, 0.152462f, 0.134841f, 0.029498f, -0.015751f, 0.039240f, 0.099995f, 0.047197f, 
0.143778f, -0.046852f, 0.101963f, 0.009523f, 0.000124f, 0.013064f, 0.094082f, 0.027580f, 
-0.059579f, 0.076884f, 0.131331f, 0.045756f, 0.126842f, 0.011117f, 0.126784f, -0.004696f, 
-0.011506f, 0.095477f, -0.037991f, 0.049873f, -0.005263f, 0.074404f, 0.097465f, 0.049638f, 
0.094252f, 0.072625f, -0.004465f, -0.021426f, 0.035792f, 0.119145f, 0.061863f, 0.087679f, 
-0.071150f, -0.073171f, 0.088645f, -0.077739f, 0.021910f, 0.058703f, 0.073692f, 0.033682f, 
-0.039215f, 0.014326f, 0.129262f, 0.109526f, -0.033894f, -0.005312f, -0.095911f, -0.133054f, 
-0.061093f, -0.011787f, 0.068088f, -0.051112f, 0.035913f, -0.067881f, -0.093614f, -0.098203f, 
-0.057045f, -0.081490f, -0.075104f, -0.016296f, -0.072817f, 0.076282f, -0.078833f, 0.046628f, 
-0.040132f, 0.064861f, -0.031309f, -0.091864f, -0.042819f, 0.062818f, -0.116359f, 0.016169f, 
-0.124846f, 0.022402f, 0.092339f, 0.039553f, 0.221298f, -0.073421f, 0.088775f, -0.034283f, 
0.040875f, -0.060983f, -0.059480f, -0.071338f, 0.043366f, 0.045266f, -0.082439f, 0.086399f, 
-0.014322f, 0.073329f, 0.059541f, 0.090107f, -0.021714f, 0.056688f, 0.049311f, 0.016915f, 
0.038498f, 0.059226f, 0.041699f, 0.020475f, 0.089825f, 0.036600f, 0.065343f, 0.021224f, 
0.096700f, -0.004291f, 0.042784f, -0.104501f, -0.148260f, -0.102537f, 0.040695f, -0.012293f, 
-0.099776f, -0.075270f, -0.006212f, -0.060010f, -0.095896f, -0.030088f, 0.014432f, -0.155936f, 
-0.070719f, -0.061384f, -0.028860f, 0.009163f, -0.027788f, -0.153377f, -0.166689f, -0.119397f, 
-0.064882f, -0.160488f, 0.047494f, 0.037353f, -0.137951f, 0.033380f, -0.039060f, -0.033812f, 
-0.079212f, -0.038868f, 0.084518f, 0.031937f, 0.054900f, 0.091216f, 0.002333f, 0.043929f, 
0.054188f, -0.000756f, 0.028274f, -0.049048f, -0.060490f, 0.085726f, 0.039250f, -0.103645f, 
-0.073627f, 0.048281f, -0.019986f, 0.014404f, -0.064054f, -0.090711f, 0.001851f, -0.094011f, 
0.081378f, 0.048511f, -0.082788f, 0.053242f, 0.002259f, -0.079383f, 0.021434f, -0.038634f, 
-0.031473f, 0.043864f, -0.016460f, 0.101602f, -0.036390f, -0.037177f, 0.149830f, -0.020381f, 
0.108590f, 0.098375f, 0.129252f, 0.020123f, 0.117992f, 0.036949f, 0.047041f, 0.133524f, 
0.105479f, 0.040117f, 0.112562f, 0.054036f, -0.018564f, 0.077339f, -0.006391f, 0.060656f, 
0.077348f, 0.129395f, -0.030921f, -0.083233f, 0.040228f, -0.097273f, -0.052632f, 0.043327f, 
0.027895f, 0.090854f, 0.085387f, 0.073353f, -0.061070f, 0.098330f, -0.044488f, -0.069150f, 
-0.012690f, -0.049861f, 0.076754f, 0.093009f, 0.108632f, -0.019918f, -0.050302f, 0.000615f, 
0.106102f, -0.021876f, 0.048938f, -0.025199f, -0.003700f, -0.000037f, 0.040290f, 0.077155f, 
0.019173f, 0.100195f, -0.012108f, -0.119167f, -0.126540f, -0.051540f, 0.083913f, 0.006606f, 
-0.049588f, -0.086209f, -0.095961f, 0.046079f, -0.102635f, -0.047229f, -0.125100f, -0.063866f, 
-0.105733f, 0.029200f, -0.026919f, 0.077163f, 0.046230f, 0.070715f, 0.060927f, -0.014563f, 
-0.042525f, -0.065953f, -0.062047f, 0.048340f, -0.123429f, 0.025529f, 0.072941f, -0.052349f, 
-0.028562f, 0.031408f, 0.020408f, -0.052408f, 0.079057f, -0.023446f, -0.049807f, -0.096318f, 
0.053127f, -0.065304f, -0.050051f, 0.025287f, 0.029845f, -0.077052f, -0.013750f, -0.101529f, 
-0.030073f, -0.008560f, -0.078377f, 0.003171f, 0.061659f, -0.002812f, -0.092449f, -0.093736f, 
-0.067357f, 0.050556f, -0.068414f, -0.065576f, -0.057136f, 0.077178f, 0.029915f, 0.074162f, 
0.053496f, 0.115170f, 0.064277f, 0.016787f, 0.079084f, 0.063298f, 0.052809f, 0.124221f, 
-0.072814f, 0.087212f, 0.011452f, -0.019424f, -0.004694f, -0.021910f, 0.055726f, 0.013341f, 
0.073809f, 0.071700f, -0.060186f, 0.012940f, 0.003271f, 0.088172f, -0.023740f, 0.044279f, 
0.076526f, 0.000045f, 0.068606f, -0.072703f, 0.114019f, 0.009197f, 0.066334f, 0.094426f, 
0.097274f, -0.046863f, 0.118342f, 0.077435f, -0.000864f, 0.070363f, 0.145221f, -0.017943f, 
-0.009946f, 0.026190f, 0.128228f, 0.089191f, 0.094884f, -0.054016f, 0.067057f, 0.079662f, 
-0.011260f, 0.116335f, -0.002434f, -0.048026f, 0.052621f, 0.019739f, 0.033424f, 0.006455f, 
0.102008f, 0.007343f, -0.002959f, 0.012823f, -0.000041f, 0.002100f, 0.094024f, 0.026506f, 
-0.082461f, 0.033047f, 0.035709f, 0.008875f, -0.046477f, -0.104823f, -0.066166f, 0.087387f, 
-0.007240f, -0.077200f, 0.018503f, -0.048449f, 0.047353f, 0.014268f, -0.058599f, -0.099169f, 
0.018333f, 0.014312f, -0.032758f, -0.051241f, -0.053728f, -0.000417f, 0.013780f, 0.036275f, 
0.025060f, -0.025606f, 0.059507f, 0.034117f, -0.022972f, -0.052467f, -0.072644f, 0.108903f, 
-0.022054f, 0.035702f, -0.029959f, 0.024667f, 0.054756f, -0.046498f, 0.075159f, 0.100873f, 
-0.020867f, 0.015949f, 0.011278f, 0.015432f, 0.034377f, -0.055783f, -0.000601f, -0.063817f, 
-0.030806f, -0.060103f, 0.052377f, -0.054621f, 0.075618f, -0.076303f, 0.011296f, -0.058868f, 
-0.066066f, -0.033091f, 0.088350f, 0.017108f, 0.106302f, 0.055504f, 0.055869f, 0.114299f, 
0.048254f, 0.014513f, -0.043852f, 0.003343f, 0.134563f, 0.113956f, 0.079127f, 0.037582f, 
0.048244f, 0.098545f, 0.049185f, 0.055365f, 0.129001f, 0.089765f, -0.041566f, 0.048547f, 
0.086797f, 0.044645f, 0.033087f, 0.110080f, 0.156936f, 0.092866f, 0.052596f, 0.023622f, 
-0.005707f, 0.096803f, 0.035595f, 0.051092f, -0.056964f, 0.105307f, -0.051572f, 0.066351f, 
0.032116f, -0.027918f, -0.052983f, -0.012518f, 0.023829f, -0.064552f, 0.011611f, 0.052685f, 
0.069502f, -0.053195f, -0.070177f, 0.027702f, 0.075140f, 0.079591f, 0.099329f, 0.113941f, 
-0.027963f, -0.026771f, -0.040269f, -0.162267f, -0.116058f, 0.020136f, -0.014030f, -0.151193f, 
0.003427f, -0.112936f, -0.066670f, -0.036261f, -0.021871f, -0.099516f, -0.053437f, -0.157885f, 
-0.096329f, -0.161629f, -0.165554f, 0.040505f, -0.126445f, -0.153127f, 0.007550f, -0.064371f, 
-0.015779f, -0.081646f, -0.084821f, -0.045123f, -0.140639f, -0.028880f, 0.006591f, 0.127275f, 
0.073891f, -0.057992f, -0.111867f, 0.014562f, 0.048847f, -0.054331f, -0.074985f, -0.103172f, 
0.071666f, -0.076258f, -0.081758f, -0.025349f, 0.001984f, -0.006872f, 0.013404f, -0.034660f, 
0.044188f, 0.019499f, 0.061854f, -0.060672f, -0.092641f, -0.099542f, 0.082705f, 0.075036f, 
-0.093605f, 0.037928f, 0.028375f, 0.055829f, -0.068610f, -0.117502f, -0.024608f, 0.015765f, 
-0.033905f, -0.015063f, 0.021367f, 0.039568f, -0.034373f, -0.095283f, -0.060441f, 0.083473f, 
-0.001941f, 0.066158f, -0.031814f, -0.095215f, -0.030753f, 0.004973f, 0.007583f, -0.053886f, 
-0.045900f, -0.088183f, 0.042069f, -0.062312f, 0.029515f, -0.027671f, -0.097120f, -0.070294f, 
0.078054f, -0.016890f, 0.009223f, 0.010420f, 0.069007f, -0.023962f, -0.028200f, -0.098976f, 
0.051679f, 0.109070f, 0.061527f, 0.032920f, 0.100840f, 0.056855f, -0.088021f, -0.048518f, 
0.049167f, -0.072814f, -0.085869f, 0.096893f, 0.080568f, 0.101274f, -0.008692f, 0.069337f, 
0.078031f, -0.015752f, -0.008861f, -0.038530f, -0.052683f, 0.001285f, -0.076610f, -0.059938f, 
-0.050871f, 0.028987f, 0.000299f, 0.084506f, 0.031217f, 0.032708f, -0.033113f, 0.009945f, 
0.078209f, -0.021729f, -0.025006f, 0.099684f, 0.088623f, 0.112943f, -0.066163f, -0.048342f, 
-0.058005f, 0.030767f, -0.053419f, 0.114792f, 0.021073f, 0.103657f, 0.012135f, 0.131828f, 
0.097225f, 0.125341f, 0.009132f, 0.109028f, 0.005291f, 0.013624f, 0.063457f, 0.115261f, 
-0.034079f, 0.006239f, -0.069957f, -0.033337f, -0.008435f, -0.008416f, 0.076206f, -0.055774f, 
0.052820f, 0.099194f, -0.050971f, 0.002977f, -0.030332f, -0.009086f, 0.115790f, -0.031057f, 
-0.012543f, 0.093175f, 0.134278f, 0.055213f, -0.028517f, 0.109658f, 0.003431f, 0.115031f, 
0.080701f, 0.102999f, 0.072334f, 0.057992f, 0.096392f, 0.018047f, 0.033139f, 0.092533f, 
-0.101360f, -0.049500f, 0.067355f, 0.037957f, 0.019480f, -0.017231f, 0.034966f, -0.085371f, 
-0.073656f, -0.068738f, 0.015979f, -0.041979f, -0.028489f, -0.036693f, 0.065095f, -0.060140f, 
0.067929f, -0.006744f, 0.017627f, -0.029128f, -0.008344f, -0.090251f, -0.000994f, 0.017252f, 
0.002468f, -0.000868f, 0.054103f, 0.037840f, 0.001511f, 0.011173f, 0.138729f, 0.111000f, 
0.074410f, 0.018438f, 0.021662f, 0.089576f, 0.078904f, -0.054790f, 0.107542f, -0.055039f, 
0.100551f, 0.077964f, 0.048378f, -0.009377f, 0.132104f, -0.065326f, 0.003706f, -0.041035f, 
0.036569f, 0.021259f, -0.051149f, 0.087440f, -0.013143f, 0.121711f, -0.021370f, 0.043050f, 
0.063904f, 0.013821f, -0.016195f, -0.046994f, -0.061947f, -0.037740f, -0.049860f, -0.044275f, 
-0.091676f, 0.055777f, 0.040501f, 0.069795f, -0.077196f, -0.053082f, 0.064133f, 0.062325f, 
-0.057410f, -0.100786f, 0.063572f, 0.015219f, -0.015924f, -0.092852f, 0.003900f, -0.109813f, 
0.079059f, -0.006077f, 0.020882f, -0.030023f, 0.036679f, 0.002852f, 0.094309f, -0.001871f, 
0.053168f, 0.102978f, -0.079922f, 0.081579f, 0.057058f, 0.089003f, 0.109226f, -0.020998f, 
0.004749f, 0.059417f, -0.072167f, -0.075312f, -0.034784f, 0.039016f, 0.044577f, 0.070203f, 
0.047655f, 0.081600f, -0.049327f, -0.064657f, 0.015992f, -0.061907f, 0.029757f, 0.054418f, 
-0.035597f, 0.031655f, 0.056984f, -0.044865f, -0.028400f, -0.008461f, -0.017226f, -0.072213f, 
0.122460f, 0.108308f, 0.016936f, -0.053782f, 0.099496f, -0.036231f, -0.003556f, 0.084685f, 
0.047453f, 0.078333f, 0.114083f, 0.106227f, -0.033060f, 0.051139f, 0.014686f, 0.069889f, 
0.091209f, 0.073825f, 0.086594f, -0.004939f, 0.095049f, -0.066946f, 0.044117f, -0.055774f, 
-0.036121f, -0.051434f, 0.109433f, -0.030763f, 0.002421f, -0.037085f, -0.033691f, 0.106219f, 
-0.078094f, 0.091437f, 0.046064f, 0.109775f, 0.097753f, 0.044909f, 0.014282f, 0.111247f, 
-0.006534f, -0.086256f, 0.034598f, 0.032527f, 0.058347f, 0.073097f, -0.037058f, 0.036628f, 
-0.055597f, 0.035098f, 0.067076f, 0.026621f, -0.031007f, 0.074882f, 0.085714f, 0.056434f, 
0.057437f, -0.051754f, -0.031433f, 0.039125f, 0.095184f, 0.062900f, 0.140577f, -0.038740f, 
0.138176f, 0.036376f, 0.081966f, -0.050663f, 0.072758f, -0.026903f, -0.056374f, 0.103740f, 
-0.016419f, 0.044350f, 0.138599f, -0.067007f, 0.123911f, 0.095889f, 0.136076f, 0.088762f, 
0.081688f, 0.135025f, 0.033276f, -0.070151f, 0.072089f, -0.014028f, -0.034097f, -0.017232f, 
-0.064259f, 0.034582f, 0.045262f, -0.114975f, 0.023866f, -0.088253f, -0.070969f, -0.025509f, 
-0.102676f, -0.004634f, -0.044202f, -0.086969f, 0.093468f, -0.089834f, -0.050613f, -0.021820f, 
-0.070238f, 0.022056f, -0.016653f, 0.001696f, 0.026470f, -0.027241f, -0.027652f, -0.086490f, 
-0.070469f, 0.035012f, -0.098036f, -0.108288f, -0.094220f, -0.034904f, -0.093370f, 0.090898f, 
0.159103f, 0.130932f, 0.124142f, -0.048715f, 0.087467f, 0.091362f, -0.049334f, -0.015971f, 
0.043909f, 0.101483f, 0.027090f, 0.122941f, 0.062972f, -0.006896f, 0.029266f, 0.059698f, 
0.033489f, -0.039719f, 0.058457f, 0.122911f, 0.053713f, -0.016450f, -0.001059f, 0.150965f, 
0.094701f, 0.032831f, 0.127593f, 0.072787f, 0.108626f, 0.067664f, 0.042799f, -0.073615f, 
-0.067651f, -0.037282f, 0.022542f, 0.119322f, -0.037917f, -0.034607f, 0.066329f, 0.026795f, 
0.041244f, -0.033608f, 0.020771f, 0.003386f, 0.086684f, 0.037331f, 0.079690f, -0.070549f, 
0.047156f, 0.115663f, -0.026257f, 0.094009f, 0.009425f, 0.013452f, -0.037997f, -0.025805f, 
-0.067864f, 0.122017f, -0.000242f, 0.064481f, -0.009686f, 0.063800f, -0.030717f, -0.109402f, 
0.060963f, 0.026878f, -0.052750f, -0.081784f, -0.127275f, -0.067198f, 0.056968f, -0.078851f, 
-0.130072f, -0.004682f, -0.040413f, 0.008603f, 0.036384f, -0.072287f, -0.095572f, -0.052701f, 
-0.047973f, -0.077272f, 0.020165f, 0.048728f, -0.027110f, -0.022339f, -0.034346f, -0.103190f, 
0.233258f, -0.054259f, 0.031691f, -0.074848f, -0.082556f, -0.084233f, 0.048922f, 0.056224f, 
-0.078306f, 0.056310f, -0.092830f, 0.063611f, -0.078142f, 0.015541f, -0.025540f, 0.090071f, 
-0.082078f, 0.051799f, -0.079864f, 0.112104f, -0.007320f, 0.027202f, 0.098746f, -0.087639f, 
0.068179f, -0.097761f, -0.022278f, 0.077369f, 0.024033f, 0.090865f, -0.029225f, -0.033832f, 
0.028712f, -0.085785f, 0.103256f, 0.030988f, -0.094077f, -0.054220f, 0.001443f, -0.088300f, 
0.051158f, -0.004470f, 0.012817f, 0.098779f, 0.050723f, -0.068204f, -0.092716f, 0.037474f, 
0.023961f, 0.000463f, 0.109799f, -0.074686f, 0.086806f, -0.036363f, -0.067024f, -0.081640f, 
0.007329f, -0.068972f, -0.021333f, 0.015397f, 0.002077f, 0.004995f, -0.100800f, 0.052679f, 
-0.018884f, -0.060181f, -0.018672f, 0.067612f, -0.020265f, 0.002655f, 0.075467f, -0.088410f, 
0.090159f, -0.074934f, 0.089978f, 0.023219f, -0.019973f, 0.009744f, -0.086860f, 0.079019f, 
-0.042007f, -0.072922f, 0.044147f, 0.054677f, -0.106540f, -0.006117f, 0.006689f, -0.098566f, 
-0.107194f, 0.038706f, -0.134841f, 0.010092f, -0.045149f, -0.046629f, -0.021908f, -0.010139f, 
-0.032889f, -0.057670f, -0.072407f, 0.047098f, 0.056790f, -0.046431f, -0.046016f, -0.045067f, 
0.083491f, 0.081517f, -0.048502f, 0.072072f, 0.099445f, 0.017113f, 0.090589f, 0.067910f, 
0.104352f, -0.054642f, 0.060993f, -0.085049f, -0.056860f, -0.071927f, -0.024152f, 0.104270f, 
0.055690f, 0.159273f, 0.099048f, 0.041265f, 0.146262f, 0.057651f, 0.111870f, 0.140137f, 
0.004721f, 0.110246f, 0.075090f, 0.118573f, 0.116026f, 0.061664f, -0.000938f, 0.073890f, 
0.041114f, -0.024945f, 0.083645f, 0.043982f, 0.063631f, 0.093127f, 0.114167f, 0.089882f, 
0.138184f, 0.119622f, 0.063978f, 0.030754f, 0.123610f, 0.101665f, 0.046740f, 0.070572f, 
0.043503f, -0.027400f, 0.089974f, -0.092280f, -0.075204f, 0.112378f, 0.048762f, -0.009271f, 
0.044931f, 0.025906f, -0.010946f, 0.092031f, 0.050659f, -0.037547f, -0.034936f, -0.030497f, 
0.046834f, -0.057364f, 0.037432f, -0.022559f, 0.005179f, 0.056907f, 0.061287f, 0.047781f, 
0.065269f, -0.034845f, -0.077819f, 0.036680f, 0.240856f, 0.051608f, -0.112937f, 0.008599f, 
0.009152f, -0.107432f, 0.048928f, -0.157891f, -0.079147f, -0.010748f, -0.009003f, -0.010245f, 
-0.119421f, 0.028981f, -0.027255f, -0.102187f, 0.053378f, -0.041503f, -0.032755f, -0.026429f, 
-0.109943f, -0.127875f, 0.054435f, 0.009172f, -0.001715f, -0.004049f, 0.053438f, 0.050669f, 
-0.070740f, -0.084627f, -0.038366f, 0.052035f, 0.038131f, -0.072970f, 0.047011f, -0.012821f, 
-0.063326f, -0.061374f, -0.002453f, -0.100374f, 0.048178f, -0.000236f, -0.119621f, 0.042821f, 
0.023344f, 0.037105f, 0.036465f, 0.078414f, 0.024218f, 0.042846f, -0.026503f, -0.079035f, 
-0.089675f, -0.059353f, -0.093687f, -0.056772f, -0.044822f, -0.051416f, 0.012104f, 0.136601f, 
0.073176f, -0.000257f, -0.060388f, 0.080709f, -0.000745f, 0.004953f, -0.081559f, 0.007258f, 
0.042484f, -0.015692f, 0.074769f, 0.054081f, -0.051106f, 0.083993f, 0.011961f, 0.055086f, 
0.089044f, 0.056252f, 0.057185f, 0.062170f, -0.053250f, -0.072052f, -0.066712f, -0.034084f, 
-0.006452f, 0.078611f, 0.003463f, 0.007286f, -0.085292f, -0.000882f, 0.174961f, -0.104919f, 
0.067031f, -0.073779f, 0.061411f, -0.084437f, -0.072235f, 0.005060f, 0.032548f, -0.061179f, 
-0.047285f, -0.069253f, -0.134149f, 0.000885f, -0.038433f, -0.027286f, 0.103115f, -0.097826f, 
0.062310f, -0.082977f, -0.039165f, 0.009599f, -0.019400f, -0.038594f, 0.056312f, -0.022277f, 
-0.084287f, 0.031231f, -0.024684f, -0.084369f, -0.010601f, -0.075112f, 0.071007f, -0.054814f, 
-0.019551f, -0.087914f, 0.092279f, -0.041100f, -0.016200f, 0.008389f, 0.089927f, -0.019869f, 
-0.034154f, 0.059718f, -0.101551f, 0.104965f, 0.020517f, 0.073048f, -0.074247f, 0.019627f, 
0.059878f, 0.060751f, 0.065611f, 0.074168f, 0.056278f, 0.055946f, -0.051125f, 0.039886f, 
-0.012838f, 0.085466f, -0.106831f, 0.040513f, 0.028708f, -0.107196f, 0.002364f, 0.000539f, 
-0.127377f, -0.125802f, -0.000994f, -0.092744f, -0.074172f, 0.065840f, -0.098151f, 0.037806f, 
0.063018f, 0.075118f, 0.028807f, -0.097258f, 0.085589f, -0.047904f, -0.022334f, 0.057919f, 
-0.003371f, -0.023866f, -0.032065f, 0.079145f, -0.055016f, -0.052342f, 0.051934f, 0.014405f, 
-0.082701f, -0.044860f, 0.089166f, 0.073277f, -0.084921f, -0.031600f, -0.029042f, 0.031181f, 
-0.050131f, 0.075449f, 0.050637f, 0.059821f, 0.087400f, -0.022769f, -0.098000f, -0.040161f, 
-0.008702f, -0.093341f, -0.046500f, 0.094665f, 0.014722f, 0.014155f, -0.031390f, 0.003792f, 
0.102478f, 0.042092f, -0.062966f, -0.070021f, 0.024180f, 0.087553f, 0.046248f, -0.048799f, 
0.052793f, 0.118355f, 0.008024f, 0.000749f, 0.115654f, 0.078713f, 0.015507f, -0.012198f, 
0.010709f, -0.003578f, 0.076710f, 0.079945f, -0.064833f, -0.047026f, 0.112036f, 0.113605f, 
-0.042375f, 0.028835f, -0.038044f, 0.043991f, -0.011284f, 0.075529f, 0.097711f, 0.132394f, 
0.053002f, 0.006982f, 0.001467f, 0.097728f, -0.103379f, -0.068085f, -0.133138f, -0.035200f, 
0.004872f, -0.047908f, -0.118353f, 0.021465f, -0.064459f, 0.016413f, 0.065728f, -0.100167f, 
0.021233f, -0.117804f, -0.097077f, 0.031737f, -0.048197f, -0.031885f, -0.092256f, -0.003831f, 
-0.117902f, -0.051409f, -0.002456f, 0.053818f, -0.082099f, 0.030720f, 0.014817f, -0.067557f, 
-0.003968f, 0.039365f, 0.232778f, 0.052903f, 0.025185f, -0.023520f, 0.017681f, 0.002158f, 
0.100553f, -0.080912f, -0.085702f, -0.041397f, -0.068580f, 0.020675f, -0.010981f, -0.023875f, 
0.066835f, 0.035602f, -0.100403f, -0.063275f, -0.033925f, -0.029556f, 0.024600f, -0.019733f, 
0.085117f, -0.054532f, 0.073848f, -0.094404f, 0.038038f, -0.024748f, 0.040492f, -0.099473f, 
-0.029517f, 0.086091f, -0.035883f, 0.066425f, -0.032387f, 0.042163f, 0.079247f, 0.061968f, 
-0.104519f, 0.091046f, 0.054603f, -0.088279f, 0.079129f, -0.050325f, -0.033999f, -0.107697f, 
0.027546f, -0.056018f, -0.032651f, -0.040164f, -0.040067f, 0.079440f, -0.058605f, 0.011021f, 
0.002724f, 0.077953f, 0.004628f, -0.055653f, 0.078935f, 0.037498f, 0.051280f, 0.064373f, 
-0.010711f, -0.015151f, 0.117718f, 0.108419f, -0.014216f, -0.072108f, 0.026127f, -0.064065f, 
0.091585f, -0.053642f, 0.099792f, 0.085676f, 0.065510f, 0.111372f, 0.119377f, 0.128464f, 
0.095091f, 0.008317f, 0.022673f, -0.004187f, 0.058889f, 0.096190f, 0.062065f, -0.047072f, 
-0.040151f, 0.041152f, -0.039114f, 0.015454f, -0.166320f, 0.077718f, 0.002102f, 0.076130f, 
-0.104138f, 0.048922f, -0.102354f, 0.006925f, 0.047678f, 0.003975f, -0.064483f, 0.041833f, 
0.014430f, 0.051163f, 0.046480f, 0.049079f, 0.012907f, 0.076491f, 0.025257f, -0.033512f, 
0.033427f, 0.080097f, 0.023230f, -0.081301f, 0.007396f, -0.025691f, 0.025304f, 0.064890f, 
-0.068356f, 0.133119f, 0.031806f, 0.015028f, -0.004355f, -0.019809f, 0.011321f, 0.148868f, 
0.057452f, -0.011681f, -0.030982f, 0.041913f, 0.143088f, -0.003444f, 0.149696f, 0.162096f, 
0.058038f, -0.025667f, 0.083966f, 0.112156f, 0.034734f, 0.129485f, 0.150746f, 0.113459f, 
-0.021547f, 0.057752f, 0.016729f, 0.138703f, 0.149174f, -0.025654f, -0.018083f, -0.065514f, 
0.115793f, 0.018175f, 0.049306f, 0.109617f, 0.047956f, 0.041931f, 0.115488f, 0.036378f, 
0.081707f, 0.097057f, -0.030304f, -0.022662f, 0.021591f, 0.133874f, -0.049497f, 0.127319f, 
-0.051601f, 0.034346f, 0.000986f, -0.007675f, 0.038104f, -0.041535f, 0.083877f, -0.065264f, 
0.106211f, 0.023168f, 0.092853f, 0.004540f, 0.028968f, 0.023860f, -0.002407f, -0.013617f, 
0.049167f, 0.026482f, 0.049512f, -0.031774f, -0.066689f, -0.122931f, -0.043483f, 0.018429f, 
-0.060928f, 0.071539f, -0.061534f, 0.027841f, 0.014026f, 0.067546f, -0.009675f, -0.035325f, 
-0.014309f, 0.043100f, -0.059326f, -0.067245f, 0.070980f, 0.062809f, -0.093663f, -0.092281f, 
0.039628f, -0.093380f, -0.120439f, -0.083281f, -0.101445f, -0.069130f, -0.009926f, -0.116506f, 
-0.017705f, -0.101796f, -0.016318f, -0.037353f, 0.047890f, 0.052603f, -0.056980f, -0.004160f, 
0.014511f, -0.000640f, -0.009395f, 0.048488f, -0.112795f, -0.081265f, 0.036474f, -0.069752f, 
0.071932f, -0.021329f, 0.081705f, -0.097359f, -0.055199f, 0.024999f, 0.015340f, 0.024532f, 
-0.056167f, -0.137477f, 0.045324f, -0.018080f, -0.086263f, -0.007157f, -0.053869f, -0.055230f, 
-0.003428f, 0.000241f, -0.052130f, -0.087903f, -0.086422f, -0.113665f, -0.093496f, 0.007190f, 
-0.093619f, -0.021988f, -0.020133f, -0.114636f, -0.108827f, -0.060494f, 0.056412f, -0.079156f, 
-0.004846f, -0.092150f, -0.043196f, -0.119152f, -0.062501f, 0.087996f, 0.084022f, -0.087062f, 
-0.014805f, 0.030415f, 0.160170f, 0.111640f, 0.103804f, 0.100739f, -0.006594f, 0.140567f, 
0.023730f, 0.025123f, 0.030366f, 0.054389f, 0.126562f, 0.079656f, -0.045589f, 0.108898f, 
0.124395f, 0.142096f, 0.109232f, 0.049692f, 0.049763f, 0.096410f, 0.010006f, 0.135337f, 
0.131958f, 0.150359f, 0.148581f, 0.027491f, 0.015014f, 0.034653f, 0.067207f, 0.087479f, 
0.016384f, 0.092302f, 0.003047f, -0.068085f, 0.037685f, 0.003722f, 0.100149f, -0.093143f, 
-0.013658f, -0.016462f, -0.060897f, -0.025776f, -0.053290f, -0.026807f, -0.061869f, -0.046604f, 
-0.015517f, -0.000273f, 0.092898f, 0.086416f, 0.064942f, 0.046413f, 0.063852f, 0.050304f, 
-0.035059f, -0.034122f, -0.027046f, 0.019228f, 0.058207f, -0.027736f, -0.061198f, -0.055231f, 
-0.094112f, -0.063273f, 0.019358f, 0.057564f, -0.038826f, -0.104552f, -0.020654f, -0.066689f, 
-0.045412f, 0.067547f, 0.022180f, -0.113648f, 0.068267f, 0.010447f, -0.104451f, 0.074081f, 
0.021337f, 0.092027f, -0.031903f, -0.104947f, -0.028564f, -0.015181f, -0.054208f, -0.103512f, 
0.086962f, -0.108978f, -0.016134f, 0.021612f, 0.032435f, 0.097921f, 0.085924f, 0.067182f, 
0.086014f, 0.160591f, 0.157287f, -0.004314f, 0.030488f, 0.098291f, -0.005546f, 0.023678f, 
0.029456f, -0.012870f, -0.034344f, 0.022242f, 0.025478f, 0.124256f, 0.155651f, 0.127115f, 
0.031122f, 0.054991f, 0.014215f, 0.075762f, 0.113680f, 0.105501f, 0.131265f, -0.017779f, 
-0.049639f, 0.072438f, 0.085868f, 0.045737f, -0.072214f, 0.052892f, 0.012561f, 0.052857f, 
-0.024369f, 0.024896f, 0.063004f, 0.121586f, -0.048037f, -0.038065f, 0.028414f, -0.039226f, 
0.056272f, 0.060607f, -0.004355f, -0.014087f, 0.017080f, 0.132161f, 0.075496f, -0.006344f, 
-0.013298f, 0.115180f, 0.010939f, 0.135368f, 0.002408f, 0.068866f, 0.067330f, -0.121654f, 
-0.035713f, -0.101834f, -0.052368f, 0.086760f, -0.107689f, -0.042465f, -0.057064f, 0.064582f, 
-0.015713f, -0.074753f, -0.096095f, 0.022649f, 0.013706f, -0.031346f, 0.056383f, -0.090221f, 
-0.048225f, 0.047637f, -0.113779f, -0.079690f, 0.078987f, 0.058826f, -0.054985f, -0.017947f, 
-0.088720f, -0.070807f, -0.112296f, -0.032286f, -0.056142f, 0.053155f, 0.099824f, 0.016392f, 
0.158209f, 0.131744f, 0.105242f, -0.022403f, 0.088309f, 0.099028f, 0.072061f, 0.050693f, 
0.001223f, 0.057602f, 0.081445f, 0.095114f, 0.021854f, -0.001207f, 0.004427f, -0.014914f, 
0.103488f, 0.159657f, 0.099705f, 0.038064f, 0.144735f, 0.020212f, 0.154301f, -0.045413f, 
-0.036208f, -0.063211f, 0.035146f, 0.052587f, -0.069043f, -0.075083f, -0.066949f, -0.020683f, 
-0.039575f, 0.070628f, -0.069043f, -0.129967f, -0.091574f, -0.124028f, 0.072241f, -0.013737f, 
0.052481f, 0.083202f, 0.012237f, -0.064755f, -0.103189f, -0.050011f, -0.102187f, -0.081624f, 
0.034527f, -0.056054f, 0.000346f, -0.064579f, 0.005914f, -0.101929f, -0.030337f, 0.107959f, 
0.044243f, 0.033930f, -0.045995f, -0.018043f, -0.012117f, 0.027880f, -0.102198f, -0.044003f, 
0.087308f, 0.062369f, -0.090095f, -0.025233f, -0.113043f, 0.087993f, 0.083104f, 0.079055f, 
-0.037709f, 0.040291f, -0.076366f, -0.032112f, 0.020099f, 0.068604f, -0.045066f, -0.070464f, 
0.082931f, 0.071800f, 0.021666f, 0.054983f, -0.099157f, -0.090442f, 0.062970f, 0.036262f, 
0.054732f, -0.003300f, 0.069237f, 0.071065f, -0.006341f, 0.108744f, 0.122804f, 0.011975f, 
0.029816f, 0.084869f, 0.032185f, 0.135610f, 0.059255f, -0.074322f, 0.012226f, 0.012962f, 
0.084074f, 0.023518f, 0.079977f, -0.016297f, 0.074326f, -0.077186f, 0.109492f, 0.031719f, 
0.131984f, 0.024651f, 0.130521f, -0.046633f, -0.164719f, -0.085592f, -0.042995f, -0.100098f, 
0.012955f, -0.060842f, -0.071361f, -0.076044f, -0.087664f, -0.022769f, -0.122112f, -0.110743f, 
-0.091533f, 0.045563f, -0.108930f, -0.121752f, 0.039184f, -0.128113f, 0.036364f, -0.135027f, 
-0.058136f, 0.026054f, -0.057328f, 0.019015f, 0.040879f, -0.053359f, -0.088943f, -0.115956f, 
-0.100056f, 0.067081f, -0.077407f, -0.079259f, 0.046846f, -0.021181f, 0.008723f, 0.048591f, 
0.060453f, -0.018268f, -0.020898f, 0.003568f, -0.115627f, -0.057291f, -0.012956f, -0.033180f, 
-0.009762f, -0.008280f, 0.041385f, 0.012003f, -0.052307f, 0.023540f, 0.002154f, -0.031579f, 
-0.052066f, -0.070636f, 0.084200f, 0.018068f, 0.051853f, -0.079194f, 0.002455f, -0.042507f, 
-0.088386f, -0.030712f, 0.147893f, 0.057195f, 0.128473f, 0.015513f, 0.131905f, 0.041864f, 
-0.021358f, 0.093561f, -0.011957f, 0.048285f, 0.143578f, 0.090094f, 0.089579f, -0.036349f, 
0.154106f, 0.077971f, 0.050641f, 0.140254f, 0.108660f, 0.070370f, 0.109116f, 0.029770f, 
0.014723f, 0.028196f, -0.021422f, 0.024837f, 0.072253f, 0.021693f, 0.045968f, -0.019179f, 
0.028214f, -0.043652f, -0.030221f, 0.011441f, 0.028566f, -0.060135f, -0.070776f, 0.063006f, 
-0.010533f, -0.084281f, 0.015493f, 0.014882f, 0.096966f, 0.091490f, -0.006327f, 0.031215f, 
0.024430f, 0.116176f, 0.087173f, 0.084948f, 0.066310f, 0.091037f, -0.066118f, 0.125573f, 
0.037954f, -0.046476f, 0.054221f, -0.054602f, -0.056216f, 0.027697f, 0.042117f, 0.031234f, 
0.016866f, -0.104843f, 0.039744f, -0.069425f, -0.038784f, -0.023246f, 0.058931f, 0.070409f, 
-0.020928f, -0.063758f, -0.046715f, -0.122395f, 0.046837f, -0.036130f, -0.020053f, 0.083848f, 
-0.059899f, -0.095814f, 0.034748f, -0.109226f, -0.076846f, -0.129770f, -0.000900f, -0.130313f, 
-0.003696f, -0.007561f, -0.151241f, -0.073678f, -0.053879f, -0.014541f, 0.017698f, 0.085410f, 
-0.082146f, -0.038112f, -0.060298f, 0.020004f, 0.098895f, 0.088080f, -0.071646f, 0.070454f, 
-0.036966f, -0.085452f, 0.127172f, -0.021192f, -0.050121f, 0.101178f, 0.062954f, -0.067417f, 
-0.060764f, -0.032897f, 0.127131f, 0.049970f, -0.081608f, 0.057469f, 0.067417f, 0.083987f, 
0.181477f, 0.127118f, 0.113320f, -0.005275f, 0.087830f, 0.040135f, 0.019009f, 0.088512f, 
0.059715f, 0.092555f, 0.098662f, 0.046693f, 0.118871f, 0.040827f, 0.109967f, 0.090895f, 
0.114364f, 0.148240f, 0.036742f, 0.105580f, 0.077623f, 0.083449f, -0.051125f, 0.131696f, 
0.073632f, -0.008871f, 0.028217f, 0.068467f, 0.003893f, 0.005129f, 0.055161f, -0.125616f, 
0.052142f, -0.102891f, 0.023009f, -0.013187f, 0.042798f, 0.017059f, -0.105046f, -0.014220f, 
-0.074132f, 0.067249f, -0.066760f, 0.008781f, -0.114142f, -0.059803f, -0.101021f, -0.090848f, 
-0.035324f, -0.090844f, -0.017116f, -0.020906f, -0.104996f, -0.072845f, -0.130292f, -0.060963f, 
0.018981f, 0.051090f, 0.018062f, -0.002172f, -0.094773f, 0.084440f, 0.037647f, 0.033351f, 
0.008283f, 0.037451f, -0.005094f, 0.112007f, -0.046525f, -0.012245f, 0.047085f, 0.060677f, 
-0.059844f, 0.046790f, 0.021177f, -0.010755f, -0.046328f, -0.007935f, 0.021593f, 0.097550f, 
-0.061440f, -0.075335f, 0.035594f, 0.048445f, -0.018969f, 0.110933f, 0.005178f, -0.014759f, 
-0.020419f, 0.022056f, 0.127736f, 0.108811f, 0.072270f, 0.093596f, 0.127029f, -0.038691f, 
0.009926f, 0.040316f, 0.001360f, 0.010469f, 0.106920f, 0.072509f, 0.128708f, 0.003888f, 
0.120749f, 0.060214f, 0.086196f, -0.006415f, -0.067334f, -0.019521f, 0.091819f, -0.055320f, 
-0.016623f, 0.079859f, 0.049578f, 0.110890f, -0.009154f, -0.016241f, 0.084931f, 0.048533f, 
0.081842f, 0.079621f, 0.012521f, -0.092439f, -0.020327f, -0.032655f, -0.072762f, 0.011333f, 
0.044275f, -0.043925f, 0.002191f, 0.068298f, -0.051679f, -0.024266f, -0.045113f, -0.010154f, 
-0.106759f, 0.015472f, -0.013980f, -0.009354f, 0.013512f, 0.023368f, 0.031411f, -0.054235f, 
-0.071551f, -0.059892f, 0.061065f, 0.019656f, 0.022848f, 0.094693f, -0.026961f, 0.045910f, 
0.090741f, 0.071824f, -0.061808f, 0.000158f, 0.064268f, -0.015659f, 0.020824f, 0.012336f, 
0.008534f, -0.022968f, -0.043805f, -0.005679f, 0.112200f, 0.001216f, -0.064271f, -0.070889f, 
0.071439f, 0.029269f, 0.088983f, 0.035266f, 0.055924f, 0.009963f, -0.055908f, 0.116436f, 
-0.055809f, 0.006529f, -0.016341f, -0.001820f, -0.019911f, 0.126521f, -0.014690f, 0.000551f, 
0.101186f, -0.020458f, 0.164049f, 0.088902f, -0.038288f, 0.147248f, 0.008891f, 0.155402f, 
0.024874f, 0.109202f, 0.093051f, 0.136341f, 0.128383f, 0.008600f, 0.055358f, 0.030001f, 
0.126023f, 0.107080f, 0.156225f, 0.130958f, 0.153417f, -0.029241f, 0.138714f, 0.044209f, 
0.040837f, 0.042655f, -0.009434f, 0.006591f, -0.048203f, 0.140634f, 0.008722f, 0.126074f, 
0.042942f, 0.071076f, -0.006376f, -0.033128f, 0.089406f, 0.055513f, 0.036370f, 0.030588f, 
-0.006024f, 0.111769f, 0.133596f, 0.138122f, 0.108785f, 0.140986f, -0.053694f, 0.043763f, 
-0.047951f, 0.097576f, -0.019263f, 0.008171f, 0.061204f, -0.043402f, 0.145156f, 0.099247f, 
-0.069965f, -0.071993f, -0.102372f, -0.061795f, -0.046428f, 0.105017f, -0.068736f, 0.095611f, 
0.026012f, 0.101976f, 0.062231f, 0.075559f, 0.061627f, 0.074081f, -0.039680f, -0.020380f, 
-0.052663f, -0.100437f, 0.011994f, -0.047058f, -0.042105f, -0.077164f, 0.037879f, 0.066823f, 
0.049384f, -0.086012f, -0.003008f, 0.040838f, 0.050127f, 0.045109f, 0.062927f, -0.012310f, 
0.122354f, 0.122238f, 0.066750f, 0.157189f, 0.071563f, -0.029890f, 0.143515f, 0.074616f, 
-0.005825f, 0.148926f, -0.008969f, 0.018212f, 0.112021f, 0.018922f, 0.136443f, 0.071191f, 
0.015068f, 0.115200f, 0.090623f, 0.000516f, 0.086149f, 0.105169f, 0.057102f, 0.123342f, 
-0.016545f, 0.105583f, -0.041203f, 0.095761f, 0.058812f, 0.100116f, 0.028024f, 0.093988f, 
-0.045447f, 0.019329f, 0.050778f, 0.049987f, 0.140140f, -0.042087f, -0.058955f, 0.112556f, 
0.063810f, 0.133645f, 0.123478f, 0.127251f, 0.095399f, 0.083551f, 0.116157f, 0.007214f, 
0.135221f, -0.009061f, 0.000253f, 0.115689f, 0.053111f, 0.011067f, 0.127996f, 0.024834f, 
0.000858f, -0.005630f, 0.222658f, 0.076095f, -0.067401f, 0.116044f, 0.074380f, -0.055549f, 
0.108033f, 0.044873f, 0.129885f, -0.060925f, -0.014448f, -0.044220f, -0.026615f, 0.020258f, 
-0.025878f, -0.011446f, -0.016979f, 0.150648f, -0.039592f, -0.042625f, 0.017831f, 0.077677f, 
0.023264f, 0.114035f, 0.065987f, 0.013598f, 0.063093f, -0.063715f, 0.134883f, -0.069871f, 
-0.021306f, 0.006594f, -0.092340f, -0.033328f, -0.084051f, -0.090343f, -0.070444f, -0.016601f, 
-0.114702f, -0.128453f, -0.066044f, 0.001640f, -0.117731f, -0.095052f, -0.050379f, 0.030261f, 
-0.117522f, 0.019343f, 0.034163f, -0.034665f, -0.066770f, -0.141746f, -0.158574f, -0.138718f, 
-0.002321f, -0.027483f, 0.026431f, -0.020547f, -0.034318f, 0.100215f, -0.092868f, -0.016807f, 
-0.088284f, -0.050070f, -0.113260f, 0.058978f, 0.020541f, -0.033897f, 0.034808f, -0.044908f, 
-0.002791f, -0.088658f, 0.011381f, 0.004112f, 0.016208f, -0.087637f, -0.114488f, -0.026866f, 
-0.012869f, -0.042202f, -0.110580f, -0.012953f, -0.018834f, 0.011925f, 0.046467f, -0.088362f, 
-0.039917f, -0.077201f, -0.086113f, -0.206240f, 0.163442f, -0.091984f, -0.073965f, 0.065542f, 
-0.010453f, 0.043697f, -0.013619f, 0.045286f, -0.045009f, 0.003915f, 0.000107f, 0.066879f, 
-0.011326f, -0.051969f, -0.046418f, -0.069001f, 0.020361f, -0.105201f, -0.026117f, -0.087701f, 
-0.110704f, -0.062453f, -0.026599f, 0.052079f, 0.072324f, 0.005282f, 0.073325f, -0.031418f, 
0.073049f, 0.012021f, 0.009848f, -0.034234f, -0.097409f, -0.043247f, -0.053633f, -0.065606f, 
0.066393f, -0.017697f, -0.026356f, 0.088500f, 0.091506f, 0.011600f, -0.002900f, -0.017644f, 
0.007507f, -0.114568f, -0.084172f, -0.077850f, -0.008602f, -0.026832f, -0.073611f, -0.013708f, 
-0.078162f, 0.089558f, -0.023415f, 0.025162f, -0.030003f, -0.079832f, -0.089874f, 0.073159f, 
-0.081886f, 0.015468f, -0.023850f, 0.014749f, 0.054622f, 0.018423f, -0.019270f, -0.051785f, 
-0.023296f, 0.015771f, 0.023606f, -0.054467f, 0.023731f, -0.057592f, -0.102489f, 0.064478f, 
-0.016037f, -0.046731f, 0.015154f, -0.027276f, 0.003746f, -0.077744f, 0.109123f, -0.008346f, 
-0.074041f, 0.007732f, -0.061861f, 0.018352f, 0.038030f, -0.091302f, 0.129636f, 0.048747f, 
0.088024f, 0.052968f, 0.000131f, 0.090310f, 0.024133f, 0.060495f, 0.003100f, 0.102687f, 
0.079059f, 0.033376f, -0.057672f, 0.042778f, 0.064510f, 0.001084f, 0.063130f, -0.056949f, 
-0.006683f, -0.042502f, -0.049173f, 0.025065f, -0.069200f, 0.009556f, -0.016649f, 0.114159f, 
-0.055662f, 0.067572f, -0.007423f, 0.071974f, -0.044612f, 0.055720f, 0.041516f, 0.030553f, 
0.078304f, 0.056800f, -0.045724f, -0.053538f, 0.114215f, 0.116872f, 0.079302f, -0.076360f, 
-0.010680f, -0.062923f, 0.047873f, 0.105634f, -0.075636f, -0.063624f, -0.080739f, -0.056399f, 
0.018661f, 0.111549f, -0.043451f, 0.026520f, 0.024529f, 0.024457f, 0.057726f, -0.043453f, 
0.048246f, 0.104775f, -0.019335f, -0.044922f, -0.063413f, -0.105746f, 0.052226f, 0.037970f, 
-0.016323f, 0.018546f, -0.079571f, -0.102651f, -0.125294f, -0.062593f, 0.003710f, -0.102595f, 
0.045286f, 0.072875f, -0.106973f, 0.075362f, 0.045350f, -0.059928f, -0.115247f, 0.032139f, 
-0.033214f, -0.005168f, -0.108977f, 0.014035f, -0.096758f, -0.073793f, -0.090524f, 0.008999f, 
-0.077783f, -0.053921f, 0.058127f, -0.056811f, -0.045619f, -0.008414f, 0.062005f, -0.003652f, 
-0.078353f, -0.031865f, 0.085461f, -0.087313f, 0.022970f, -0.005269f, 0.060022f, -0.078193f, 
-0.003951f, 0.077306f, -0.098804f, 0.079609f, 0.033234f, -0.089524f, -0.077277f, 0.020346f, 
0.050410f, -0.006285f, 0.025907f, 0.053429f, 0.056431f, 0.123371f, 0.083013f, 0.127873f, 
-0.056342f, 0.068013f, -0.008923f, 0.097048f, 0.077294f, -0.058908f, 0.030623f, -0.058642f, 
0.017773f, -0.000944f, -0.069221f, 0.002851f, 0.065080f, 0.080093f, 0.100848f, -0.059599f, 
0.120405f, -0.025220f, 0.029817f, 0.042267f, 0.018328f, -0.010017f, -0.029114f, 0.120784f, 
0.129771f, 0.117571f, 0.092687f, 0.081781f, 0.108523f, 0.097301f, -0.026047f, 0.002605f, 
0.142724f, 0.090908f, 0.060549f, 0.028952f, 0.087372f, 0.106680f, 0.047181f, -0.034223f, 
0.068254f, 0.110314f, 0.103667f, -0.026520f, 0.116657f, -0.017469f, -0.009710f, -0.026482f, 
0.099645f, 0.021367f, 0.008924f, -0.042548f, 0.057921f, -0.051969f, 0.139769f, 0.065264f, 
0.076017f, 0.139524f, 0.115293f, 0.064987f, -0.011455f, 0.012117f, -0.060776f, 0.010945f, 
0.012995f, -0.013513f, -0.028390f, 0.079179f, 0.062153f, 0.144331f, 0.077758f, 0.013808f, 
0.111448f, 0.092599f, 0.089462f, 0.068101f, -0.033868f, 0.107819f, -0.072833f, 0.036407f, 
-0.074448f, -0.029838f, -0.035064f, 0.102479f, 0.045302f, 0.091527f, 0.092453f, -0.029702f, 
-0.150765f, -0.085946f, -0.167118f, -0.076914f, -0.097734f, -0.043968f, 0.017776f, -0.137282f, 
0.033840f, -0.161601f, -0.089771f, -0.011864f, -0.066253f, -0.071328f, 0.026246f, -0.150652f, 
0.007879f, -0.011921f, -0.067495f, -0.107668f, -0.113295f, 0.045839f, -0.144285f, -0.151926f, 
-0.071276f, -0.142524f, -0.128001f, -0.067521f, 0.034562f, 0.108088f, -0.088245f, 0.079112f, 
-0.098440f, 0.016259f, 0.004951f, 0.099583f, 0.024936f, 0.060467f, -0.051733f, -0.082115f, 
-0.068833f, 0.025573f, -0.069093f, -0.018563f, -0.079242f, 0.086950f, -0.031874f, -0.072664f, 
0.018792f, -0.111855f, -0.000711f, 0.040298f, 0.057895f, -0.030288f, -0.100846f, 0.075784f, 
0.039735f, -0.110251f, 0.061998f, 0.054897f, -0.057688f, 0.051993f, 0.053206f, 0.147558f, 
0.074893f, 0.082874f, 0.100412f, 0.033449f, 0.023172f, 0.136673f, 0.135479f, -0.036063f, 
0.020151f, 0.064746f, 0.067658f, 0.049723f, 0.022125f, -0.037615f, 0.046259f, 0.142530f, 
0.067006f, 0.113904f, -0.019887f, 0.052643f, -0.032846f, 0.099884f, -0.042082f, 0.106918f, 
0.146681f, 0.012532f, 0.082883f, 0.068576f, -0.051808f, -0.040127f, -0.010761f, -0.012691f, 
-0.096603f, 0.084760f, 0.063628f, -0.003355f, 0.028270f, -0.094182f, -0.107336f, 0.053722f, 
-0.032838f, 0.061180f, 0.029000f, 0.085364f, -0.000773f, -0.078547f, -0.012174f, 0.018352f, 
0.031222f, 0.050961f, 0.058249f, 0.079651f, 0.044012f, -0.012560f, -0.097407f, -0.009729f, 
0.023698f, 0.035856f, 0.024835f, 0.068609f, -0.059833f, -0.069562f, 0.031498f, -0.017533f, 
-0.055255f, -0.023922f, -0.130650f, 0.042158f, -0.094756f, 0.050960f, -0.017165f, -0.093931f, 
-0.090434f, 0.058208f, -0.094655f, -0.032821f, 0.057032f, 0.003563f, -0.010033f, -0.002758f, 
-0.041179f, -0.018693f, 0.036588f, 0.068934f, -0.111578f, -0.073438f, 0.222733f, -0.063701f, 
-0.006828f, -0.089288f, -0.006588f, 0.056398f, -0.027683f, -0.004957f, -0.006735f, 0.067327f, 
0.033983f, 0.003954f, -0.078148f, -0.067695f, -0.037856f, -0.075179f, 0.065494f, 0.078208f, 
0.104909f, 0.018878f, 0.075295f, -0.023023f, 0.002755f, -0.059391f, 0.020722f, 0.016830f, 
-0.097326f, -0.066894f, -0.074734f, -0.092350f, -0.056651f, -0.033143f, -0.093963f, -0.074956f, 
-0.119896f, 0.022438f, -0.106310f, 0.007938f, -0.087000f, 0.008206f, -0.068262f, 0.018162f, 
-0.100739f, -0.057257f, 0.021519f, -0.062590f, -0.094780f, 0.063981f, -0.012115f, -0.066548f, 
0.043415f, -0.022527f, 0.007384f, 0.047157f, -0.058470f, -0.023706f, -0.035110f, -0.110780f, 
0.075500f, 0.022811f, 0.116386f, 0.056678f, 0.024360f, 0.045417f, 0.078343f, -0.062678f, 
-0.064163f, 0.066980f, 0.005076f, -0.045983f, -0.024721f, 0.040837f, 0.037569f, -0.014102f, 
0.036379f, -0.066503f, 0.081190f, -0.064776f, 0.008416f, 0.070052f, 0.013811f, 0.038293f, 
-0.054845f, -0.070115f, -0.057093f, 0.061362f, 0.034369f, -0.027580f, -0.060948f, -0.029763f, 
-0.006115f, -0.065159f, 0.090150f, 0.044019f, -0.013087f, 0.034685f, 0.013522f, -0.034423f, 
-0.004634f, 0.033538f, 0.048573f, 0.014751f, 0.008883f, 0.033140f, 0.042742f, 0.064138f, 
0.081535f, -0.007823f, 0.087005f, 0.010406f, 0.004611f, 0.073067f, -0.072222f, 0.073976f, 
0.089124f, 0.028942f, 0.038862f, 0.007302f, 0.057325f, 0.015203f, 0.090228f, 0.141102f, 
0.141096f, 0.088954f, 0.005960f, 0.012342f, 0.069959f, 0.109724f, 0.055945f, 0.123531f, 
0.014986f, 0.042298f, 0.091277f, 0.048753f, 0.044669f, 0.140663f, -0.018458f, -0.001205f, 
0.107753f, -0.041400f, 0.156513f, -0.051886f, 0.122062f, 0.100714f, -0.019172f, -0.017937f, 
0.065220f, 0.131354f, 0.116149f, -0.043529f, -0.066517f, 0.116344f, 0.042704f, -0.047678f, 
0.083817f, 0.058807f, 0.093042f, 0.075493f, 0.037502f, -0.062803f, 0.021951f, 0.106433f, 
-0.037352f, -0.062717f, 0.070756f, -0.007221f, 0.029885f, 0.063944f, 0.026236f, 0.048798f, 
-0.036139f, -0.064578f, 0.024433f, 0.093538f, -0.038677f, -0.031927f, -0.021784f, -0.002947f, 
0.110147f, -0.055061f, -0.024011f, -0.071853f, -0.088091f, -0.030020f, -0.093126f, 0.060979f, 
-0.011518f, -0.049451f, 0.018863f, -0.051772f, 0.078924f, 0.019351f, 0.078741f, 0.048944f, 
0.079426f, -0.074818f, 0.080481f, -0.041487f, -0.054774f, 0.068170f, -0.073360f, -0.046958f, 
0.043369f, 0.024009f, 0.027226f, 0.081301f, 0.023653f, 0.055603f, -0.069238f, 0.062695f, 
0.047393f, 0.104613f, 0.071009f, 0.109886f, 0.022312f, 0.094271f, -0.060468f, 0.029957f, 
0.050622f, -0.027366f, -0.024783f, 0.037288f, -0.022058f, 0.118130f, 0.099849f, 0.140198f, 
0.039082f, 0.073515f, 0.052500f, -0.002677f, 0.016594f, -0.044372f, 0.142450f, -0.048694f, 
-0.036744f, 0.050189f, 0.117446f, 0.022944f, 0.057567f, -0.020388f, 0.099628f, 0.033505f, 
0.115507f, 0.071658f, 0.010374f, 0.096711f, 0.117523f, -0.016532f, 0.017691f, 0.053327f, 
-0.046042f, 0.027848f, 0.140280f, -0.059597f, -0.040083f, 0.106280f, 0.020956f, 0.136916f, 
0.072503f, -0.030479f, 0.076651f, 0.004326f, -0.065133f, 0.013856f, -0.034182f, 0.051487f, 
0.138800f, -0.015911f, 0.067071f, 0.079807f, -0.024795f, -0.030259f, 0.000430f, -0.007575f, 
0.052855f, -0.059061f, -0.050903f, -0.004361f, -0.009405f, -0.014764f, 0.068052f, -0.050817f, 
0.023616f, -0.011640f, -0.080558f, -0.036333f, 0.052513f, 0.046648f, 0.013227f, 0.090190f, 
-0.016311f, -0.026110f, -0.108960f, 0.000774f, 0.018304f, -0.101964f, 0.030407f, -0.055075f, 
0.074728f, 0.139052f, -0.065858f, 0.134151f, 0.131703f, 0.136556f, -0.010112f, 0.050047f, 
-0.030495f, 0.053728f, 0.136817f, 0.111326f, -0.019302f, -0.024780f, 0.137976f, 0.097310f, 
0.137440f, 0.055165f, 0.050333f, -0.008994f, 0.097710f, -0.024385f, 0.118304f, 0.039703f, 
0.121517f, 0.028597f, 0.002996f, 0.061086f, -0.006720f, 0.013745f, 0.058849f, 0.004338f, 
-0.018710f, 0.042681f, -0.007637f, 0.124901f, 0.078997f, 0.002586f, 0.036195f, -0.039568f, 
0.109471f, 0.033186f, 0.138995f, 0.117581f, 0.009533f, 0.146688f, 0.125532f, -0.021770f, 
0.014912f, 0.019782f, 0.009494f, -0.017035f, 0.068894f, 0.028536f, 0.009489f, 0.039845f, 
0.144306f, 0.135463f, -0.028585f, 0.122390f, 0.042784f, 0.065046f, 0.011484f, 0.128011f, 
0.131061f, -0.017051f, 0.104143f, 0.077007f, 0.073116f, 0.016942f, 0.134147f, 0.113105f, 
0.040842f, -0.015863f, -0.022988f, 0.029055f, 0.140749f, -0.013016f, 0.100924f, -0.020858f, 
0.103209f, -0.030795f, 0.072066f, 0.021741f, 0.025572f, 0.124387f, -0.030818f, 0.007090f, 
0.106466f, 0.115713f, 0.025635f, -0.052259f, -0.114542f, -0.064923f, 0.060686f, -0.016128f, 
-0.037109f, -0.150224f, -0.130416f, -0.126947f, -0.047745f, -0.092167f, -0.061181f, -0.055097f, 
-0.136932f, -0.083740f, -0.101590f, -0.091535f, 0.018440f, 0.038048f, -0.017046f, -0.126275f, 
-0.066734f, 0.002169f, -0.007078f, -0.052942f, 0.005838f, -0.000627f, -0.132847f, -0.031457f, 
-0.101777f, -0.117434f, 0.027603f, 0.061077f, -0.073474f, 0.020805f, -0.031419f, -0.086782f, 
-0.007093f, 0.022329f, -0.003576f, 0.038016f, 0.062721f, -0.007820f, -0.033614f, 0.051383f, 
0.001533f, 0.070879f, -0.107044f, 0.069022f, -0.028355f, 0.007658f, -0.117974f, -0.112927f, 
-0.050952f, -0.067057f, -0.021861f, -0.004981f, 0.060702f, 0.071899f, 0.070934f, -0.155665f, 
0.217745f, -0.052047f, 0.077295f, 0.042208f, 0.005885f, 0.115716f, 0.028546f, 0.062548f, 
0.111826f, 0.133944f, 0.058158f, 0.076416f, 0.105995f, 0.010070f, -0.041013f, 0.116183f, 
-0.038230f, -0.027891f, -0.020882f, 0.063702f, 0.054370f, 0.138343f, -0.055983f, 0.102315f, 
-0.027942f, 0.005292f, -0.016497f, 0.099170f, 0.044805f, -0.156590f, 0.029925f, -0.166259f, 
-0.082979f, -0.136440f, -0.126212f, -0.000100f, -0.154142f, 0.012725f, 0.009470f, -0.063525f, 
-0.115741f, -0.096905f, 0.004178f, -0.034777f, -0.122328f, 0.049532f, 0.028043f, -0.143799f, 
-0.012804f, -0.022810f, -0.091303f, -0.166503f, 0.006664f, -0.029351f, 0.020689f, -0.176073f, 
-0.169244f, -0.093426f, -0.067293f, 0.082469f, -0.024696f, -0.111890f, -0.004920f, 0.053588f, 
-0.090171f, 0.095367f, -0.089475f, -0.019063f, -0.082985f, 0.017634f, 0.024876f, 0.063446f, 
-0.111611f, -0.105364f, 0.015263f, -0.023143f, -0.117256f, -0.085691f, 0.057867f, 0.083162f, 
-0.065318f, -0.003588f, -0.074891f, -0.068098f, 0.027655f, 0.043821f, -0.010397f, -0.005519f, 
-0.096272f, -0.057813f, 0.174324f, 0.087072f, -0.052167f, -0.088722f, 0.036893f, -0.000380f, 
-0.070028f, 0.059532f, 0.057721f, -0.065264f, 0.032359f, -0.040519f, 0.050555f, 0.062507f, 
-0.055145f, -0.080227f, -0.052551f, -0.011408f, -0.114045f, -0.093231f, 0.001185f, 0.016251f, 
-0.023345f, -0.074387f, 0.062334f, -0.094790f, -0.093577f, 0.021834f, -0.053646f, 0.073133f, 
-0.073721f, -0.006757f, -0.044919f, 0.095712f, -0.069361f, -0.033592f, 0.018960f, -0.021256f, 
-0.020913f, -0.046223f, -0.058686f, -0.043091f, 0.054531f, 0.049896f, 0.047665f, -0.000095f, 
-0.006062f, 0.022640f, -0.048400f, 0.092585f, 0.109634f, -0.089505f, -0.034104f, 0.030043f, 
-0.054170f, 0.076149f, 0.116590f, -0.058457f, -0.010570f, -0.061771f, 0.068167f, 0.045234f, 
0.041715f, -0.001407f, 0.102739f, 0.037275f, 0.075032f, -0.025073f, 0.089021f, -0.027566f, 
0.036995f, 0.144229f, 0.014435f, 0.034917f, 0.131362f, 0.080144f, 0.137829f, 0.081836f, 
-0.053686f, -0.023285f, 0.078987f, 0.136365f, 0.109011f, 0.074527f, 0.047016f, 0.075643f, 
-0.002262f, -0.004344f, 0.104384f, 0.105247f, -0.085307f, -0.001005f, 0.070236f, 0.009492f, 
0.042329f, 0.075577f, -0.083613f, -0.041455f, -0.099153f, -0.102779f, 0.002116f, 0.082653f, 
0.027102f, 0.058361f, -0.084287f, 0.037813f, -0.101305f, 0.001972f, -0.084400f, -0.023036f, 
0.069049f, 0.070112f, 0.000646f, 0.031449f, -0.104485f, 0.037496f, -0.005892f, -0.028506f, 
-0.004006f, -0.077870f, -0.081007f, -0.065715f, -0.048106f, 0.082561f, 0.055330f, 0.087980f, 
0.015733f, -0.058209f, -0.082964f, 0.033601f, 0.076793f, -0.083667f, 0.100838f, 0.035095f, 
0.057916f, 0.018681f, -0.039441f, 0.038677f, 0.115862f, 0.038081f, 0.102965f, -0.084504f, 
-0.026321f, 0.026313f, 0.052196f, -0.062121f, 0.114232f, -0.016640f, -0.019792f, -0.049888f, 
-0.084038f, 0.041689f, 0.020190f, -0.058364f, 0.092418f, 0.041187f, 0.091956f, 0.081440f, 
0.143353f, 0.124867f, 0.020600f, 0.127739f, -0.042201f, 0.109754f, -0.008601f, 0.106387f, 
0.031688f, 0.141614f, 0.108671f, -0.033954f, 0.062759f, -0.008339f, -0.057658f, -0.014183f, 
-0.015071f, 0.031108f, 0.074368f, 0.108283f, 0.094893f, -0.057024f, 0.016867f, 0.022421f, 
-0.126108f, -0.109835f, -0.084224f, 0.050909f, 0.013254f, -0.013774f, 0.092401f, -0.040923f, 
-0.093763f, -0.038660f, 0.018548f, -0.002618f, -0.044156f, -0.071947f, 0.019698f, -0.061436f, 
0.089364f, -0.043964f, -0.088195f, -0.096938f, -0.058891f, 0.011293f, -0.070278f, -0.076207f, 
-0.040783f, 0.083135f, 0.092973f, 0.005613f, 0.085586f, -0.094004f, 0.069677f, -0.093324f, 
-0.034234f, 0.053801f, -0.021896f, 0.095306f, 0.052814f, 0.028962f, -0.052709f, 0.087987f, 
0.024124f, 0.073951f, 0.055757f, -0.000316f, 0.015337f, 0.005713f, -0.020794f, 0.088514f, 
-0.031311f, -0.034605f, 0.080685f, 0.075412f, 0.038889f, -0.059365f, 0.082116f, 0.035942f, 
-0.043461f, 0.057837f, -0.053625f, 0.134646f, 0.120036f, 0.056497f, 0.100872f, -0.043678f, 
0.037166f, 0.124770f, 0.145426f, 0.030026f, 0.096896f, 0.032662f, 0.063759f, -0.049997f, 
0.013086f, 0.048471f, 0.132740f, -0.050994f, 0.059412f, 0.119570f, 0.093263f, 0.046181f, 
0.022134f, 0.092892f, -0.000022f, 0.058782f, -0.028871f, -0.023868f, 0.054089f, 0.111494f, 
-0.091533f, 0.067265f, 0.034161f, -0.088536f, 0.046463f, -0.014678f, -0.112835f, -0.062615f, 
-0.079180f, -0.017291f, 0.025582f, -0.093270f, -0.053334f, 0.024568f, 0.008101f, -0.021201f, 
0.103413f, -0.099193f, -0.052001f, 0.083503f, 0.049613f, 0.047932f, 0.092455f, -0.047035f, 
0.121431f, -0.077338f, 0.048041f, 0.041125f, 0.076091f, 0.170648f, 0.020814f, 0.078410f, 
0.047379f, 0.018014f, 0.075708f, 0.008629f, 0.019512f, 0.171321f, 0.046973f, 0.098868f, 
0.088272f, 0.138236f, 0.168881f, 0.047475f, 0.142549f, 0.086267f, 0.158243f, 0.049241f, 
-0.022907f, 0.143749f, 0.014884f, 0.151012f, 0.077701f, -0.002955f, 0.015999f, 0.032930f, 
0.124155f, 0.141130f, 0.064444f, 0.086282f, 0.029226f, 0.071816f, -0.035774f, -0.000829f, 
0.052299f, 0.050036f, -0.016314f, 0.008437f, -0.076592f, 0.107179f, 0.112541f, 0.056482f, 
0.092966f, 0.004012f, -0.086116f, -0.043365f, -0.049556f, -0.030814f, 0.056033f, -0.085086f, 
0.062167f, -0.035720f, -0.020352f, 0.011980f, -0.025974f, 0.107052f, -0.028729f, -0.076763f, 
0.000179f, 0.044664f, -0.045108f, 0.124366f, 0.126070f, 0.146450f, 0.025817f, -0.023914f, 
0.077803f, -0.005323f, 0.140139f, 0.099244f, 0.081239f, -0.062646f, 0.092221f, -0.051172f, 
0.100989f, 0.012253f, 0.066791f, 0.108594f, 0.076164f, 0.104268f, 0.069017f, -0.008427f, 
0.123578f, 0.102664f, 0.001957f, 0.076532f, -0.026902f, 0.005877f, 0.121524f, -0.090024f, 
-0.094156f, -0.069849f, 0.100110f, 0.058634f, -0.069032f, 0.051148f, 0.042375f, 0.075329f, 
-0.056636f, -0.092708f, -0.086328f, -0.048883f, -0.033582f, -0.090508f, 0.004778f, 0.081975f, 
-0.069587f, 0.037490f, 0.079775f, 0.025366f, 0.101608f, -0.104794f, -0.108323f, 0.014165f, 
-0.015631f, 0.089906f, -0.098513f, 0.073352f, -0.096946f, 0.104249f, -0.050867f, -0.053653f, 
-0.098921f, 0.002840f, 0.032196f, -0.084379f, -0.113008f, -0.034274f, 0.086486f, 0.044730f, 
-0.084962f, -0.080744f, 0.019158f, -0.050035f, -0.004229f, -0.062318f, -0.014219f, -0.076111f, 
-0.002419f, 0.050285f, -0.017214f, -0.011222f, 0.068155f, 0.028167f, 0.059284f, 0.018248f, 
0.044260f, 0.074297f, 0.008315f, 0.031791f, -0.079056f, -0.087037f, -0.047927f, 0.040206f, 
0.041196f, 0.085012f, 0.067522f, 0.036448f, 0.089784f, -0.086343f, 0.010343f, -0.059561f, 
0.051960f, -0.107575f, 0.041064f, -0.088640f, -0.121680f, 0.060896f, 0.016204f, 0.060172f, 
0.011788f, -0.040138f, -0.080445f, -0.019365f, 0.006580f, -0.046988f, -0.070433f, -0.106343f, 
0.043575f, 0.074588f, -0.011903f, 0.070375f, 0.066104f, 0.073176f, 0.073296f, 0.090648f, 
0.025498f, -0.096991f, -0.001860f, 0.093324f, 0.076485f, -0.085326f, 0.024295f, -0.032424f, 
0.044535f, 0.102680f, 0.058354f, -0.004445f, 0.088901f, 0.083639f, -0.067726f, 0.030872f, 
0.104714f, 0.095638f, 0.056765f, 0.020266f, 0.066641f, -0.074077f, -0.077317f, 0.003527f, 
-0.057613f, 0.040560f, 0.127127f, 0.037799f, -0.072284f, 0.081961f, -0.071345f, -0.076832f, 
-0.022180f, 0.127164f, -0.074536f, 0.065506f, 0.056333f, -0.040707f, 0.019827f, 0.128676f, 
-0.023207f, 0.034923f, -0.049233f, -0.075127f, 0.108940f, 0.038016f, 0.035533f, 0.110295f, 
0.089248f, 0.098181f, 0.051648f, 0.006711f, 0.024028f, -0.051747f, 0.003240f, -0.015840f, 
0.153794f, 0.088941f, 0.165414f, 0.072245f, -0.029177f, 0.004758f, 0.115665f, 0.079790f, 
0.059873f, -0.034762f, -0.029144f, 0.147705f, 0.059502f, -0.000978f, 0.006491f, 0.094486f, 
0.173102f, 0.051791f, 0.111748f, 0.109874f, 0.166486f, 0.033035f, 0.056638f, 0.074776f, 
0.157121f, 0.120650f, 0.135242f, 0.001152f, -0.009315f, -0.117211f, -0.112748f, -0.072418f, 
-0.099838f, 0.077995f, -0.092927f, 0.005797f, -0.060681f, -0.071708f, -0.062076f, 0.067229f, 
-0.050730f, -0.003386f, -0.041083f, -0.102794f, 0.094039f, -0.047715f, -0.060357f, 0.035201f, 
-0.036443f, -0.068804f, -0.016075f, 0.036351f, -0.013467f, 0.037335f, -0.018408f, -0.060985f, 
-0.107295f, -0.047203f, -0.040813f, -0.065604f, 0.010108f, -0.081882f, -0.054168f, 0.063287f, 
0.044384f, 0.082214f, 0.038090f, 0.026382f, -0.081624f, 0.065543f, -0.111663f, -0.097394f, 
-0.024280f, -0.019690f, -0.043246f, -0.056045f, 0.049872f, -0.021277f, -0.079969f, -0.090198f, 
0.007286f, -0.053966f, 0.002727f, 0.095299f, 0.078954f, 0.051072f, -0.046450f, -0.066617f, 

};

#endif // FC1_WEIGHT_H
