#ifndef FC2_WEIGHT_H
#define FC2_WEIGHT_H

float fc2_weight[] = {
0.198493f, 0.018685f, 0.159185f, -0.167341f, -0.183139f, 0.221892f, -0.156081f, 0.285424f, 
-0.072898f, -0.201248f, -0.108112f, -0.198005f, 0.111982f, 0.200032f, -0.053243f, -0.002121f, 
-0.086269f, -0.197543f, 0.217645f, 0.091434f, -0.005433f, 0.007210f, 0.231155f, -0.081771f, 
-0.117752f, -0.078206f, 0.018283f, -0.191803f, 0.211650f, -0.127446f, 0.162511f, 0.246976f, 
-0.019458f, 0.225406f, -0.065582f, -0.021222f, -0.045614f, -0.195069f, -0.163197f, -0.012951f, 
-0.200753f, -0.029451f, -0.189729f, -0.207264f, -0.119180f, 0.136948f, 0.113675f, 0.155767f, 
0.028702f, 0.195438f, -0.161093f, 0.142395f, -0.117789f, -0.011536f, -0.058918f, 0.023258f, 
0.196044f, 0.093050f, 0.080438f, -0.111596f, -0.121680f, -0.042816f, 0.006842f, -0.124259f, 
-0.014339f, -0.122378f, -0.031304f, 0.172842f, 0.230571f, -0.201925f, 0.083587f, -0.205294f, 
0.011720f, -0.094149f, -0.034809f, -0.045743f, 0.048591f, 0.037775f, 0.075765f, 0.126997f, 
-0.197327f, 0.044214f, 0.126651f, 0.147116f, -0.002509f, -0.146222f, 0.139743f, -0.155539f, 
0.078395f, 0.011383f, -0.025940f, 0.090793f, -0.023317f, -0.137570f, -0.229095f, -0.018458f, 
-0.109028f, 0.009900f, -0.114837f, -0.035239f, 0.093227f, 0.143413f, 0.183814f, 0.168568f, 
0.055594f, -0.149787f, -0.107078f, -0.069876f, -0.147143f, 0.079575f, -0.123480f, -0.041504f, 
-0.108158f, 0.131570f, 0.135250f, -0.118386f, -0.044878f, -0.087256f, -0.122687f, 0.182214f, 
0.186286f, -0.187477f, -0.015692f, 0.071981f, -0.135485f, 0.179846f, 0.021888f, 0.177474f, 
-0.103101f, -0.019360f, 0.020456f, -0.096614f, -0.136074f, -0.236355f, 0.148259f, -0.144036f, 
0.060028f, 0.091713f, 0.070958f, 0.137090f, -0.198831f, 0.073402f, -0.035576f, 0.055196f, 
0.001228f, 0.129053f, -0.198824f, 0.081545f, 0.002954f, -0.063783f, -0.151760f, -0.121510f, 
0.026984f, -0.006140f, 0.142539f, 0.125841f, -0.049211f, 0.023254f, -0.219260f, 0.009883f, 
0.091549f, -0.082232f, 0.093961f, 0.028674f, 0.041537f, 0.123974f, -0.002052f, -0.132762f, 
0.072852f, 0.150254f, 0.034504f, 0.038307f, 0.069813f, -0.130916f, -0.231375f, 0.024243f, 
0.024436f, -0.104078f, 0.041500f, -0.210572f, 0.034213f, 0.050407f, 0.033455f, -0.050128f, 
-0.165268f, -0.123685f, -0.018344f, -0.010475f, 0.054290f, 0.015171f, 0.035842f, 0.039084f, 
-0.106217f, 0.037810f, -0.154102f, -0.018885f, -0.088372f, 0.013838f, -0.060811f, -0.148356f, 
0.076050f, 0.034492f, 0.115342f, -0.093202f, -0.235318f, -0.109896f, -0.094727f, -0.185886f, 
0.061435f, -0.069097f, -0.190427f, -0.123500f, 0.119603f, 0.141486f, -0.110334f, 0.125289f, 
0.103016f, 0.095951f, -0.202566f, -0.124871f, -0.228138f, 0.004853f, -0.183819f, -0.053252f, 
-0.075349f, 0.129468f, 0.108771f, -0.040394f, -0.212839f, -0.224514f, -0.137234f, -0.140527f, 
-0.036627f, 0.007927f, -0.065405f, 0.086925f, 0.122192f, -0.141401f, 0.031480f, -0.215357f, 
0.140794f, -0.197103f, -0.054916f, -0.153348f, 0.041317f, 0.102764f, 0.136598f, -0.029605f, 
-0.133771f, 0.019400f, 0.095875f, 0.159974f, 0.024049f, -0.198509f, 0.122635f, -0.144816f, 

};

#endif // FC2_WEIGHT_H
